svm_type c_svc
kernel_type linear
nr_class 31
total_sv 495
rho 0.9939362967582335 0.41553967432426653 0.9186361047681485 -0.10534556306131677 0.9748676747040659 0.3416521332064871 0.38521980372512443 0.4955030640239694 -0.10711096730104785 0.039353432585427 1.0412334604381297 -0.05904576964768013 0.30158387429790345 0.8865036457168549 -0.2315572396833385 0.06190428152963819 1.0652409026490501 0.18657662190322094 0.39676562350871586 -0.34388797208125343 0.1440281304592509 -0.03436055340043207 0.1550404780771992 0.30042668919028076 0.8966363613036756 0.5854029867582558 0.28924309813753646 0.3049460036880257 0.6043511444242109 0.36735314713559214 -0.9287046155349847 -0.884068242863182 -0.9726421340526165 -0.9155223506475795 -0.9965641014674832 -0.9428662568786059 -1.0123819345545155 -0.955306912542955 -1.0210167323703694 -0.9398387125895563 -1.0008917959461927 -1.028294554683021 -0.9471712091204566 -1.0031969533674536 -1.0274427467025702 0.7476730410756465 -1.0668333295746166 -1.0064952430313727 -1.0410289755130056 -1.0244073103950448 -0.9896565033376948 -1.0369378075638749 -0.8846983120192183 -1.0063322980219072 -0.8520018190542826 -1.0164971883071448 -0.9071116072274246 -0.8477366824577012 -0.8596065987998943 0.33559811050158345 -0.41692515306683786 0.3473315085722257 -0.13380015777432105 0.28778347980579116 -0.2783931638818513 -0.2891684057684711 -0.5997264126042924 0.16868399789524488 -0.38690336787602336 -0.1152208032586602 0.5502060943401933 -0.5310309861356657 -0.29433630202990496 1.0298926291912402 -0.14312112055945422 -0.00842216384645999 -0.6591193505683928 -0.08678162703022482 -0.3399493820964534 -0.44825277957602944 0.2898740128410942 -0.1401213722382509 0.5994851826683115 -0.15377571653948532 0.1298562234595896 0.6137978224216877 0.1593519351917317 -0.889192827445503 0.5670193987799559 -0.5677009546632575 -0.0966526894918762 -1.0547233085108445 -0.7841402854040508 -1.388876642408633 0.04153150851621445 -0.9073684221772202 -0.43438144791266103 0.34102502839560694 -1.514000799406275 -0.7728500138648995 0.9939827137493505 -0.42355758540611055 -0.16167577410976347 -1.2605399619152868 -0.5555923997871558 -1.0245420778108212 -0.7376518200471146 -0.009030240955571645 -0.5031524944266521 0.30225661339348053 -0.41896658047833885 -0.3588983773043993 0.2739268139026985 -0.2402833954898745 0.790695365008695 0.3194860515243148 0.4054942706329215 0.2315387366154588 0.6007539095872964 0.05384746534415103 0.5442483659569619 0.07038235144411131 0.18939956732480076 0.8981707834065682 -0.1306873578584446 0.07695433233902932 0.9947898450577046 0.18034171988661313 0.30294010933249854 -0.17711816964834645 0.41160838777054864 0.17767875932078547 0.0802120704322177 0.5529534724116731 0.03375777363232157 0.7629774676912475 0.23721621269874957 0.5566718776483472 0.7357212299114502 0.7477644108786091 -0.9380554588954542 -0.1833651290458156 -1.0259702195550402 -0.8086207884917861 -1.5560220479280493 -0.07481013839712755 -0.8614956782859894 -0.6380053018605848 0.22389293975821817 -1.2500581407656772 -1.0663608563924951 1.0474112882555897 -0.6734757598475679 -0.36661479210324277 -1.164957279697112 -0.615182718432976 -0.9450333601623496 -0.7884425127816472 -0.16259861486730007 -0.5822748127983283 0.054437409036820074 -0.6021726163209375 -0.3782476433368031 0.1170652184959548 -0.3359572554167569 0.25555121098578654 0.013912798659566987 -0.05745647565035756 -0.5556721304010446 1.0082433430963207 -0.34130414639506956 0.13655916470806495 1.2978400956251204 -0.5139469955282309 -0.25983726068087215 1.0628226679492934 0.08564446269950342 0.27635162346367703 -0.586363683111009 0.14348090743557596 -0.18240056840379962 0.05724837166932141 0.26770918707610536 0.2608658340566253 0.5471812729789354 -0.008243109902493188 0.12822434220430148 0.5952087071839391 0.27002338758142996 -0.34368006995289735 -0.11881236163981357 -0.4868721512159313 0.02607005815338606 -0.3450070607465487 -0.18616735066192974 0.4392531625456961 -0.6255924983415535 -0.3635817583147446 1.0042390791007978 -0.18393641894990168 -0.10936878335764984 -0.6513665987364203 -0.1999825183816942 -0.36002580363470654 -0.33210383350628186 0.2587861367643224 -0.2472354354450619 0.5369425934333512 -0.13443892746559846 -0.10760761364007325 0.49298296260174784 -0.4752712829086143 -0.13887452951658316 -0.2925998541696934 0.5034418307536774 -0.2148089979881107 0.06999671098879555 0.9007346772955617 -1.372312540671463 -0.2997157255797444 1.1123856380802395 0.15485173507827893 0.20057501583272605 -0.6940729479445964 0.002375222325588897 -0.16097245648879455 -0.29080503299473764 0.28904391434545373 -0.06388856080755016 0.6603101755598122 -0.13728919144593754 0.20599720805501173 0.6688493288917652 0.20761152218245385 -0.09622597786070729 0.6709309553960853 -0.11466904381501483 0.4117560092915858 0.7619066348134916 -0.3603197893672562 0.19280057103766482 1.0321919027200555 0.20048376518868832 0.34375530011347744 -0.583746042365814 0.5339668736629067 0.09441599933583825 0.380332668658762 0.2644777037785637 0.1599209291714443 0.5926984094418732 0.09059306431643412 0.2052959526151774 0.4683785057115548 0.3970826712516175 0.8466354892172822 0.01671048326312206 1.0861517753291774 1.2464224473990624 -0.33138953897026047 0.7235982804723906 1.125491072034063 0.5187746165011557 0.7562627009898129 -0.17407097196185295 0.2927065558724629 0.059900181550333005 0.7468095003695764 0.35120215195102517 0.1418000493453256 0.7871436526212864 -0.2185822862341543 0.43656489140196775 0.7678545400429234 0.5206298131545883 -0.6739222628883 -0.8183248977561759 0.47778741127811303 -0.9018298888364522 -0.7509627252872005 1.01995412809932 -0.5576517652784536 -0.3875314525226084 -0.9497578978548764 -0.5900568682697523 -0.8632202865955386 -0.8401629976244664 -0.12683644357430243 -0.5764331486707571 0.15821087647149565 -0.28914481897802863 -0.20552574666935228 0.17615740918928638 -0.0952409873109571 0.42077138714358714 0.8949821389747914 -0.11623996941399044 0.2456972415249795 1.0543845125303464 0.3158422072791448 0.35081505943734603 -0.25687447427843185 0.39268577888393286 0.12107712921880652 0.18468907362175319 0.3884270463066631 -0.09841356387093286 0.7149809521586267 0.21098284708165357 0.37926076637128064 0.6916147326378391 0.5802359817209229 1.6615499648063334 -0.497301085122303 -0.8923569367517153 1.0989960486223183 -0.2585760509831665 -0.13817694270809847 -1.1765566237209533 -0.4416916781246962 -0.346688497728131 -0.6362803622105913 -0.009419551292781839 -0.1722153163033754 0.685367670448685 -0.5326439202556501 0.023376820172010756 0.5783409970492188 0.3908777406845403 -1.1981189795468556 -1.0772250920075175 1.0626676549579275 -0.9544066814295619 -0.68887901442023 -1.396566135405003 -0.7421096732272721 -0.924261743954815 -1.8804301080139771 -0.8599905587452802 -0.6175019091556203 0.01642300519659031 -0.9758634818176114 -0.5483468419206569 0.11181852951448268 -0.7117837882546947 0.28844206106822035 1.1207854670923552 0.37494201526771087 0.4487734894190513 -0.019121698737127726 0.6484690198484755 1.4242979407516467 0.3825774114854532 0.49515100180790544 0.17774397120932972 0.9388687549919723 0.10883260907554894 0.5509100188204766 0.9263550073383396 0.4698211970652093 1.1209005310011622 0.5681515494234056 0.7541674712262219 -0.3561482512206796 0.43113289937431515 0.02994953104241415 0.26451560572230054 0.2983269445076014 0.26314870125810985 0.8120608535237892 -0.2961730433493766 0.4166697894280738 0.7004234907394667 0.43946497569248244 -1.114465714656455 -1.0626248390749142 -1.1497647431026354 -1.1027595218124553 -1.0914010425761058 -1.1085273700614942 -0.9648673894606761 -1.1053972173831272 -0.969592626086174 -1.0484496855075258 -0.9884006225303289 -0.9684649087815927 -0.9811292247783866 0.43543063227644035 -0.5267997831830797 0.08985273249337908 -0.22307089146854675 -0.4379483751351156 0.16322599995590245 0.02546902479876057 0.7708103274187228 -0.6151342495846748 0.5114187961063464 0.6275828969980742 0.20022097873195982 -0.6851738917647235 -0.34610766552945593 -0.3095306033841923 -0.3566273816470692 -0.055097503545219986 -0.1048289109719136 0.49272519659662845 -0.2975473153171278 -0.06830372982900242 0.31149993571904516 0.011744539879208395 1.838585021612421 0.2195121854912469 0.6941493839984195 0.6206039243026181 0.25735254568935917 1.1798937438544475 -0.07657699526176708 0.8291528275958331 1.0739998057003297 0.8003668979449986 -0.2511898379225077 0.08140483587661096 0.19895279390802495 -0.2878390817943967 0.7786152967363023 -0.8174325995011167 0.23568788754737072 0.5574004188424826 0.28342604553874995 0.059635149479366975 0.3191584141532418 -0.0508430256829013 0.7081659918428925 0.0820420846768935 0.3660319690716511 0.638561359510927 0.3920455842400596 -0.03663720216288409 0.024587948656218772 0.8357262482539909 -0.19823020773585948 0.3041620534017464 0.6425509382098614 0.3289094131177318 -0.1171688723596605 0.2415445818662776 -0.30253614486301156 -0.22209496527165798 0.3585723345607516 -0.39317721204566025 0.6613454293740645 -0.2034253790079661 0.19670364090125003 0.47520529331984357 0.26286619322112253 -0.8721163911857364 -0.7882412836058518 -0.5440481588614576 -0.6837917991741723 0.30223088861720676 0.7131161808411239 0.34213607726031287 0.7818933832701339 0.014193188976732137 -0.7939682123315466
label 0 1 2 3 4 5 6 7 9 10 11 12 13 14 15 16 17 19 20 21 22 23 26 27 29 30 31 32 33 34 35
nr_sv 12 7 12 12 10 16 11 11 12 19 25 24 6 19 31 12 14 24 22 6 21 19 23 21 8 19 15 11 14 23 16
SV
0.0 0.0 7.115307895034273E-4 4.7574938666663385E-4 0.0 0.0 4.8360791169482694E-4 0.0 0.0 0.0 0.004635527509244464 0.004778179390293981 0.0 0.0 0.0 0.003830947345137823 0.001498535531858614 0.0 0.0 0.0 0.005815478618140671 0.0 0.0 0.0 0.011226619876936003 6.803441660218026E-4 0.0 0.0 0.0011975324811892118 0.0 1:0.0 2:0.0 3:0.0 4:0.0 5:0.0 6:0.0 7:0.0 8:0.0 9:0.0 10:1.0 11:1.0 12:1.0 13:1.0 14:1.0 15:1.0 16:1.0 17:0.0 18:0.0 19:0.0 20:0.0 21:0.0 22:0.0 23:0.0 24:0.0 25:0.0 26:0.0 27:0.0 28:0.0 29:0.0 30:0.0 31:0.0 32:0.0 33:0.0 34:1.0 35:1.0 36:1.0 37:1.0 38:1.0 39:1.0 40:1.0 41:0.0 42:0.0 43:0.0 44:0.0 45:0.0 46:0.0 47:0.0 48:0.0 49:0.0 50:0.0 51:0.0 52:0.0 53:0.0 54:0.0 55:0.0 56:0.0 57:0.0 58:1.0 59:1.0 60:1.0 61:1.0 62:1.0 63:1.0 64:1.0 65:0.0 66:0.0 67:0.0 68:0.0 69:0.0 70:0.0 71:0.0 72:0.0 73:0.0 74:0.0 75:1.0 76:1.0 77:1.0 78:1.0 79:1.0 80:1.0 81:1.0 82:1.0 83:1.0 84:1.0 85:1.0 86:1.0 87:1.0 88:1.0 89:1.0 90:1.0 91:1.0 92:1.0 93:1.0 94:0.0 95:0.0 96:0.0 97:0.0 98:0.0 99:1.0 100:1.0 101:1.0 102:1.0 103:1.0 104:1.0 105:1.0 106:1.0 107:1.0 108:1.0 109:1.0 110:1.0 111:1.0 112:1.0 113:1.0 114:1.0 115:1.0 116:1.0 117:1.0 118:0.0 119:0.0 120:0.0 121:0.0 122:0.0 123:1.0 124:1.0 125:1.0 126:1.0 127:1.0 128:1.0 129:1.0 130:1.0 131:1.0 132:1.0 133:1.0 134:1.0 135:1.0 136:1.0 137:1.0 138:1.0 139:1.0 140:1.0 141:1.0 142:0.0 143:0.0 144:0.0 145:0.0 146:0.0 147:1.0 148:1.0 149:1.0 150:1.0 151:1.0 152:1.0 153:1.0 154:0.0 155:0.0 156:0.0 157:0.0 158:0.0 159:0.0 160:0.0 161:0.0 162:0.0 163:0.0 164:1.0 165:1.0 166:1.0 167:1.0 168:1.0 169:0.0 170:0.0 171:1.0 172:1.0 173:1.0 174:1.0 175:1.0 176:1.0 177:1.0 178:0.0 179:0.0 180:0.0 181:0.0 182:0.0 183:0.0 184:0.0 185:0.0 186:0.0 187:0.0 188:1.0 189:1.0 190:1.0 191:1.0 192:1.0 193:0.0 194:0.0 195:1.0 196:1.0 197:1.0 198:1.0 199:1.0 200:1.0 201:1.0 202:0.0 203:0.0 204:0.0 205:0.0 206:0.0 207:0.0 208:0.0 209:0.0 210:0.0 211:0.0 212:1.0 213:1.0 214:1.0 215:1.0 216:1.0 217:0.0 218:0.0 219:1.0 220:1.0 221:1.0 222:1.0 223:1.0 224:1.0 225:1.0 226:0.0 227:0.0 228:0.0 229:0.0 230:0.0 231:0.0 232:0.0 233:0.0 234:0.0 235:0.0 236:1.0 237:1.0 238:1.0 239:1.0 240:1.0 241:1.0 242:1.0 243:0.0 244:0.0 245:0.0 246:0.0 247:0.0 248:0.0 249:0.0 250:0.0 251:0.0 252:0.0 253:0.0 254:0.0 255:0.0 256:0.0 257:0.0 258:0.0 259:0.0 260:0.0 261:0.0 262:1.0 263:1.0 264:1.0 265:1.0 266:1.0 267:0.0 268:0.0 269:0.0 270:0.0 271:0.0 272:0.0 273:0.0 274:0.0 275:0.0 276:0.0 277:0.0 278:0.0 279:0.0 280:0.0 281:0.0 282:0.0 283:0.0 284:0.0 285:0.0 286:1.0 287:1.0 288:1.0 289:1.0 290:1.0 291:0.0 292:0.0 293:0.0 294:0.0 295:0.0 296:0.0 297:0.0 298:0.0 299:0.0 300:0.0 301:0.0 302:0.0 303:0.0 304:0.0 305:0.0 306:0.0 307:0.0 308:0.0 309:0.0 310:1.0 311:1.0 312:1.0 313:1.0 314:1.0 315:0.0 316:0.0 317:0.0 318:0.0 319:0.0 320:0.0 321:0.0 322:0.0 323:0.0 324:0.0 325:0.0 326:0.0 327:0.0 328:0.0 329:0.0 330:0.0 331:0.0 332:0.0 333:0.0 334:1.0 335:1.0 336:1.0 337:1.0 338:1.0 339:0.0 340:0.0 341:0.0 342:0.0 343:0.0 344:0.0 345:0.0 346:0.0 347:0.0 348:0.0 349:0.0 350:0.0 351:0.0 352:0.0 353:0.0 354:0.0 355:0.0 356:0.0 357:0.0 358:1.0 359:1.0 360:1.0 361:1.0 362:1.0 363:0.0 364:0.0 365:0.0 366:0.0 367:0.0 368:0.0 369:0.0 370:0.0 371:0.0 372:0.0 373:0.0 374:0.0 375:0.0 376:0.0 377:0.0 378:0.0 379:0.0 380:0.0 381:0.0 382:1.0 383:1.0 384:1.0 385:1.0 386:1.0 387:0.0 388:0.0 389:0.0 390:0.0 391:0.0 392:0.0 393:0.0 394:0.0 395:0.0 396:0.0 397:0.0 398:0.0 399:0.0 400:0.0 401:0.0 402:0.0 403:0.0 404:0.0 405:0.0 406:1.0 407:1.0 408:1.0 409:0.0 410:0.0 411:1.0 412:1.0 413:1.0 414:1.0 415:1.0 416:1.0 417:1.0 418:1.0 419:1.0 420:1.0 421:1.0 422:1.0 423:1.0 424:1.0 425:1.0 426:1.0 427:1.0 428:1.0 429:1.0 430:1.0 431:1.0 432:1.0 433:0.0 434:0.0 435:1.0 436:1.0 437:1.0 438:1.0 439:1.0 440:1.0 441:1.0 442:1.0 443:1.0 444:1.0 445:1.0 446:1.0 447:1.0 448:1.0 449:1.0 450:1.0 451:1.0 452:1.0 453:1.0 454:1.0 455:1.0 456:1.0 457:0.0 458:0.0 459:1.0 460:1.0 461:1.0 462:1.0 463:1.0 464:1.0 465:1.0 466:1.0 467:1.0 468:1.0 469:1.0 470:1.0 471:1.0 472:1.0 473:1.0 474:1.0 475:1.0 476:1.0 477:1.0 478:1.0 479:1.0 480:1.0 481:0.0 482:0.0 483:1.0 484:1.0 485:1.0 486:1.0 487:1.0 488:1.0 489:1.0 490:1.0 491:1.0 492:1.0 493:1.0 494:1.0 495:1.0 496:1.0 497:1.0 498:1.0 499:1.0 500:1.0 501:1.0 502:0.0 503:0.0 504:0.0 505:0.0 506:0.0 507:1.0 508:1.0 509:1.0 510:1.0 511:1.0 512:1.0 513:1.0 514:1.0 515:1.0 516:1.0 517:1.0 518:1.0 519:1.0 520:1.0 521:1.0 522:1.0 523:1.0 524:1.0 525:1.0 526:0.0 527:0.0 528:0.0 529:0.0 530:0.0 531:1.0 532:1.0 533:1.0 534:1.0 535:1.0 536:1.0 537:1.0 538:1.0 539:1.0 540:1.0 541:1.0 542:1.0 543:1.0 544:1.0 545:1.0 546:1.0 547:1.0 548:1.0 549:1.0 550:0.0 551:0.0 552:0.0 553:0.0 554:0.0 555:1.0 556:1.0 557:1.0 558:1.0 559:1.0 560:1.0 561:1.0 562:1.0 563:1.0 564:1.0 565:1.0 566:1.0 567:1.0 568:1.0 569:1.0 570:1.0 571:1.0 572:1.0 573:1.0 574:0.0 575:0.0 576:0.0 
0.0014142188935434242 0.0 0.0010174515774918397 0.0023381108016351866 0.0 0.009406648338641126 6.382459277375728E-4 1.6516920760591502E-4 0.00480726856754616 0.0 0.004774651071963633 0.0016731560517333122 0.00577829763454717 0.0014771967138477574 8.420964227890976E-4 3.0428862454627895E-4 0.002007676330652366 7.694766269560236E-4 7.765797543625837E-4 0.003239088702911464 0.004116262801626398 0.0 0.0 5.636190388775827E-4 0.0029964922702844 1.7692996974349735E-4 0.002288651078509131 0.0 0.0 9.966870993259188E-4 1:0.0 2:0.0 3:0.0 4:0.0 5:0.0 6:0.0 7:1.0 8:1.0 9:1.0 10:1.0 11:1.0 12:1.0 13:1.0 14:1.0 15:1.0 16:1.0 17:1.0 18:1.0 19:1.0 20:0.0 21:0.0 22:0.0 23:0.0 24:0.0 25:0.0 26:0.0 27:0.0 28:0.0 29:0.0 30:0.0 31:1.0 32:1.0 33:1.0 34:1.0 35:1.0 36:1.0 37:1.0 38:1.0 39:1.0 40:1.0 41:1.0 42:1.0 43:1.0 44:0.0 45:0.0 46:0.0 47:0.0 48:0.0 49:0.0 50:0.0 51:0.0 52:0.0 53:0.0 54:0.0 55:1.0 56:1.0 57:1.0 58:1.0 59:1.0 60:1.0 61:1.0 62:1.0 63:1.0 64:1.0 65:1.0 66:1.0 67:1.0 68:0.0 69:0.0 70:0.0 71:0.0 72:0.0 73:0.0 74:0.0 75:0.0 76:0.0 77:1.0 78:1.0 79:1.0 80:1.0 81:1.0 82:1.0 83:1.0 84:1.0 85:1.0 86:1.0 87:1.0 88:1.0 89:1.0 90:1.0 91:1.0 92:1.0 93:1.0 94:0.0 95:0.0 96:0.0 97:0.0 98:0.0 99:0.0 100:0.0 101:1.0 102:1.0 103:1.0 104:1.0 105:1.0 106:1.0 107:1.0 108:1.0 109:1.0 110:1.0 111:1.0 112:1.0 113:1.0 114:1.0 115:1.0 116:1.0 117:1.0 118:0.0 119:0.0 120:0.0 121:0.0 122:0.0 123:0.0 124:0.0 125:1.0 126:1.0 127:1.0 128:1.0 129:1.0 130:1.0 131:1.0 132:1.0 133:1.0 134:1.0 135:1.0 136:1.0 137:1.0 138:1.0 139:1.0 140:1.0 141:1.0 142:0.0 143:0.0 144:0.0 145:0.0 146:0.0 147:1.0 148:1.0 149:1.0 150:1.0 151:0.0 152:0.0 153:0.0 154:0.0 155:0.0 156:0.0 157:0.0 158:0.0 159:0.0 160:0.0 161:0.0 162:0.0 163:0.0 164:1.0 165:1.0 166:1.0 167:1.0 168:1.0 169:0.0 170:0.0 171:1.0 172:1.0 173:1.0 174:1.0 175:0.0 176:0.0 177:0.0 178:0.0 179:0.0 180:0.0 181:0.0 182:0.0 183:0.0 184:0.0 185:0.0 186:0.0 187:0.0 188:1.0 189:1.0 190:1.0 191:1.0 192:1.0 193:0.0 194:0.0 195:1.0 196:1.0 197:1.0 198:1.0 199:0.0 200:0.0 201:0.0 202:0.0 203:0.0 204:0.0 205:0.0 206:0.0 207:0.0 208:0.0 209:0.0 210:0.0 211:0.0 212:1.0 213:1.0 214:1.0 215:1.0 216:1.0 217:0.0 218:0.0 219:1.0 220:1.0 221:1.0 222:1.0 223:0.0 224:0.0 225:0.0 226:0.0 227:0.0 228:0.0 229:0.0 230:0.0 231:0.0 232:0.0 233:0.0 234:0.0 235:0.0 236:1.0 237:1.0 238:1.0 239:1.0 240:1.0 241:0.0 242:0.0 243:1.0 244:1.0 245:0.0 246:0.0 247:0.0 248:0.0 249:0.0 250:0.0 251:0.0 252:0.0 253:0.0 254:0.0 255:0.0 256:0.0 257:0.0 258:0.0 259:0.0 260:0.0 261:0.0 262:1.0 263:1.0 264:1.0 265:0.0 266:0.0 267:1.0 268:1.0 269:0.0 270:0.0 271:0.0 272:0.0 273:0.0 274:0.0 275:0.0 276:0.0 277:0.0 278:0.0 279:0.0 280:0.0 281:0.0 282:0.0 283:0.0 284:0.0 285:0.0 286:1.0 287:1.0 288:1.0 289:0.0 290:0.0 291:1.0 292:1.0 293:0.0 294:0.0 295:0.0 296:0.0 297:0.0 298:0.0 299:0.0 300:0.0 301:0.0 302:0.0 303:0.0 304:0.0 305:0.0 306:0.0 307:0.0 308:0.0 309:0.0 310:1.0 311:1.0 312:1.0 313:1.0 314:1.0 315:1.0 316:1.0 317:1.0 318:1.0 319:0.0 320:0.0 321:0.0 322:0.0 323:0.0 324:0.0 325:0.0 326:0.0 327:0.0 328:0.0 329:0.0 330:0.0 331:0.0 332:1.0 333:1.0 334:1.0 335:1.0 336:1.0 337:1.0 338:1.0 339:1.0 340:1.0 341:1.0 342:1.0 343:0.0 344:0.0 345:0.0 346:0.0 347:0.0 348:0.0 349:0.0 350:0.0 351:0.0 352:0.0 353:0.0 354:0.0 355:0.0 356:1.0 357:1.0 358:1.0 359:1.0 360:1.0 361:1.0 362:1.0 363:1.0 364:1.0 365:1.0 366:1.0 367:0.0 368:0.0 369:0.0 370:0.0 371:0.0 372:0.0 373:0.0 374:0.0 375:0.0 376:0.0 377:0.0 378:0.0 379:0.0 380:1.0 381:1.0 382:1.0 383:1.0 384:1.0 385:1.0 386:1.0 387:1.0 388:1.0 389:1.0 390:1.0 391:0.0 392:0.0 393:0.0 394:0.0 395:0.0 396:0.0 397:0.0 398:0.0 399:0.0 400:0.0 401:0.0 402:0.0 403:0.0 404:1.0 405:1.0 406:1.0 407:1.0 408:1.0 409:0.0 410:0.0 411:0.0 412:0.0 413:1.0 414:1.0 415:1.0 416:1.0 417:1.0 418:1.0 419:1.0 420:1.0 421:1.0 422:1.0 423:1.0 424:1.0 425:1.0 426:1.0 427:1.0 428:1.0 429:1.0 430:0.0 431:0.0 432:0.0 433:0.0 434:0.0 435:0.0 436:0.0 437:1.0 438:1.0 439:1.0 440:1.0 441:1.0 442:1.0 443:1.0 444:1.0 445:1.0 446:1.0 447:1.0 448:1.0 449:1.0 450:1.0 451:1.0 452:1.0 453:1.0 454:0.0 455:0.0 456:0.0 457:0.0 458:0.0 459:0.0 460:0.0 461:1.0 462:1.0 463:1.0 464:1.0 465:1.0 466:1.0 467:1.0 468:1.0 469:1.0 470:1.0 471:1.0 472:1.0 473:1.0 474:1.0 475:1.0 476:1.0 477:1.0 478:0.0 479:0.0 480:0.0 481:0.0 482:0.0 483:0.0 484:0.0 485:0.0 486:0.0 487:1.0 488:1.0 489:1.0 490:1.0 491:1.0 492:1.0 493:1.0 494:1.0 495:1.0 496:1.0 497:1.0 498:1.0 499:1.0 500:0.0 501:0.0 502:0.0 503:0.0 504:0.0 505:0.0 506:0.0 507:0.0 508:0.0 509:0.0 510:0.0 511:1.0 512:1.0 513:1.0 514:1.0 515:1.0 516:1.0 517:1.0 518:1.0 519:1.0 520:1.0 521:1.0 522:1.0 523:1.0 524:0.0 525:0.0 526:0.0 527:0.0 528:0.0 529:0.0 530:0.0 531:0.0 532:0.0 533:0.0 534:0.0 535:1.0 536:1.0 537:1.0 538:1.0 539:1.0 540:1.0 541:1.0 542:1.0 543:1.0 544:1.0 545:1.0 546:1.0 547:1.0 548:0.0 549:0.0 550:0.0 551:0.0 552:0.0 553:0.0 554:0.0 555:0.0 556:0.0 557:0.0 558:0.0 559:1.0 560:1.0 561:1.0 562:1.0 563:1.0 564:1.0 565:1.0 566:1.0 567:1.0 568:1.0 569:1.0 570:1.0 571:1.0 572:0.0 573:0.0 574:0.0 575:0.0 576:0.0 
0.0033651517860713975 0.0015381926309248372 0.0 0.004084700058886905 0.0 0.005154335683000686 0.003070023495520532 0.00849354935667173 0.006906577044392107 0.0074148215841341215 0.005415702903815628 0.005143087213030384 0.002973051205352866 0.004493674834701483 0.0074036852791418365 0.003988580368598164 4.8426319022304106E-4 0.0040402651944571695 0.004418650820179618 0.0017124930642229547 0.004431306518127234 0.0063721335037524515 0.006835876484148937 0.0045017297450753516 0.008879812458748224 0.004974933743011499 0.002782468963035572 0.003348775430883162 0.00311204945863952 0.003218507320577736 1:0.0 2:0.0 3:0.0 4:0.0 5:0.0 6:0.0 7:0.0 8:0.0 9:0.0 10:0.0 11:0.0 12:0.0 13:1.0 14:1.0 15:1.0 16:1.0 17:0.0 18:0.0 19:0.0 20:0.0 21:0.0 22:0.0 23:0.0 24:0.0 25:0.0 26:0.0 27:0.0 28:0.0 29:0.0 30:0.0 31:0.0 32:0.0 33:0.0 34:0.0 35:0.0 36:0.0 37:1.0 38:1.0 39:1.0 40:1.0 41:0.0 42:0.0 43:0.0 44:0.0 45:0.0 46:0.0 47:0.0 48:0.0 49:0.0 50:0.0 51:0.0 52:0.0 53:0.0 54:0.0 55:0.0 56:0.0 57:0.0 58:0.0 59:0.0 60:0.0 61:1.0 62:1.0 63:1.0 64:1.0 65:0.0 66:0.0 67:0.0 68:0.0 69:0.0 70:0.0 71:0.0 72:0.0 73:0.0 74:0.0 75:0.0 76:0.0 77:1.0 78:1.0 79:1.0 80:1.0 81:1.0 82:1.0 83:1.0 84:1.0 85:1.0 86:1.0 87:1.0 88:1.0 89:1.0 90:1.0 91:1.0 92:1.0 93:1.0 94:0.0 95:0.0 96:0.0 97:0.0 98:0.0 99:0.0 100:0.0 101:1.0 102:1.0 103:1.0 104:1.0 105:1.0 106:1.0 107:1.0 108:1.0 109:1.0 110:1.0 111:1.0 112:1.0 113:1.0 114:1.0 115:1.0 116:1.0 117:1.0 118:0.0 119:0.0 120:0.0 121:0.0 122:0.0 123:0.0 124:0.0 125:1.0 126:1.0 127:1.0 128:1.0 129:1.0 130:1.0 131:1.0 132:1.0 133:1.0 134:1.0 135:1.0 136:1.0 137:1.0 138:1.0 139:1.0 140:1.0 141:1.0 142:0.0 143:0.0 144:0.0 145:0.0 146:0.0 147:1.0 148:1.0 149:1.0 150:1.0 151:1.0 152:1.0 153:1.0 154:1.0 155:1.0 156:1.0 157:0.0 158:0.0 159:1.0 160:1.0 161:0.0 162:0.0 163:0.0 164:1.0 165:1.0 166:1.0 167:1.0 168:1.0 169:0.0 170:0.0 171:1.0 172:1.0 173:1.0 174:1.0 175:1.0 176:1.0 177:1.0 178:1.0 179:1.0 180:1.0 181:0.0 182:0.0 183:1.0 184:1.0 185:0.0 186:0.0 187:0.0 188:1.0 189:1.0 190:1.0 191:1.0 192:1.0 193:0.0 194:0.0 195:1.0 196:1.0 197:1.0 198:1.0 199:1.0 200:1.0 201:1.0 202:1.0 203:1.0 204:1.0 205:0.0 206:0.0 207:1.0 208:1.0 209:0.0 210:0.0 211:0.0 212:1.0 213:1.0 214:1.0 215:1.0 216:1.0 217:1.0 218:1.0 219:1.0 220:1.0 221:0.0 222:0.0 223:0.0 224:0.0 225:0.0 226:0.0 227:0.0 228:0.0 229:0.0 230:0.0 231:0.0 232:0.0 233:0.0 234:0.0 235:0.0 236:0.0 237:0.0 238:1.0 239:1.0 240:1.0 241:1.0 242:1.0 243:1.0 244:1.0 245:0.0 246:0.0 247:0.0 248:0.0 249:0.0 250:0.0 251:0.0 252:0.0 253:0.0 254:0.0 255:0.0 256:0.0 257:0.0 258:0.0 259:0.0 260:0.0 261:0.0 262:1.0 263:1.0 264:1.0 265:1.0 266:1.0 267:1.0 268:1.0 269:0.0 270:0.0 271:0.0 272:0.0 273:0.0 274:0.0 275:0.0 276:0.0 277:0.0 278:0.0 279:0.0 280:0.0 281:0.0 282:0.0 283:0.0 284:0.0 285:0.0 286:1.0 287:1.0 288:1.0 289:1.0 290:1.0 291:0.0 292:0.0 293:0.0 294:0.0 295:0.0 296:0.0 297:0.0 298:0.0 299:0.0 300:0.0 301:0.0 302:0.0 303:0.0 304:0.0 305:0.0 306:0.0 307:0.0 308:0.0 309:0.0 310:1.0 311:1.0 312:1.0 313:1.0 314:1.0 315:0.0 316:0.0 317:0.0 318:0.0 319:0.0 320:0.0 321:0.0 322:0.0 323:0.0 324:0.0 325:0.0 326:0.0 327:0.0 328:0.0 329:0.0 330:0.0 331:0.0 332:0.0 333:0.0 334:1.0 335:1.0 336:1.0 337:1.0 338:1.0 339:0.0 340:0.0 341:0.0 342:0.0 343:0.0 344:0.0 345:0.0 346:0.0 347:0.0 348:0.0 349:0.0 350:0.0 351:0.0 352:0.0 353:0.0 354:0.0 355:0.0 356:0.0 357:0.0 358:1.0 359:1.0 360:1.0 361:0.0 362:0.0 363:1.0 364:1.0 365:1.0 366:1.0 367:1.0 368:0.0 369:0.0 370:0.0 371:0.0 372:0.0 373:1.0 374:1.0 375:1.0 376:1.0 377:1.0 378:1.0 379:1.0 380:1.0 381:1.0 382:1.0 383:1.0 384:1.0 385:0.0 386:0.0 387:1.0 388:1.0 389:1.0 390:1.0 391:1.0 392:0.0 393:0.0 394:0.0 395:0.0 396:0.0 397:1.0 398:1.0 399:1.0 400:1.0 401:1.0 402:1.0 403:1.0 404:1.0 405:1.0 406:1.0 407:1.0 408:1.0 409:0.0 410:0.0 411:1.0 412:1.0 413:1.0 414:1.0 415:1.0 416:0.0 417:0.0 418:0.0 419:0.0 420:0.0 421:1.0 422:1.0 423:1.0 424:1.0 425:1.0 426:1.0 427:1.0 428:1.0 429:1.0 430:1.0 431:1.0 432:1.0 433:0.0 434:0.0 435:1.0 436:1.0 437:1.0 438:1.0 439:1.0 440:1.0 441:1.0 442:1.0 443:1.0 444:1.0 445:1.0 446:1.0 447:1.0 448:1.0 449:1.0 450:1.0 451:1.0 452:1.0 453:1.0 454:0.0 455:0.0 456:0.0 457:0.0 458:0.0 459:1.0 460:1.0 461:1.0 462:1.0 463:1.0 464:1.0 465:1.0 466:1.0 467:1.0 468:1.0 469:1.0 470:1.0 471:1.0 472:1.0 473:1.0 474:1.0 475:1.0 476:1.0 477:1.0 478:0.0 479:0.0 480:0.0 481:0.0 482:0.0 483:1.0 484:1.0 485:1.0 486:1.0 487:1.0 488:1.0 489:1.0 490:1.0 491:1.0 492:1.0 493:1.0 494:1.0 495:1.0 496:1.0 497:1.0 498:1.0 499:1.0 500:1.0 501:1.0 502:0.0 503:0.0 504:0.0 505:0.0 506:0.0 507:0.0 508:0.0 509:0.0 510:0.0 511:0.0 512:0.0 513:0.0 514:1.0 515:1.0 516:1.0 517:0.0 518:0.0 519:0.0 520:0.0 521:0.0 522:0.0 523:0.0 524:0.0 525:0.0 526:0.0 527:0.0 528:0.0 529:0.0 530:0.0 531:0.0 532:0.0 533:0.0 534:0.0 535:0.0 536:0.0 537:0.0 538:1.0 539:1.0 540:1.0 541:0.0 542:0.0 543:0.0 544:0.0 545:0.0 546:0.0 547:0.0 548:0.0 549:0.0 550:0.0 551:0.0 552:0.0 553:0.0 554:0.0 555:0.0 556:0.0 557:0.0 558:0.0 559:0.0 560:0.0 561:0.0 562:1.0 563:1.0 564:1.0 565:0.0 566:0.0 567:0.0 568:0.0 569:0.0 570:0.0 571:0.0 572:0.0 573:0.0 574:0.0 575:0.0 576:0.0 
0.0 0.0 7.057387253589693E-5 0.0 0.0 0.005513412841684964 0.0 0.0 0.0 0.005453119586927649 0.0 0.0 0.0038845438197715816 0.0013975293928557813 0.0 0.006536406805810172 0.0 0.0024395620224278293 0.0017973802151030102 0.0 0.0 0.0 0.00502520158290076 0.0 0.003754325797034847 0.0 0.0 0.0 0.0 0.0 1:0.0 2:0.0 3:0.0 4:0.0 5:0.0 6:0.0 7:0.0 8:1.0 9:1.0 10:1.0 11:1.0 12:1.0 13:1.0 14:1.0 15:1.0 16:1.0 17:1.0 18:1.0 19:1.0 20:0.0 21:0.0 22:0.0 23:0.0 24:0.0 25:0.0 26:0.0 27:0.0 28:0.0 29:0.0 30:0.0 31:0.0 32:1.0 33:1.0 34:1.0 35:1.0 36:1.0 37:1.0 38:1.0 39:1.0 40:1.0 41:1.0 42:1.0 43:1.0 44:0.0 45:0.0 46:0.0 47:0.0 48:0.0 49:0.0 50:0.0 51:0.0 52:0.0 53:0.0 54:0.0 55:0.0 56:1.0 57:1.0 58:1.0 59:1.0 60:1.0 61:1.0 62:1.0 63:1.0 64:1.0 65:1.0 66:1.0 67:1.0 68:0.0 69:0.0 70:0.0 71:0.0 72:0.0 73:0.0 74:0.0 75:1.0 76:1.0 77:1.0 78:1.0 79:1.0 80:1.0 81:1.0 82:1.0 83:1.0 84:1.0 85:1.0 86:1.0 87:1.0 88:1.0 89:1.0 90:1.0 91:1.0 92:1.0 93:1.0 94:0.0 95:0.0 96:0.0 97:0.0 98:0.0 99:1.0 100:1.0 101:1.0 102:1.0 103:1.0 104:1.0 105:1.0 106:1.0 107:1.0 108:1.0 109:1.0 110:1.0 111:1.0 112:1.0 113:1.0 114:1.0 115:1.0 116:1.0 117:1.0 118:0.0 119:0.0 120:0.0 121:0.0 122:0.0 123:1.0 124:1.0 125:1.0 126:1.0 127:1.0 128:1.0 129:1.0 130:1.0 131:1.0 132:1.0 133:1.0 134:1.0 135:1.0 136:1.0 137:1.0 138:1.0 139:1.0 140:1.0 141:1.0 142:0.0 143:0.0 144:0.0 145:1.0 146:1.0 147:1.0 148:1.0 149:1.0 150:1.0 151:1.0 152:0.0 153:0.0 154:0.0 155:0.0 156:0.0 157:0.0 158:0.0 159:0.0 160:0.0 161:0.0 162:0.0 163:0.0 164:1.0 165:1.0 166:1.0 167:1.0 168:1.0 169:1.0 170:1.0 171:1.0 172:1.0 173:1.0 174:1.0 175:1.0 176:0.0 177:0.0 178:0.0 179:0.0 180:0.0 181:0.0 182:0.0 183:0.0 184:0.0 185:0.0 186:0.0 187:0.0 188:1.0 189:1.0 190:1.0 191:1.0 192:1.0 193:1.0 194:1.0 195:1.0 196:1.0 197:1.0 198:1.0 199:1.0 200:0.0 201:0.0 202:0.0 203:0.0 204:0.0 205:0.0 206:0.0 207:0.0 208:0.0 209:0.0 210:0.0 211:0.0 212:1.0 213:1.0 214:1.0 215:1.0 216:1.0 217:1.0 218:1.0 219:1.0 220:1.0 221:1.0 222:1.0 223:1.0 224:0.0 225:0.0 226:0.0 227:0.0 228:0.0 229:0.0 230:0.0 231:0.0 232:0.0 233:0.0 234:0.0 235:0.0 236:1.0 237:1.0 238:1.0 239:1.0 240:1.0 241:1.0 242:1.0 243:0.0 244:0.0 245:0.0 246:0.0 247:0.0 248:0.0 249:0.0 250:0.0 251:0.0 252:0.0 253:0.0 254:0.0 255:0.0 256:0.0 257:0.0 258:0.0 259:0.0 260:0.0 261:0.0 262:1.0 263:1.0 264:1.0 265:1.0 266:1.0 267:0.0 268:0.0 269:0.0 270:0.0 271:0.0 272:0.0 273:0.0 274:0.0 275:0.0 276:0.0 277:0.0 278:0.0 279:0.0 280:0.0 281:0.0 282:0.0 283:0.0 284:0.0 285:0.0 286:1.0 287:1.0 288:1.0 289:1.0 290:1.0 291:0.0 292:0.0 293:0.0 294:0.0 295:0.0 296:0.0 297:0.0 298:0.0 299:0.0 300:0.0 301:0.0 302:0.0 303:0.0 304:0.0 305:0.0 306:0.0 307:0.0 308:0.0 309:0.0 310:1.0 311:1.0 312:1.0 313:1.0 314:1.0 315:0.0 316:0.0 317:0.0 318:0.0 319:0.0 320:0.0 321:0.0 322:0.0 323:0.0 324:0.0 325:0.0 326:0.0 327:0.0 328:0.0 329:0.0 330:0.0 331:0.0 332:0.0 333:0.0 334:1.0 335:1.0 336:1.0 337:1.0 338:1.0 339:0.0 340:0.0 341:0.0 342:0.0 343:0.0 344:0.0 345:0.0 346:0.0 347:0.0 348:0.0 349:0.0 350:0.0 351:0.0 352:0.0 353:0.0 354:0.0 355:0.0 356:0.0 357:0.0 358:1.0 359:1.0 360:1.0 361:1.0 362:1.0 363:0.0 364:0.0 365:0.0 366:0.0 367:0.0 368:0.0 369:0.0 370:0.0 371:0.0 372:0.0 373:0.0 374:0.0 375:0.0 376:0.0 377:0.0 378:0.0 379:0.0 380:0.0 381:0.0 382:1.0 383:1.0 384:1.0 385:1.0 386:1.0 387:0.0 388:0.0 389:0.0 390:0.0 391:0.0 392:0.0 393:0.0 394:0.0 395:0.0 396:0.0 397:0.0 398:0.0 399:0.0 400:0.0 401:0.0 402:0.0 403:0.0 404:0.0 405:0.0 406:1.0 407:1.0 408:1.0 409:0.0 410:0.0 411:1.0 412:1.0 413:1.0 414:1.0 415:1.0 416:1.0 417:1.0 418:1.0 419:1.0 420:1.0 421:1.0 422:1.0 423:1.0 424:1.0 425:1.0 426:1.0 427:1.0 428:1.0 429:1.0 430:1.0 431:1.0 432:1.0 433:0.0 434:0.0 435:1.0 436:1.0 437:1.0 438:1.0 439:1.0 440:1.0 441:1.0 442:1.0 443:1.0 444:1.0 445:1.0 446:1.0 447:1.0 448:1.0 449:1.0 450:1.0 451:1.0 452:1.0 453:1.0 454:1.0 455:1.0 456:1.0 457:0.0 458:0.0 459:1.0 460:1.0 461:1.0 462:1.0 463:1.0 464:1.0 465:1.0 466:1.0 467:1.0 468:1.0 469:1.0 470:1.0 471:1.0 472:1.0 473:1.0 474:1.0 475:1.0 476:1.0 477:1.0 478:1.0 479:1.0 480:1.0 481:0.0 482:0.0 483:0.0 484:0.0 485:1.0 486:1.0 487:1.0 488:1.0 489:1.0 490:1.0 491:1.0 492:1.0 493:1.0 494:1.0 495:1.0 496:1.0 497:1.0 498:1.0 499:1.0 500:0.0 501:0.0 502:0.0 503:0.0 504:0.0 505:0.0 506:0.0 507:0.0 508:0.0 509:1.0 510:1.0 511:1.0 512:1.0 513:1.0 514:1.0 515:1.0 516:1.0 517:1.0 518:1.0 519:1.0 520:1.0 521:1.0 522:1.0 523:1.0 524:0.0 525:0.0 526:0.0 527:0.0 528:0.0 529:0.0 530:0.0 531:0.0 532:0.0 533:1.0 534:1.0 535:1.0 536:1.0 537:1.0 538:1.0 539:1.0 540:1.0 541:1.0 542:1.0 543:1.0 544:1.0 545:1.0 546:1.0 547:1.0 548:0.0 549:0.0 550:0.0 551:0.0 552:0.0 553:0.0 554:0.0 555:0.0 556:0.0 557:1.0 558:1.0 559:1.0 560:1.0 561:1.0 562:1.0 563:1.0 564:1.0 565:1.0 566:1.0 567:1.0 568:1.0 569:1.0 570:1.0 571:1.0 572:0.0 573:0.0 574:0.0 575:0.0 576:0.0 
0.0 0.0 0.005702945198179413 0.0 0.006833890824107031 7.395614734000608E-4 0.0 0.0 0.0 0.0 0.0 0.0 0.0 0.0 0.0 0.0 0.0031619807267402947 0.0 0.0 0.0 0.0 0.0 0.0 0.0 0.0 0.0 0.0 0.0 0.0 0.0 1:0.0 2:0.0 3:0.0 4:0.0 5:0.0 6:0.0 7:0.0 8:0.0 9:0.0 10:0.0 11:0.0 12:0.0 13:1.0 14:1.0 15:1.0 16:1.0 17:0.0 18:0.0 19:0.0 20:0.0 21:0.0 22:0.0 23:0.0 24:0.0 25:0.0 26:0.0 27:0.0 28:0.0 29:0.0 30:0.0 31:0.0 32:0.0 33:0.0 34:0.0 35:0.0 36:0.0 37:1.0 38:1.0 39:1.0 40:1.0 41:0.0 42:0.0 43:0.0 44:0.0 45:0.0 46:0.0 47:0.0 48:0.0 49:0.0 50:0.0 51:0.0 52:0.0 53:0.0 54:0.0 55:0.0 56:0.0 57:0.0 58:0.0 59:0.0 60:0.0 61:1.0 62:1.0 63:1.0 64:1.0 65:0.0 66:0.0 67:0.0 68:0.0 69:0.0 70:0.0 71:0.0 72:0.0 73:0.0 74:0.0 75:0.0 76:0.0 77:1.0 78:1.0 79:1.0 80:1.0 81:1.0 82:1.0 83:1.0 84:1.0 85:1.0 86:1.0 87:1.0 88:1.0 89:1.0 90:1.0 91:1.0 92:1.0 93:1.0 94:0.0 95:0.0 96:0.0 97:0.0 98:0.0 99:0.0 100:0.0 101:1.0 102:1.0 103:1.0 104:1.0 105:1.0 106:1.0 107:1.0 108:1.0 109:1.0 110:1.0 111:1.0 112:1.0 113:1.0 114:1.0 115:1.0 116:1.0 117:1.0 118:0.0 119:0.0 120:0.0 121:0.0 122:0.0 123:0.0 124:0.0 125:1.0 126:1.0 127:1.0 128:1.0 129:1.0 130:1.0 131:1.0 132:1.0 133:1.0 134:1.0 135:1.0 136:1.0 137:1.0 138:1.0 139:1.0 140:1.0 141:1.0 142:0.0 143:0.0 144:0.0 145:0.0 146:0.0 147:1.0 148:1.0 149:1.0 150:1.0 151:1.0 152:1.0 153:1.0 154:1.0 155:1.0 156:1.0 157:0.0 158:0.0 159:0.0 160:0.0 161:0.0 162:0.0 163:0.0 164:1.0 165:1.0 166:1.0 167:1.0 168:1.0 169:0.0 170:0.0 171:1.0 172:1.0 173:1.0 174:1.0 175:1.0 176:1.0 177:1.0 178:1.0 179:1.0 180:1.0 181:0.0 182:0.0 183:0.0 184:0.0 185:0.0 186:0.0 187:0.0 188:1.0 189:1.0 190:1.0 191:1.0 192:1.0 193:0.0 194:0.0 195:1.0 196:1.0 197:1.0 198:1.0 199:1.0 200:1.0 201:1.0 202:1.0 203:1.0 204:1.0 205:0.0 206:0.0 207:0.0 208:0.0 209:0.0 210:0.0 211:0.0 212:1.0 213:1.0 214:1.0 215:1.0 216:1.0 217:1.0 218:1.0 219:1.0 220:1.0 221:0.0 222:0.0 223:0.0 224:0.0 225:0.0 226:0.0 227:0.0 228:0.0 229:0.0 230:0.0 231:0.0 232:0.0 233:0.0 234:0.0 235:0.0 236:0.0 237:0.0 238:1.0 239:1.0 240:1.0 241:1.0 242:1.0 243:1.0 244:1.0 245:0.0 246:0.0 247:0.0 248:0.0 249:0.0 250:0.0 251:0.0 252:0.0 253:0.0 254:0.0 255:0.0 256:0.0 257:0.0 258:0.0 259:0.0 260:0.0 261:0.0 262:1.0 263:1.0 264:1.0 265:1.0 266:1.0 267:1.0 268:1.0 269:0.0 270:0.0 271:0.0 272:0.0 273:0.0 274:0.0 275:0.0 276:0.0 277:0.0 278:0.0 279:0.0 280:0.0 281:0.0 282:0.0 283:0.0 284:0.0 285:0.0 286:1.0 287:1.0 288:1.0 289:1.0 290:1.0 291:0.0 292:0.0 293:0.0 294:0.0 295:0.0 296:0.0 297:0.0 298:0.0 299:0.0 300:0.0 301:0.0 302:0.0 303:0.0 304:0.0 305:0.0 306:0.0 307:0.0 308:0.0 309:0.0 310:1.0 311:1.0 312:1.0 313:1.0 314:1.0 315:0.0 316:0.0 317:0.0 318:0.0 319:0.0 320:0.0 321:0.0 322:0.0 323:0.0 324:0.0 325:0.0 326:0.0 327:0.0 328:0.0 329:0.0 330:0.0 331:0.0 332:0.0 333:0.0 334:1.0 335:1.0 336:1.0 337:1.0 338:1.0 339:0.0 340:0.0 341:0.0 342:0.0 343:0.0 344:0.0 345:0.0 346:0.0 347:0.0 348:0.0 349:0.0 350:0.0 351:0.0 352:0.0 353:0.0 354:0.0 355:0.0 356:0.0 357:0.0 358:1.0 359:1.0 360:1.0 361:0.0 362:0.0 363:1.0 364:1.0 365:1.0 366:1.0 367:1.0 368:0.0 369:0.0 370:0.0 371:0.0 372:0.0 373:1.0 374:1.0 375:1.0 376:1.0 377:1.0 378:1.0 379:1.0 380:1.0 381:1.0 382:1.0 383:1.0 384:1.0 385:0.0 386:0.0 387:1.0 388:1.0 389:1.0 390:1.0 391:1.0 392:0.0 393:0.0 394:0.0 395:0.0 396:0.0 397:1.0 398:1.0 399:1.0 400:1.0 401:1.0 402:1.0 403:1.0 404:1.0 405:1.0 406:1.0 407:1.0 408:1.0 409:0.0 410:0.0 411:1.0 412:1.0 413:1.0 414:1.0 415:1.0 416:0.0 417:0.0 418:0.0 419:0.0 420:0.0 421:1.0 422:1.0 423:1.0 424:1.0 425:1.0 426:1.0 427:1.0 428:1.0 429:1.0 430:1.0 431:1.0 432:1.0 433:0.0 434:0.0 435:1.0 436:1.0 437:1.0 438:1.0 439:1.0 440:1.0 441:1.0 442:1.0 443:1.0 444:1.0 445:1.0 446:1.0 447:1.0 448:1.0 449:1.0 450:1.0 451:1.0 452:1.0 453:1.0 454:0.0 455:0.0 456:0.0 457:0.0 458:0.0 459:1.0 460:1.0 461:1.0 462:1.0 463:1.0 464:1.0 465:1.0 466:1.0 467:1.0 468:1.0 469:1.0 470:1.0 471:1.0 472:1.0 473:1.0 474:1.0 475:1.0 476:1.0 477:1.0 478:0.0 479:0.0 480:0.0 481:0.0 482:0.0 483:1.0 484:1.0 485:1.0 486:1.0 487:1.0 488:1.0 489:1.0 490:1.0 491:1.0 492:1.0 493:1.0 494:1.0 495:1.0 496:1.0 497:1.0 498:1.0 499:1.0 500:1.0 501:1.0 502:0.0 503:0.0 504:0.0 505:0.0 506:0.0 507:0.0 508:0.0 509:0.0 510:0.0 511:0.0 512:0.0 513:0.0 514:1.0 515:1.0 516:1.0 517:0.0 518:0.0 519:0.0 520:0.0 521:0.0 522:0.0 523:0.0 524:0.0 525:0.0 526:0.0 527:0.0 528:0.0 529:0.0 530:0.0 531:0.0 532:0.0 533:0.0 534:0.0 535:0.0 536:0.0 537:0.0 538:1.0 539:1.0 540:1.0 541:0.0 542:0.0 543:0.0 544:0.0 545:0.0 546:0.0 547:0.0 548:0.0 549:0.0 550:0.0 551:0.0 552:0.0 553:0.0 554:0.0 555:0.0 556:0.0 557:0.0 558:0.0 559:0.0 560:0.0 561:0.0 562:1.0 563:1.0 564:1.0 565:0.0 566:0.0 567:0.0 568:0.0 569:0.0 570:0.0 571:0.0 572:0.0 573:0.0 574:0.0 575:0.0 576:0.0 
0.0 0.0 0.0 0.0 0.0 0.0 0.0 0.0 0.0 0.0 0.0 0.0014959552664558767 0.0 0.0 0.0 0.0 0.0 2.823705837552189E-4 0.0 0.0 0.0 0.0 0.0 0.0 0.0 0.0 5.143680543966563E-4 0.0 0.0 0.0 1:0.0 2:0.0 3:0.0 4:0.0 5:1.0 6:1.0 7:1.0 8:1.0 9:1.0 10:1.0 11:1.0 12:1.0 13:1.0 14:1.0 15:1.0 16:1.0 17:1.0 18:1.0 19:1.0 20:0.0 21:0.0 22:0.0 23:0.0 24:0.0 25:0.0 26:0.0 27:0.0 28:0.0 29:1.0 30:1.0 31:1.0 32:1.0 33:1.0 34:1.0 35:1.0 36:1.0 37:1.0 38:1.0 39:1.0 40:1.0 41:1.0 42:1.0 43:1.0 44:0.0 45:0.0 46:0.0 47:0.0 48:0.0 49:0.0 50:0.0 51:0.0 52:0.0 53:1.0 54:1.0 55:1.0 56:1.0 57:1.0 58:1.0 59:1.0 60:1.0 61:1.0 62:1.0 63:1.0 64:1.0 65:1.0 66:1.0 67:1.0 68:0.0 69:0.0 70:0.0 71:0.0 72:0.0 73:0.0 74:0.0 75:1.0 76:1.0 77:1.0 78:1.0 79:1.0 80:1.0 81:1.0 82:1.0 83:1.0 84:1.0 85:1.0 86:1.0 87:1.0 88:1.0 89:1.0 90:1.0 91:1.0 92:1.0 93:1.0 94:0.0 95:0.0 96:0.0 97:0.0 98:0.0 99:1.0 100:1.0 101:1.0 102:1.0 103:1.0 104:1.0 105:1.0 106:1.0 107:1.0 108:1.0 109:1.0 110:1.0 111:1.0 112:1.0 113:1.0 114:1.0 115:1.0 116:1.0 117:1.0 118:0.0 119:0.0 120:0.0 121:0.0 122:0.0 123:1.0 124:1.0 125:1.0 126:1.0 127:1.0 128:1.0 129:1.0 130:1.0 131:1.0 132:1.0 133:1.0 134:1.0 135:1.0 136:1.0 137:1.0 138:1.0 139:1.0 140:1.0 141:1.0 142:0.0 143:0.0 144:0.0 145:1.0 146:1.0 147:1.0 148:1.0 149:0.0 150:0.0 151:0.0 152:0.0 153:0.0 154:0.0 155:0.0 156:0.0 157:0.0 158:0.0 159:0.0 160:0.0 161:0.0 162:0.0 163:0.0 164:1.0 165:1.0 166:1.0 167:1.0 168:1.0 169:1.0 170:1.0 171:1.0 172:1.0 173:0.0 174:0.0 175:0.0 176:0.0 177:0.0 178:0.0 179:0.0 180:0.0 181:0.0 182:0.0 183:0.0 184:0.0 185:0.0 186:0.0 187:0.0 188:1.0 189:1.0 190:1.0 191:1.0 192:1.0 193:1.0 194:1.0 195:1.0 196:1.0 197:0.0 198:0.0 199:0.0 200:0.0 201:0.0 202:0.0 203:0.0 204:0.0 205:0.0 206:0.0 207:0.0 208:0.0 209:0.0 210:0.0 211:0.0 212:1.0 213:1.0 214:1.0 215:1.0 216:1.0 217:1.0 218:1.0 219:1.0 220:1.0 221:0.0 222:0.0 223:0.0 224:0.0 225:0.0 226:0.0 227:0.0 228:0.0 229:0.0 230:0.0 231:0.0 232:0.0 233:0.0 234:0.0 235:0.0 236:1.0 237:1.0 238:1.0 239:1.0 240:1.0 241:1.0 242:1.0 243:0.0 244:0.0 245:0.0 246:0.0 247:0.0 248:0.0 249:0.0 250:0.0 251:0.0 252:0.0 253:0.0 254:0.0 255:0.0 256:0.0 257:0.0 258:0.0 259:0.0 260:0.0 261:0.0 262:1.0 263:1.0 264:1.0 265:1.0 266:1.0 267:0.0 268:0.0 269:0.0 270:0.0 271:0.0 272:0.0 273:0.0 274:0.0 275:0.0 276:0.0 277:0.0 278:0.0 279:0.0 280:0.0 281:0.0 282:0.0 283:0.0 284:0.0 285:0.0 286:1.0 287:1.0 288:1.0 289:1.0 290:1.0 291:0.0 292:0.0 293:0.0 294:0.0 295:0.0 296:0.0 297:0.0 298:0.0 299:0.0 300:0.0 301:0.0 302:0.0 303:0.0 304:0.0 305:0.0 306:0.0 307:0.0 308:0.0 309:0.0 310:1.0 311:1.0 312:1.0 313:1.0 314:1.0 315:1.0 316:1.0 317:0.0 318:0.0 319:0.0 320:0.0 321:0.0 322:0.0 323:0.0 324:0.0 325:0.0 326:0.0 327:0.0 328:0.0 329:1.0 330:1.0 331:1.0 332:1.0 333:1.0 334:1.0 335:1.0 336:1.0 337:1.0 338:1.0 339:1.0 340:1.0 341:0.0 342:0.0 343:0.0 344:0.0 345:0.0 346:0.0 347:0.0 348:0.0 349:0.0 350:0.0 351:0.0 352:0.0 353:1.0 354:1.0 355:1.0 356:1.0 357:1.0 358:1.0 359:1.0 360:1.0 361:1.0 362:1.0 363:1.0 364:1.0 365:0.0 366:0.0 367:0.0 368:0.0 369:0.0 370:0.0 371:0.0 372:0.0 373:0.0 374:0.0 375:0.0 376:0.0 377:1.0 378:1.0 379:1.0 380:1.0 381:1.0 382:1.0 383:1.0 384:1.0 385:1.0 386:1.0 387:1.0 388:1.0 389:0.0 390:0.0 391:0.0 392:0.0 393:0.0 394:0.0 395:0.0 396:0.0 397:0.0 398:0.0 399:0.0 400:0.0 401:1.0 402:1.0 403:1.0 404:1.0 405:1.0 406:1.0 407:1.0 408:1.0 409:0.0 410:0.0 411:1.0 412:1.0 413:1.0 414:1.0 415:1.0 416:1.0 417:1.0 418:1.0 419:1.0 420:1.0 421:1.0 422:1.0 423:1.0 424:1.0 425:1.0 426:1.0 427:1.0 428:1.0 429:1.0 430:0.0 431:0.0 432:0.0 433:0.0 434:0.0 435:1.0 436:1.0 437:1.0 438:1.0 439:1.0 440:1.0 441:1.0 442:1.0 443:1.0 444:1.0 445:1.0 446:1.0 447:1.0 448:1.0 449:1.0 450:1.0 451:1.0 452:1.0 453:1.0 454:0.0 455:0.0 456:0.0 457:0.0 458:0.0 459:1.0 460:1.0 461:1.0 462:1.0 463:1.0 464:1.0 465:1.0 466:1.0 467:1.0 468:1.0 469:1.0 470:1.0 471:1.0 472:1.0 473:1.0 474:1.0 475:1.0 476:1.0 477:1.0 478:0.0 479:0.0 480:0.0 481:0.0 482:0.0 483:0.0 484:0.0 485:1.0 486:1.0 487:1.0 488:1.0 489:1.0 490:1.0 491:1.0 492:1.0 493:1.0 494:1.0 495:1.0 496:1.0 497:1.0 498:1.0 499:1.0 500:0.0 501:0.0 502:0.0 503:0.0 504:0.0 505:0.0 506:0.0 507:0.0 508:0.0 509:1.0 510:1.0 511:1.0 512:1.0 513:1.0 514:1.0 515:1.0 516:1.0 517:1.0 518:1.0 519:1.0 520:1.0 521:1.0 522:1.0 523:1.0 524:0.0 525:0.0 526:0.0 527:0.0 528:0.0 529:0.0 530:0.0 531:0.0 532:0.0 533:1.0 534:1.0 535:1.0 536:1.0 537:1.0 538:1.0 539:1.0 540:1.0 541:1.0 542:1.0 543:1.0 544:1.0 545:1.0 546:1.0 547:1.0 548:0.0 549:0.0 550:0.0 551:0.0 552:0.0 553:0.0 554:0.0 555:0.0 556:0.0 557:1.0 558:1.0 559:1.0 560:1.0 561:1.0 562:1.0 563:1.0 564:1.0 565:1.0 566:1.0 567:1.0 568:1.0 569:1.0 570:1.0 571:1.0 572:0.0 573:0.0 574:0.0 575:0.0 576:0.0 
0.0 0.0 0.0 0.0 0.002667508147345299 0.0 0.0 0.01113168649490472 0.0 0.004167048123100025 0.0 0.0 0.0 0.0 0.0 1.7438261305358486E-4 0.0 0.0 0.0 0.00190903711159007 0.0 0.0 0.0 0.0 0.01107856039094882 0.0 0.0 0.0 0.0 0.0 1:0.0 2:0.0 3:1.0 4:1.0 5:1.0 6:1.0 7:1.0 8:1.0 9:1.0 10:1.0 11:1.0 12:1.0 13:1.0 14:1.0 15:1.0 16:1.0 17:1.0 18:1.0 19:1.0 20:0.0 21:0.0 22:0.0 23:0.0 24:0.0 25:0.0 26:0.0 27:1.0 28:1.0 29:1.0 30:1.0 31:1.0 32:1.0 33:1.0 34:1.0 35:1.0 36:1.0 37:1.0 38:1.0 39:1.0 40:1.0 41:1.0 42:1.0 43:1.0 44:0.0 45:0.0 46:0.0 47:0.0 48:0.0 49:0.0 50:0.0 51:1.0 52:1.0 53:1.0 54:1.0 55:1.0 56:1.0 57:1.0 58:1.0 59:1.0 60:1.0 61:1.0 62:1.0 63:1.0 64:1.0 65:1.0 66:1.0 67:1.0 68:0.0 69:0.0 70:0.0 71:0.0 72:0.0 73:0.0 74:0.0 75:1.0 76:1.0 77:1.0 78:1.0 79:1.0 80:1.0 81:1.0 82:1.0 83:1.0 84:1.0 85:1.0 86:1.0 87:1.0 88:1.0 89:1.0 90:1.0 91:1.0 92:1.0 93:1.0 94:0.0 95:0.0 96:0.0 97:0.0 98:0.0 99:1.0 100:1.0 101:1.0 102:1.0 103:1.0 104:1.0 105:1.0 106:1.0 107:1.0 108:1.0 109:1.0 110:1.0 111:1.0 112:1.0 113:1.0 114:1.0 115:1.0 116:1.0 117:1.0 118:0.0 119:0.0 120:0.0 121:0.0 122:0.0 123:1.0 124:1.0 125:1.0 126:1.0 127:1.0 128:1.0 129:1.0 130:1.0 131:1.0 132:1.0 133:1.0 134:1.0 135:1.0 136:1.0 137:1.0 138:1.0 139:1.0 140:1.0 141:1.0 142:0.0 143:0.0 144:0.0 145:1.0 146:1.0 147:1.0 148:1.0 149:0.0 150:0.0 151:0.0 152:0.0 153:0.0 154:0.0 155:0.0 156:0.0 157:0.0 158:0.0 159:0.0 160:0.0 161:0.0 162:0.0 163:0.0 164:1.0 165:1.0 166:1.0 167:1.0 168:1.0 169:1.0 170:1.0 171:1.0 172:1.0 173:0.0 174:0.0 175:0.0 176:0.0 177:0.0 178:0.0 179:0.0 180:0.0 181:0.0 182:0.0 183:0.0 184:0.0 185:0.0 186:0.0 187:0.0 188:1.0 189:1.0 190:1.0 191:1.0 192:1.0 193:1.0 194:1.0 195:1.0 196:1.0 197:0.0 198:0.0 199:0.0 200:0.0 201:0.0 202:0.0 203:0.0 204:0.0 205:0.0 206:0.0 207:0.0 208:0.0 209:0.0 210:0.0 211:0.0 212:1.0 213:1.0 214:1.0 215:1.0 216:1.0 217:1.0 218:1.0 219:1.0 220:1.0 221:0.0 222:0.0 223:0.0 224:0.0 225:0.0 226:0.0 227:0.0 228:0.0 229:0.0 230:0.0 231:0.0 232:0.0 233:0.0 234:0.0 235:0.0 236:1.0 237:1.0 238:1.0 239:1.0 240:1.0 241:1.0 242:1.0 243:0.0 244:0.0 245:0.0 246:0.0 247:0.0 248:0.0 249:0.0 250:0.0 251:0.0 252:0.0 253:0.0 254:0.0 255:0.0 256:0.0 257:0.0 258:0.0 259:0.0 260:0.0 261:0.0 262:1.0 263:1.0 264:1.0 265:1.0 266:1.0 267:0.0 268:0.0 269:0.0 270:0.0 271:0.0 272:0.0 273:0.0 274:0.0 275:0.0 276:0.0 277:0.0 278:0.0 279:0.0 280:0.0 281:0.0 282:0.0 283:0.0 284:0.0 285:0.0 286:1.0 287:1.0 288:1.0 289:1.0 290:1.0 291:0.0 292:0.0 293:0.0 294:0.0 295:0.0 296:0.0 297:0.0 298:0.0 299:0.0 300:0.0 301:0.0 302:0.0 303:0.0 304:0.0 305:0.0 306:0.0 307:0.0 308:0.0 309:0.0 310:1.0 311:1.0 312:1.0 313:1.0 314:1.0 315:1.0 316:1.0 317:0.0 318:0.0 319:0.0 320:0.0 321:0.0 322:0.0 323:0.0 324:0.0 325:0.0 326:0.0 327:0.0 328:0.0 329:0.0 330:0.0 331:0.0 332:1.0 333:1.0 334:1.0 335:1.0 336:1.0 337:1.0 338:1.0 339:1.0 340:1.0 341:0.0 342:0.0 343:0.0 344:0.0 345:0.0 346:0.0 347:0.0 348:0.0 349:0.0 350:0.0 351:0.0 352:0.0 353:0.0 354:0.0 355:0.0 356:1.0 357:1.0 358:1.0 359:1.0 360:1.0 361:1.0 362:1.0 363:1.0 364:1.0 365:0.0 366:0.0 367:0.0 368:0.0 369:0.0 370:0.0 371:0.0 372:0.0 373:0.0 374:0.0 375:0.0 376:0.0 377:0.0 378:0.0 379:0.0 380:1.0 381:1.0 382:1.0 383:1.0 384:1.0 385:1.0 386:1.0 387:1.0 388:1.0 389:0.0 390:0.0 391:0.0 392:0.0 393:0.0 394:0.0 395:0.0 396:0.0 397:0.0 398:0.0 399:0.0 400:0.0 401:0.0 402:0.0 403:0.0 404:1.0 405:1.0 406:1.0 407:1.0 408:1.0 409:0.0 410:0.0 411:1.0 412:1.0 413:1.0 414:1.0 415:1.0 416:1.0 417:1.0 418:1.0 419:1.0 420:1.0 421:1.0 422:1.0 423:1.0 424:1.0 425:1.0 426:1.0 427:1.0 428:1.0 429:1.0 430:0.0 431:0.0 432:0.0 433:0.0 434:0.0 435:1.0 436:1.0 437:1.0 438:1.0 439:1.0 440:1.0 441:1.0 442:1.0 443:1.0 444:1.0 445:1.0 446:1.0 447:1.0 448:1.0 449:1.0 450:1.0 451:1.0 452:1.0 453:1.0 454:0.0 455:0.0 456:0.0 457:0.0 458:0.0 459:1.0 460:1.0 461:1.0 462:1.0 463:1.0 464:1.0 465:1.0 466:1.0 467:1.0 468:1.0 469:1.0 470:1.0 471:1.0 472:1.0 473:1.0 474:1.0 475:1.0 476:1.0 477:1.0 478:0.0 479:0.0 480:0.0 481:0.0 482:0.0 483:0.0 484:0.0 485:1.0 486:1.0 487:1.0 488:1.0 489:1.0 490:1.0 491:1.0 492:1.0 493:1.0 494:1.0 495:1.0 496:1.0 497:1.0 498:1.0 499:1.0 500:0.0 501:0.0 502:0.0 503:0.0 504:0.0 505:0.0 506:0.0 507:0.0 508:0.0 509:1.0 510:1.0 511:1.0 512:1.0 513:1.0 514:1.0 515:1.0 516:1.0 517:1.0 518:1.0 519:1.0 520:1.0 521:1.0 522:1.0 523:1.0 524:0.0 525:0.0 526:0.0 527:0.0 528:0.0 529:0.0 530:0.0 531:0.0 532:0.0 533:1.0 534:1.0 535:1.0 536:1.0 537:1.0 538:1.0 539:1.0 540:1.0 541:1.0 542:1.0 543:1.0 544:1.0 545:1.0 546:1.0 547:1.0 548:0.0 549:0.0 550:0.0 551:0.0 552:0.0 553:0.0 554:0.0 555:0.0 556:0.0 557:1.0 558:1.0 559:1.0 560:1.0 561:1.0 562:1.0 563:1.0 564:1.0 565:1.0 566:1.0 567:1.0 568:1.0 569:1.0 570:1.0 571:1.0 572:0.0 573:0.0 574:0.0 575:0.0 576:0.0 
0.0 0.003699049000704926 0.0017622336858381202 0.0 0.0 0.0065494803833155224 5.261989781744625E-4 0.0 0.00481906235563504 0.0034207326928699625 0.0 0.0 0.0030932791335626583 0.0 0.012753141559593173 0.0030575958888090678 0.0015036043151986324 0.0 8.265299863558885E-4 0.00803949516457535 0.004240307784032206 0.00611801149471145 1.6019093376779792E-4 3.7927186556242505E-4 0.0032394589064258647 0.0 0.0 0.0010865391450205057 0.0 4.977533118446755E-4 1:0.0 2:0.0 3:0.0 4:0.0 5:0.0 6:0.0 7:0.0 8:0.0 9:0.0 10:1.0 11:1.0 12:1.0 13:1.0 14:1.0 15:1.0 16:1.0 17:0.0 18:0.0 19:0.0 20:0.0 21:0.0 22:0.0 23:0.0 24:0.0 25:0.0 26:0.0 27:0.0 28:0.0 29:0.0 30:0.0 31:0.0 32:0.0 33:0.0 34:1.0 35:1.0 36:1.0 37:1.0 38:1.0 39:1.0 40:1.0 41:0.0 42:0.0 43:0.0 44:0.0 45:0.0 46:0.0 47:0.0 48:0.0 49:0.0 50:0.0 51:0.0 52:0.0 53:0.0 54:0.0 55:0.0 56:0.0 57:0.0 58:1.0 59:1.0 60:1.0 61:1.0 62:1.0 63:1.0 64:1.0 65:0.0 66:0.0 67:0.0 68:0.0 69:0.0 70:0.0 71:0.0 72:0.0 73:0.0 74:0.0 75:1.0 76:1.0 77:1.0 78:1.0 79:1.0 80:1.0 81:1.0 82:1.0 83:1.0 84:1.0 85:1.0 86:1.0 87:1.0 88:1.0 89:1.0 90:1.0 91:1.0 92:1.0 93:1.0 94:0.0 95:0.0 96:0.0 97:0.0 98:0.0 99:1.0 100:1.0 101:1.0 102:1.0 103:1.0 104:1.0 105:1.0 106:1.0 107:1.0 108:1.0 109:1.0 110:1.0 111:1.0 112:1.0 113:1.0 114:1.0 115:1.0 116:1.0 117:1.0 118:0.0 119:0.0 120:0.0 121:0.0 122:0.0 123:1.0 124:1.0 125:1.0 126:1.0 127:1.0 128:1.0 129:1.0 130:1.0 131:1.0 132:1.0 133:1.0 134:1.0 135:1.0 136:1.0 137:1.0 138:1.0 139:1.0 140:1.0 141:1.0 142:0.0 143:0.0 144:0.0 145:1.0 146:1.0 147:1.0 148:1.0 149:1.0 150:1.0 151:1.0 152:1.0 153:1.0 154:0.0 155:0.0 156:0.0 157:0.0 158:0.0 159:0.0 160:0.0 161:0.0 162:0.0 163:0.0 164:1.0 165:1.0 166:1.0 167:1.0 168:1.0 169:1.0 170:1.0 171:1.0 172:1.0 173:1.0 174:1.0 175:1.0 176:1.0 177:1.0 178:0.0 179:0.0 180:0.0 181:0.0 182:0.0 183:0.0 184:0.0 185:0.0 186:0.0 187:0.0 188:1.0 189:1.0 190:1.0 191:1.0 192:1.0 193:1.0 194:1.0 195:1.0 196:1.0 197:1.0 198:1.0 199:1.0 200:1.0 201:1.0 202:0.0 203:0.0 204:0.0 205:0.0 206:0.0 207:0.0 208:0.0 209:0.0 210:0.0 211:0.0 212:1.0 213:1.0 214:1.0 215:1.0 216:1.0 217:1.0 218:1.0 219:1.0 220:1.0 221:1.0 222:1.0 223:1.0 224:1.0 225:1.0 226:0.0 227:0.0 228:0.0 229:0.0 230:0.0 231:0.0 232:0.0 233:0.0 234:0.0 235:0.0 236:1.0 237:1.0 238:1.0 239:1.0 240:1.0 241:1.0 242:1.0 243:0.0 244:0.0 245:0.0 246:0.0 247:0.0 248:0.0 249:0.0 250:0.0 251:0.0 252:0.0 253:0.0 254:0.0 255:0.0 256:0.0 257:0.0 258:0.0 259:0.0 260:0.0 261:0.0 262:1.0 263:1.0 264:1.0 265:1.0 266:1.0 267:0.0 268:0.0 269:0.0 270:0.0 271:0.0 272:0.0 273:0.0 274:0.0 275:0.0 276:0.0 277:0.0 278:0.0 279:0.0 280:0.0 281:0.0 282:0.0 283:0.0 284:0.0 285:0.0 286:1.0 287:1.0 288:1.0 289:1.0 290:1.0 291:0.0 292:0.0 293:0.0 294:0.0 295:0.0 296:0.0 297:0.0 298:0.0 299:0.0 300:0.0 301:0.0 302:0.0 303:0.0 304:0.0 305:0.0 306:0.0 307:0.0 308:0.0 309:0.0 310:1.0 311:1.0 312:1.0 313:1.0 314:1.0 315:0.0 316:0.0 317:0.0 318:0.0 319:0.0 320:0.0 321:0.0 322:0.0 323:0.0 324:0.0 325:0.0 326:0.0 327:0.0 328:0.0 329:0.0 330:0.0 331:0.0 332:0.0 333:0.0 334:1.0 335:1.0 336:1.0 337:1.0 338:1.0 339:0.0 340:0.0 341:0.0 342:0.0 343:0.0 344:0.0 345:0.0 346:0.0 347:0.0 348:0.0 349:0.0 350:0.0 351:0.0 352:0.0 353:0.0 354:0.0 355:0.0 356:0.0 357:0.0 358:1.0 359:1.0 360:1.0 361:1.0 362:1.0 363:0.0 364:0.0 365:0.0 366:0.0 367:0.0 368:0.0 369:0.0 370:0.0 371:0.0 372:0.0 373:0.0 374:0.0 375:0.0 376:0.0 377:0.0 378:0.0 379:0.0 380:0.0 381:0.0 382:1.0 383:1.0 384:1.0 385:1.0 386:1.0 387:0.0 388:0.0 389:0.0 390:0.0 391:0.0 392:0.0 393:0.0 394:0.0 395:0.0 396:0.0 397:0.0 398:0.0 399:0.0 400:0.0 401:0.0 402:0.0 403:0.0 404:0.0 405:0.0 406:1.0 407:1.0 408:1.0 409:0.0 410:0.0 411:1.0 412:1.0 413:1.0 414:1.0 415:1.0 416:1.0 417:1.0 418:1.0 419:1.0 420:1.0 421:1.0 422:1.0 423:1.0 424:1.0 425:1.0 426:1.0 427:1.0 428:1.0 429:1.0 430:1.0 431:1.0 432:1.0 433:0.0 434:0.0 435:1.0 436:1.0 437:1.0 438:1.0 439:1.0 440:1.0 441:1.0 442:1.0 443:1.0 444:1.0 445:1.0 446:1.0 447:1.0 448:1.0 449:1.0 450:1.0 451:1.0 452:1.0 453:1.0 454:1.0 455:1.0 456:1.0 457:0.0 458:0.0 459:1.0 460:1.0 461:1.0 462:1.0 463:1.0 464:1.0 465:1.0 466:1.0 467:1.0 468:1.0 469:1.0 470:1.0 471:1.0 472:1.0 473:1.0 474:1.0 475:1.0 476:1.0 477:1.0 478:1.0 479:1.0 480:1.0 481:0.0 482:0.0 483:1.0 484:1.0 485:1.0 486:1.0 487:1.0 488:1.0 489:1.0 490:1.0 491:1.0 492:1.0 493:1.0 494:1.0 495:1.0 496:1.0 497:1.0 498:1.0 499:1.0 500:1.0 501:1.0 502:0.0 503:0.0 504:0.0 505:0.0 506:0.0 507:1.0 508:1.0 509:1.0 510:1.0 511:1.0 512:1.0 513:1.0 514:1.0 515:1.0 516:1.0 517:1.0 518:1.0 519:1.0 520:1.0 521:1.0 522:1.0 523:1.0 524:1.0 525:1.0 526:0.0 527:0.0 528:0.0 529:0.0 530:0.0 531:1.0 532:1.0 533:1.0 534:1.0 535:1.0 536:1.0 537:1.0 538:1.0 539:1.0 540:1.0 541:1.0 542:1.0 543:1.0 544:1.0 545:1.0 546:1.0 547:1.0 548:1.0 549:1.0 550:0.0 551:0.0 552:0.0 553:0.0 554:0.0 555:1.0 556:1.0 557:1.0 558:1.0 559:1.0 560:1.0 561:1.0 562:1.0 563:1.0 564:1.0 565:1.0 566:1.0 567:1.0 568:1.0 569:1.0 570:1.0 571:1.0 572:1.0 573:1.0 574:0.0 575:0.0 576:0.0 
0.0 0.0 0.0 0.0 0.0 0.0 0.0 0.0 0.0 0.0 0.0 2.625075519355968E-5 0.0 0.0 0.0 0.0 0.0 0.0 0.0 0.0 0.0 0.0 0.0 0.0 0.0 0.0 0.0 0.0 0.0 0.0 1:0.0 2:0.0 3:0.0 4:0.0 5:0.0 6:0.0 7:0.0 8:0.0 9:0.0 10:0.0 11:0.0 12:0.0 13:1.0 14:1.0 15:1.0 16:1.0 17:0.0 18:0.0 19:0.0 20:0.0 21:0.0 22:0.0 23:0.0 24:0.0 25:0.0 26:0.0 27:0.0 28:0.0 29:0.0 30:0.0 31:0.0 32:0.0 33:0.0 34:0.0 35:0.0 36:0.0 37:1.0 38:1.0 39:1.0 40:1.0 41:0.0 42:0.0 43:0.0 44:0.0 45:0.0 46:0.0 47:0.0 48:0.0 49:0.0 50:0.0 51:0.0 52:0.0 53:0.0 54:0.0 55:0.0 56:0.0 57:0.0 58:0.0 59:0.0 60:0.0 61:1.0 62:1.0 63:1.0 64:1.0 65:0.0 66:0.0 67:0.0 68:0.0 69:0.0 70:0.0 71:0.0 72:0.0 73:0.0 74:0.0 75:0.0 76:0.0 77:1.0 78:1.0 79:1.0 80:1.0 81:1.0 82:1.0 83:1.0 84:1.0 85:1.0 86:1.0 87:1.0 88:1.0 89:1.0 90:1.0 91:1.0 92:1.0 93:1.0 94:0.0 95:0.0 96:0.0 97:0.0 98:0.0 99:0.0 100:0.0 101:1.0 102:1.0 103:1.0 104:1.0 105:1.0 106:1.0 107:1.0 108:1.0 109:1.0 110:1.0 111:1.0 112:1.0 113:1.0 114:1.0 115:1.0 116:1.0 117:1.0 118:0.0 119:0.0 120:0.0 121:0.0 122:0.0 123:0.0 124:0.0 125:1.0 126:1.0 127:1.0 128:1.0 129:1.0 130:1.0 131:1.0 132:1.0 133:1.0 134:1.0 135:1.0 136:1.0 137:1.0 138:1.0 139:1.0 140:1.0 141:1.0 142:0.0 143:0.0 144:0.0 145:0.0 146:0.0 147:1.0 148:1.0 149:1.0 150:1.0 151:1.0 152:1.0 153:1.0 154:1.0 155:1.0 156:1.0 157:0.0 158:0.0 159:0.0 160:0.0 161:0.0 162:0.0 163:0.0 164:1.0 165:1.0 166:1.0 167:1.0 168:1.0 169:0.0 170:0.0 171:1.0 172:1.0 173:1.0 174:1.0 175:1.0 176:1.0 177:1.0 178:1.0 179:1.0 180:1.0 181:0.0 182:0.0 183:0.0 184:0.0 185:0.0 186:0.0 187:0.0 188:1.0 189:1.0 190:1.0 191:1.0 192:1.0 193:0.0 194:0.0 195:1.0 196:1.0 197:1.0 198:1.0 199:1.0 200:1.0 201:1.0 202:1.0 203:1.0 204:1.0 205:0.0 206:0.0 207:0.0 208:0.0 209:0.0 210:0.0 211:0.0 212:1.0 213:1.0 214:1.0 215:1.0 216:1.0 217:1.0 218:1.0 219:1.0 220:1.0 221:0.0 222:0.0 223:0.0 224:0.0 225:0.0 226:0.0 227:0.0 228:0.0 229:0.0 230:0.0 231:0.0 232:0.0 233:0.0 234:0.0 235:0.0 236:0.0 237:0.0 238:1.0 239:1.0 240:1.0 241:1.0 242:1.0 243:1.0 244:1.0 245:0.0 246:0.0 247:0.0 248:0.0 249:0.0 250:0.0 251:0.0 252:0.0 253:0.0 254:0.0 255:0.0 256:0.0 257:0.0 258:0.0 259:0.0 260:0.0 261:0.0 262:1.0 263:1.0 264:1.0 265:1.0 266:1.0 267:1.0 268:1.0 269:0.0 270:0.0 271:0.0 272:0.0 273:0.0 274:0.0 275:0.0 276:0.0 277:0.0 278:0.0 279:0.0 280:0.0 281:0.0 282:0.0 283:0.0 284:0.0 285:0.0 286:1.0 287:1.0 288:1.0 289:1.0 290:1.0 291:0.0 292:0.0 293:0.0 294:0.0 295:0.0 296:0.0 297:0.0 298:0.0 299:0.0 300:0.0 301:0.0 302:0.0 303:0.0 304:0.0 305:0.0 306:0.0 307:0.0 308:0.0 309:0.0 310:1.0 311:1.0 312:1.0 313:1.0 314:1.0 315:0.0 316:0.0 317:0.0 318:0.0 319:0.0 320:0.0 321:0.0 322:0.0 323:0.0 324:0.0 325:0.0 326:0.0 327:0.0 328:0.0 329:0.0 330:0.0 331:0.0 332:0.0 333:0.0 334:1.0 335:1.0 336:1.0 337:1.0 338:1.0 339:0.0 340:0.0 341:0.0 342:0.0 343:0.0 344:0.0 345:0.0 346:0.0 347:0.0 348:0.0 349:0.0 350:0.0 351:0.0 352:0.0 353:0.0 354:0.0 355:0.0 356:0.0 357:0.0 358:1.0 359:1.0 360:1.0 361:0.0 362:0.0 363:1.0 364:1.0 365:1.0 366:1.0 367:1.0 368:0.0 369:0.0 370:0.0 371:0.0 372:0.0 373:1.0 374:1.0 375:1.0 376:1.0 377:1.0 378:1.0 379:1.0 380:1.0 381:1.0 382:1.0 383:1.0 384:1.0 385:0.0 386:0.0 387:1.0 388:1.0 389:1.0 390:1.0 391:1.0 392:0.0 393:0.0 394:0.0 395:0.0 396:0.0 397:1.0 398:1.0 399:1.0 400:1.0 401:1.0 402:1.0 403:1.0 404:1.0 405:1.0 406:1.0 407:1.0 408:1.0 409:0.0 410:0.0 411:1.0 412:1.0 413:1.0 414:1.0 415:1.0 416:0.0 417:0.0 418:0.0 419:0.0 420:0.0 421:1.0 422:1.0 423:1.0 424:1.0 425:1.0 426:1.0 427:1.0 428:1.0 429:1.0 430:1.0 431:1.0 432:1.0 433:0.0 434:0.0 435:1.0 436:1.0 437:1.0 438:1.0 439:1.0 440:1.0 441:1.0 442:1.0 443:1.0 444:1.0 445:1.0 446:1.0 447:1.0 448:1.0 449:1.0 450:1.0 451:1.0 452:1.0 453:1.0 454:0.0 455:0.0 456:0.0 457:0.0 458:0.0 459:1.0 460:1.0 461:1.0 462:1.0 463:1.0 464:1.0 465:1.0 466:1.0 467:1.0 468:1.0 469:1.0 470:1.0 471:1.0 472:1.0 473:1.0 474:1.0 475:1.0 476:1.0 477:1.0 478:0.0 479:0.0 480:0.0 481:0.0 482:0.0 483:1.0 484:1.0 485:1.0 486:1.0 487:1.0 488:1.0 489:1.0 490:1.0 491:1.0 492:1.0 493:1.0 494:1.0 495:1.0 496:1.0 497:1.0 498:1.0 499:1.0 500:1.0 501:1.0 502:0.0 503:0.0 504:0.0 505:0.0 506:0.0 507:0.0 508:0.0 509:0.0 510:0.0 511:0.0 512:1.0 513:1.0 514:1.0 515:1.0 516:1.0 517:0.0 518:0.0 519:0.0 520:0.0 521:0.0 522:0.0 523:0.0 524:0.0 525:0.0 526:0.0 527:0.0 528:0.0 529:0.0 530:0.0 531:0.0 532:0.0 533:0.0 534:0.0 535:0.0 536:1.0 537:1.0 538:1.0 539:1.0 540:1.0 541:0.0 542:0.0 543:0.0 544:0.0 545:0.0 546:0.0 547:0.0 548:0.0 549:0.0 550:0.0 551:0.0 552:0.0 553:0.0 554:0.0 555:0.0 556:0.0 557:0.0 558:0.0 559:0.0 560:1.0 561:1.0 562:1.0 563:1.0 564:1.0 565:0.0 566:0.0 567:0.0 568:0.0 569:0.0 570:0.0 571:0.0 572:0.0 573:0.0 574:0.0 575:0.0 576:0.0 
0.0 0.0013197015134409538 0.0037068185239367895 0.0 9.9452289029158E-4 0.0 0.0 7.560673515764735E-4 8.371831077349326E-5 0.0 0.0 6.97767425347362E-4 0.0 0.0 0.006076090369003142 0.0 0.001103301907491519 0.0 0.0 0.0 0.0 0.0 0.0 0.0 0.0 0.0 0.001758733717730374 0.0 0.0 0.0 1:0.0 2:0.0 3:0.0 4:0.0 5:1.0 6:1.0 7:1.0 8:1.0 9:1.0 10:1.0 11:1.0 12:1.0 13:1.0 14:1.0 15:1.0 16:1.0 17:1.0 18:1.0 19:1.0 20:0.0 21:0.0 22:0.0 23:0.0 24:0.0 25:0.0 26:0.0 27:0.0 28:0.0 29:1.0 30:1.0 31:1.0 32:1.0 33:1.0 34:1.0 35:1.0 36:1.0 37:1.0 38:1.0 39:1.0 40:1.0 41:1.0 42:1.0 43:1.0 44:0.0 45:0.0 46:0.0 47:0.0 48:0.0 49:0.0 50:0.0 51:0.0 52:0.0 53:1.0 54:1.0 55:1.0 56:1.0 57:1.0 58:1.0 59:1.0 60:1.0 61:1.0 62:1.0 63:1.0 64:1.0 65:1.0 66:1.0 67:1.0 68:0.0 69:0.0 70:0.0 71:0.0 72:0.0 73:0.0 74:0.0 75:1.0 76:1.0 77:1.0 78:1.0 79:1.0 80:1.0 81:1.0 82:1.0 83:1.0 84:1.0 85:1.0 86:1.0 87:1.0 88:1.0 89:1.0 90:1.0 91:1.0 92:1.0 93:1.0 94:0.0 95:0.0 96:0.0 97:0.0 98:0.0 99:1.0 100:1.0 101:1.0 102:1.0 103:1.0 104:1.0 105:1.0 106:1.0 107:1.0 108:1.0 109:1.0 110:1.0 111:1.0 112:1.0 113:1.0 114:1.0 115:1.0 116:1.0 117:1.0 118:0.0 119:0.0 120:0.0 121:0.0 122:0.0 123:1.0 124:1.0 125:1.0 126:1.0 127:1.0 128:1.0 129:1.0 130:1.0 131:1.0 132:1.0 133:1.0 134:1.0 135:1.0 136:1.0 137:1.0 138:1.0 139:1.0 140:1.0 141:1.0 142:0.0 143:0.0 144:0.0 145:1.0 146:1.0 147:1.0 148:1.0 149:0.0 150:0.0 151:0.0 152:0.0 153:0.0 154:0.0 155:0.0 156:0.0 157:0.0 158:0.0 159:0.0 160:0.0 161:0.0 162:0.0 163:0.0 164:1.0 165:1.0 166:1.0 167:1.0 168:1.0 169:1.0 170:1.0 171:1.0 172:1.0 173:0.0 174:0.0 175:0.0 176:0.0 177:0.0 178:0.0 179:0.0 180:0.0 181:0.0 182:0.0 183:0.0 184:0.0 185:0.0 186:0.0 187:0.0 188:1.0 189:1.0 190:1.0 191:1.0 192:1.0 193:1.0 194:1.0 195:1.0 196:1.0 197:0.0 198:0.0 199:0.0 200:0.0 201:0.0 202:0.0 203:0.0 204:0.0 205:0.0 206:0.0 207:0.0 208:0.0 209:0.0 210:0.0 211:0.0 212:1.0 213:1.0 214:1.0 215:1.0 216:1.0 217:1.0 218:1.0 219:1.0 220:1.0 221:0.0 222:0.0 223:0.0 224:0.0 225:0.0 226:0.0 227:0.0 228:0.0 229:0.0 230:0.0 231:0.0 232:0.0 233:0.0 234:0.0 235:0.0 236:1.0 237:1.0 238:1.0 239:1.0 240:1.0 241:1.0 242:1.0 243:0.0 244:0.0 245:0.0 246:0.0 247:0.0 248:0.0 249:0.0 250:0.0 251:0.0 252:0.0 253:0.0 254:0.0 255:0.0 256:0.0 257:0.0 258:0.0 259:0.0 260:0.0 261:0.0 262:1.0 263:1.0 264:1.0 265:1.0 266:1.0 267:0.0 268:0.0 269:0.0 270:0.0 271:0.0 272:0.0 273:0.0 274:0.0 275:0.0 276:0.0 277:0.0 278:0.0 279:0.0 280:0.0 281:0.0 282:0.0 283:0.0 284:0.0 285:0.0 286:1.0 287:1.0 288:1.0 289:1.0 290:1.0 291:0.0 292:0.0 293:0.0 294:0.0 295:0.0 296:0.0 297:0.0 298:0.0 299:0.0 300:0.0 301:0.0 302:0.0 303:0.0 304:0.0 305:0.0 306:0.0 307:0.0 308:0.0 309:0.0 310:1.0 311:1.0 312:1.0 313:1.0 314:1.0 315:1.0 316:1.0 317:0.0 318:0.0 319:0.0 320:0.0 321:0.0 322:0.0 323:0.0 324:0.0 325:0.0 326:0.0 327:1.0 328:1.0 329:0.0 330:0.0 331:0.0 332:1.0 333:1.0 334:1.0 335:1.0 336:1.0 337:1.0 338:1.0 339:1.0 340:1.0 341:0.0 342:0.0 343:0.0 344:0.0 345:0.0 346:0.0 347:0.0 348:0.0 349:0.0 350:0.0 351:1.0 352:1.0 353:0.0 354:0.0 355:0.0 356:1.0 357:1.0 358:1.0 359:1.0 360:1.0 361:1.0 362:1.0 363:1.0 364:1.0 365:0.0 366:0.0 367:0.0 368:0.0 369:0.0 370:0.0 371:0.0 372:0.0 373:0.0 374:0.0 375:1.0 376:1.0 377:0.0 378:0.0 379:0.0 380:1.0 381:1.0 382:1.0 383:1.0 384:1.0 385:1.0 386:1.0 387:1.0 388:1.0 389:0.0 390:0.0 391:0.0 392:0.0 393:0.0 394:0.0 395:0.0 396:0.0 397:0.0 398:0.0 399:1.0 400:1.0 401:0.0 402:0.0 403:0.0 404:1.0 405:1.0 406:1.0 407:1.0 408:1.0 409:0.0 410:0.0 411:1.0 412:1.0 413:1.0 414:1.0 415:1.0 416:1.0 417:1.0 418:1.0 419:1.0 420:1.0 421:1.0 422:1.0 423:1.0 424:1.0 425:1.0 426:1.0 427:1.0 428:1.0 429:1.0 430:0.0 431:0.0 432:0.0 433:0.0 434:0.0 435:1.0 436:1.0 437:1.0 438:1.0 439:1.0 440:1.0 441:1.0 442:1.0 443:1.0 444:1.0 445:1.0 446:1.0 447:1.0 448:1.0 449:1.0 450:1.0 451:1.0 452:1.0 453:1.0 454:0.0 455:0.0 456:0.0 457:0.0 458:0.0 459:1.0 460:1.0 461:1.0 462:1.0 463:1.0 464:1.0 465:1.0 466:1.0 467:1.0 468:1.0 469:1.0 470:1.0 471:1.0 472:1.0 473:1.0 474:1.0 475:1.0 476:1.0 477:1.0 478:0.0 479:0.0 480:0.0 481:0.0 482:0.0 483:0.0 484:0.0 485:1.0 486:1.0 487:1.0 488:1.0 489:1.0 490:1.0 491:1.0 492:1.0 493:1.0 494:1.0 495:1.0 496:1.0 497:1.0 498:1.0 499:1.0 500:0.0 501:0.0 502:0.0 503:0.0 504:0.0 505:0.0 506:0.0 507:0.0 508:0.0 509:1.0 510:1.0 511:1.0 512:1.0 513:1.0 514:1.0 515:1.0 516:1.0 517:1.0 518:1.0 519:1.0 520:1.0 521:1.0 522:1.0 523:1.0 524:0.0 525:0.0 526:0.0 527:0.0 528:0.0 529:0.0 530:0.0 531:0.0 532:0.0 533:1.0 534:1.0 535:1.0 536:1.0 537:1.0 538:1.0 539:1.0 540:1.0 541:1.0 542:1.0 543:1.0 544:1.0 545:1.0 546:1.0 547:1.0 548:0.0 549:0.0 550:0.0 551:0.0 552:0.0 553:0.0 554:0.0 555:0.0 556:0.0 557:1.0 558:1.0 559:1.0 560:1.0 561:1.0 562:1.0 563:1.0 564:1.0 565:1.0 566:1.0 567:1.0 568:1.0 569:1.0 570:1.0 571:1.0 572:0.0 573:0.0 574:0.0 575:0.0 576:0.0 
0.005837727733523682 0.0039409398650549175 0.0025617763126708523 0.0027959578248414143 0.003331226087326174 7.241558828230048E-4 0.006002292245595745 0.01382296889167861 0.004899272191114693 0.0032634603580511835 0.005279086699724264 0.0017065588388927592 0.005827163261367947 0.006417456520023513 0.0054110890120292405 0.0034927592186790772 0.0055616170604066454 0.003668003995233175 0.0035574828110565403 0.005295698488591321 0.00788758089201784 0.01557329818710397 0.007598194950595217 0.004159207483576506 0.006834841527263096 0.006793417684416735 0.006325357364088498 0.002302762253195396 0.003724586488405535 0.004100527551208908 1:0.0 2:0.0 3:0.0 4:0.0 5:1.0 6:1.0 7:1.0 8:1.0 9:1.0 10:1.0 11:1.0 12:1.0 13:1.0 14:1.0 15:1.0 16:1.0 17:0.0 18:0.0 19:0.0 20:0.0 21:0.0 22:0.0 23:0.0 24:0.0 25:0.0 26:0.0 27:0.0 28:0.0 29:1.0 30:1.0 31:1.0 32:1.0 33:1.0 34:1.0 35:1.0 36:1.0 37:1.0 38:1.0 39:1.0 40:1.0 41:0.0 42:0.0 43:0.0 44:0.0 45:0.0 46:0.0 47:0.0 48:0.0 49:0.0 50:0.0 51:0.0 52:0.0 53:1.0 54:1.0 55:1.0 56:1.0 57:1.0 58:1.0 59:1.0 60:1.0 61:1.0 62:1.0 63:1.0 64:1.0 65:0.0 66:0.0 67:0.0 68:0.0 69:0.0 70:0.0 71:0.0 72:0.0 73:0.0 74:0.0 75:1.0 76:1.0 77:1.0 78:1.0 79:1.0 80:1.0 81:1.0 82:1.0 83:1.0 84:1.0 85:1.0 86:1.0 87:1.0 88:1.0 89:1.0 90:1.0 91:0.0 92:0.0 93:0.0 94:0.0 95:1.0 96:1.0 97:0.0 98:0.0 99:1.0 100:1.0 101:1.0 102:1.0 103:1.0 104:1.0 105:1.0 106:1.0 107:1.0 108:1.0 109:1.0 110:1.0 111:1.0 112:1.0 113:1.0 114:1.0 115:0.0 116:0.0 117:0.0 118:0.0 119:1.0 120:1.0 121:0.0 122:0.0 123:1.0 124:1.0 125:1.0 126:1.0 127:1.0 128:1.0 129:1.0 130:1.0 131:1.0 132:1.0 133:1.0 134:1.0 135:1.0 136:1.0 137:1.0 138:1.0 139:0.0 140:0.0 141:0.0 142:0.0 143:1.0 144:1.0 145:1.0 146:1.0 147:1.0 148:1.0 149:0.0 150:0.0 151:0.0 152:0.0 153:0.0 154:0.0 155:0.0 156:0.0 157:0.0 158:0.0 159:0.0 160:0.0 161:1.0 162:1.0 163:1.0 164:1.0 165:1.0 166:1.0 167:0.0 168:0.0 169:1.0 170:1.0 171:1.0 172:1.0 173:0.0 174:0.0 175:0.0 176:0.0 177:0.0 178:0.0 179:0.0 180:0.0 181:0.0 182:0.0 183:0.0 184:0.0 185:1.0 186:1.0 187:1.0 188:1.0 189:1.0 190:1.0 191:0.0 192:0.0 193:1.0 194:1.0 195:1.0 196:1.0 197:0.0 198:0.0 199:0.0 200:0.0 201:0.0 202:0.0 203:0.0 204:0.0 205:0.0 206:0.0 207:0.0 208:0.0 209:1.0 210:1.0 211:1.0 212:1.0 213:1.0 214:1.0 215:0.0 216:0.0 217:1.0 218:1.0 219:1.0 220:1.0 221:0.0 222:0.0 223:0.0 224:0.0 225:0.0 226:0.0 227:0.0 228:0.0 229:0.0 230:0.0 231:0.0 232:0.0 233:1.0 234:1.0 235:1.0 236:1.0 237:1.0 238:1.0 239:0.0 240:0.0 241:1.0 242:1.0 243:0.0 244:0.0 245:0.0 246:0.0 247:0.0 248:0.0 249:0.0 250:0.0 251:0.0 252:0.0 253:0.0 254:0.0 255:0.0 256:0.0 257:0.0 258:0.0 259:1.0 260:1.0 261:0.0 262:0.0 263:0.0 264:0.0 265:1.0 266:1.0 267:0.0 268:0.0 269:0.0 270:0.0 271:0.0 272:0.0 273:0.0 274:0.0 275:0.0 276:0.0 277:0.0 278:0.0 279:0.0 280:0.0 281:0.0 282:0.0 283:1.0 284:1.0 285:0.0 286:0.0 287:0.0 288:0.0 289:1.0 290:1.0 291:0.0 292:0.0 293:0.0 294:0.0 295:0.0 296:0.0 297:0.0 298:0.0 299:0.0 300:0.0 301:0.0 302:0.0 303:0.0 304:0.0 305:0.0 306:0.0 307:1.0 308:1.0 309:0.0 310:0.0 311:0.0 312:0.0 313:1.0 314:1.0 315:1.0 316:1.0 317:0.0 318:0.0 319:0.0 320:0.0 321:0.0 322:0.0 323:0.0 324:0.0 325:0.0 326:0.0 327:0.0 328:0.0 329:1.0 330:1.0 331:1.0 332:1.0 333:0.0 334:0.0 335:0.0 336:0.0 337:1.0 338:1.0 339:1.0 340:1.0 341:0.0 342:0.0 343:0.0 344:0.0 345:0.0 346:0.0 347:0.0 348:0.0 349:0.0 350:0.0 351:0.0 352:0.0 353:1.0 354:1.0 355:1.0 356:1.0 357:0.0 358:0.0 359:0.0 360:0.0 361:1.0 362:1.0 363:1.0 364:1.0 365:0.0 366:0.0 367:0.0 368:0.0 369:0.0 370:0.0 371:0.0 372:0.0 373:0.0 374:0.0 375:0.0 376:0.0 377:1.0 378:1.0 379:1.0 380:1.0 381:0.0 382:0.0 383:0.0 384:0.0 385:1.0 386:1.0 387:1.0 388:1.0 389:0.0 390:0.0 391:0.0 392:0.0 393:0.0 394:0.0 395:0.0 396:0.0 397:0.0 398:0.0 399:0.0 400:0.0 401:1.0 402:1.0 403:1.0 404:1.0 405:0.0 406:0.0 407:0.0 408:0.0 409:0.0 410:0.0 411:1.0 412:1.0 413:1.0 414:1.0 415:1.0 416:1.0 417:1.0 418:1.0 419:1.0 420:1.0 421:1.0 422:1.0 423:1.0 424:1.0 425:1.0 426:1.0 427:0.0 428:0.0 429:0.0 430:0.0 431:0.0 432:0.0 433:0.0 434:0.0 435:1.0 436:1.0 437:1.0 438:1.0 439:1.0 440:1.0 441:1.0 442:1.0 443:1.0 444:1.0 445:1.0 446:1.0 447:1.0 448:1.0 449:1.0 450:1.0 451:0.0 452:0.0 453:0.0 454:0.0 455:0.0 456:0.0 457:0.0 458:0.0 459:1.0 460:1.0 461:1.0 462:1.0 463:1.0 464:1.0 465:1.0 466:1.0 467:1.0 468:1.0 469:1.0 470:1.0 471:1.0 472:1.0 473:1.0 474:1.0 475:0.0 476:0.0 477:0.0 478:0.0 479:0.0 480:0.0 481:0.0 482:0.0 483:0.0 484:0.0 485:1.0 486:1.0 487:1.0 488:1.0 489:1.0 490:1.0 491:1.0 492:1.0 493:1.0 494:1.0 495:1.0 496:1.0 497:0.0 498:0.0 499:0.0 500:0.0 501:0.0 502:0.0 503:0.0 504:0.0 505:0.0 506:0.0 507:0.0 508:0.0 509:1.0 510:1.0 511:1.0 512:1.0 513:1.0 514:1.0 515:1.0 516:1.0 517:1.0 518:1.0 519:1.0 520:1.0 521:0.0 522:0.0 523:0.0 524:0.0 525:0.0 526:0.0 527:0.0 528:0.0 529:0.0 530:0.0 531:0.0 532:0.0 533:1.0 534:1.0 535:1.0 536:1.0 537:1.0 538:1.0 539:1.0 540:1.0 541:1.0 542:1.0 543:1.0 544:1.0 545:0.0 546:0.0 547:0.0 548:0.0 549:0.0 550:0.0 551:0.0 552:0.0 553:0.0 554:0.0 555:0.0 556:0.0 557:1.0 558:1.0 559:1.0 560:1.0 561:1.0 562:1.0 563:1.0 564:1.0 565:1.0 566:1.0 567:1.0 568:1.0 569:0.0 570:0.0 571:0.0 572:0.0 573:0.0 574:0.0 575:0.0 576:0.0 
0.004228809490830429 0.0037407642056373623 0.004718155159465823 0.005188572797127227 0.006228353519614709 0.006477640460029587 0.0022599323331946664 0.006456897107476776 0.006183379073802256 0.0064710282118822715 0.00577423329974089 0.002917696944184351 0.009466639077894414 0.004307484228866859 0.004126029510639616 0.0048839120856204515 0.004751131114045991 0.004538584961078697 0.0027953322690167297 0.0036845626281596794 0.003656319896305906 0.04319984440960141 0.007225472771196038 0.0013866091482213655 0.002058289246473424 0.003155093590066228 0.00477635707645892 0.004457680485443052 0.003575324791853437 0.003925687292883135 1:0.0 2:0.0 3:0.0 4:0.0 5:0.0 6:0.0 7:0.0 8:0.0 9:0.0 10:0.0 11:1.0 12:1.0 13:1.0 14:1.0 15:1.0 16:0.0 17:0.0 18:0.0 19:0.0 20:0.0 21:0.0 22:0.0 23:0.0 24:0.0 25:0.0 26:0.0 27:0.0 28:0.0 29:0.0 30:0.0 31:0.0 32:0.0 33:0.0 34:0.0 35:1.0 36:1.0 37:1.0 38:1.0 39:1.0 40:0.0 41:0.0 42:0.0 43:0.0 44:0.0 45:0.0 46:0.0 47:0.0 48:0.0 49:0.0 50:0.0 51:0.0 52:0.0 53:0.0 54:0.0 55:0.0 56:0.0 57:0.0 58:0.0 59:1.0 60:1.0 61:1.0 62:1.0 63:1.0 64:0.0 65:0.0 66:0.0 67:0.0 68:0.0 69:0.0 70:0.0 71:0.0 72:0.0 73:0.0 74:0.0 75:0.0 76:0.0 77:1.0 78:1.0 79:1.0 80:1.0 81:1.0 82:1.0 83:1.0 84:1.0 85:1.0 86:1.0 87:1.0 88:1.0 89:1.0 90:1.0 91:1.0 92:0.0 93:0.0 94:0.0 95:0.0 96:0.0 97:0.0 98:0.0 99:0.0 100:0.0 101:1.0 102:1.0 103:1.0 104:1.0 105:1.0 106:1.0 107:1.0 108:1.0 109:1.0 110:1.0 111:1.0 112:1.0 113:1.0 114:1.0 115:1.0 116:0.0 117:0.0 118:0.0 119:0.0 120:0.0 121:0.0 122:0.0 123:0.0 124:0.0 125:1.0 126:1.0 127:1.0 128:1.0 129:1.0 130:1.0 131:1.0 132:1.0 133:1.0 134:1.0 135:1.0 136:1.0 137:1.0 138:1.0 139:1.0 140:0.0 141:0.0 142:0.0 143:0.0 144:0.0 145:0.0 146:0.0 147:1.0 148:1.0 149:1.0 150:1.0 151:1.0 152:1.0 153:1.0 154:1.0 155:0.0 156:0.0 157:0.0 158:0.0 159:0.0 160:0.0 161:0.0 162:1.0 163:1.0 164:1.0 165:1.0 166:0.0 167:0.0 168:0.0 169:0.0 170:0.0 171:1.0 172:1.0 173:1.0 174:1.0 175:1.0 176:1.0 177:1.0 178:1.0 179:0.0 180:0.0 181:0.0 182:0.0 183:0.0 184:0.0 185:0.0 186:1.0 187:1.0 188:1.0 189:1.0 190:0.0 191:0.0 192:0.0 193:0.0 194:0.0 195:1.0 196:1.0 197:1.0 198:1.0 199:1.0 200:1.0 201:1.0 202:1.0 203:0.0 204:0.0 205:0.0 206:0.0 207:0.0 208:0.0 209:0.0 210:1.0 211:1.0 212:1.0 213:1.0 214:0.0 215:0.0 216:0.0 217:1.0 218:1.0 219:1.0 220:1.0 221:0.0 222:0.0 223:0.0 224:0.0 225:0.0 226:0.0 227:0.0 228:0.0 229:0.0 230:0.0 231:0.0 232:0.0 233:0.0 234:0.0 235:0.0 236:1.0 237:1.0 238:0.0 239:0.0 240:0.0 241:1.0 242:1.0 243:1.0 244:1.0 245:0.0 246:0.0 247:0.0 248:0.0 249:0.0 250:0.0 251:0.0 252:0.0 253:0.0 254:0.0 255:0.0 256:0.0 257:0.0 258:0.0 259:0.0 260:1.0 261:1.0 262:0.0 263:0.0 264:0.0 265:1.0 266:1.0 267:1.0 268:1.0 269:0.0 270:0.0 271:0.0 272:0.0 273:0.0 274:0.0 275:0.0 276:0.0 277:0.0 278:0.0 279:0.0 280:0.0 281:0.0 282:0.0 283:0.0 284:1.0 285:1.0 286:0.0 287:0.0 288:0.0 289:1.0 290:1.0 291:0.0 292:0.0 293:0.0 294:0.0 295:0.0 296:0.0 297:0.0 298:0.0 299:0.0 300:0.0 301:0.0 302:1.0 303:1.0 304:0.0 305:0.0 306:0.0 307:0.0 308:1.0 309:1.0 310:1.0 311:1.0 312:1.0 313:1.0 314:1.0 315:0.0 316:0.0 317:0.0 318:0.0 319:0.0 320:0.0 321:0.0 322:0.0 323:0.0 324:0.0 325:0.0 326:1.0 327:1.0 328:0.0 329:0.0 330:0.0 331:0.0 332:1.0 333:1.0 334:1.0 335:1.0 336:1.0 337:1.0 338:1.0 339:0.0 340:0.0 341:0.0 342:0.0 343:0.0 344:0.0 345:0.0 346:0.0 347:0.0 348:0.0 349:0.0 350:1.0 351:1.0 352:0.0 353:0.0 354:0.0 355:0.0 356:1.0 357:1.0 358:1.0 359:1.0 360:1.0 361:0.0 362:0.0 363:1.0 364:1.0 365:1.0 366:1.0 367:0.0 368:0.0 369:0.0 370:0.0 371:1.0 372:1.0 373:1.0 374:1.0 375:1.0 376:1.0 377:1.0 378:1.0 379:1.0 380:1.0 381:1.0 382:1.0 383:1.0 384:1.0 385:0.0 386:0.0 387:1.0 388:1.0 389:1.0 390:1.0 391:0.0 392:0.0 393:0.0 394:0.0 395:1.0 396:1.0 397:1.0 398:1.0 399:1.0 400:1.0 401:1.0 402:1.0 403:1.0 404:1.0 405:1.0 406:1.0 407:1.0 408:1.0 409:0.0 410:0.0 411:1.0 412:1.0 413:1.0 414:1.0 415:0.0 416:0.0 417:0.0 418:0.0 419:1.0 420:1.0 421:1.0 422:1.0 423:1.0 424:1.0 425:1.0 426:1.0 427:1.0 428:1.0 429:1.0 430:1.0 431:1.0 432:1.0 433:0.0 434:0.0 435:1.0 436:1.0 437:1.0 438:1.0 439:1.0 440:1.0 441:1.0 442:1.0 443:1.0 444:1.0 445:1.0 446:1.0 447:1.0 448:1.0 449:1.0 450:1.0 451:1.0 452:0.0 453:0.0 454:0.0 455:0.0 456:0.0 457:0.0 458:0.0 459:1.0 460:1.0 461:1.0 462:1.0 463:1.0 464:1.0 465:1.0 466:1.0 467:1.0 468:1.0 469:1.0 470:1.0 471:1.0 472:1.0 473:1.0 474:1.0 475:1.0 476:0.0 477:0.0 478:0.0 479:0.0 480:0.0 481:0.0 482:0.0 483:1.0 484:1.0 485:1.0 486:1.0 487:1.0 488:1.0 489:1.0 490:1.0 491:1.0 492:1.0 493:1.0 494:1.0 495:1.0 496:1.0 497:1.0 498:1.0 499:1.0 500:0.0 501:0.0 502:0.0 503:0.0 504:0.0 505:0.0 506:0.0 507:0.0 508:0.0 509:0.0 510:0.0 511:0.0 512:0.0 513:1.0 514:1.0 515:0.0 516:0.0 517:0.0 518:0.0 519:0.0 520:0.0 521:0.0 522:0.0 523:0.0 524:0.0 525:0.0 526:0.0 527:0.0 528:0.0 529:0.0 530:0.0 531:0.0 532:0.0 533:0.0 534:0.0 535:0.0 536:0.0 537:1.0 538:1.0 539:0.0 540:0.0 541:0.0 542:0.0 543:0.0 544:0.0 545:0.0 546:0.0 547:0.0 548:0.0 549:0.0 550:0.0 551:0.0 552:0.0 553:0.0 554:0.0 555:0.0 556:0.0 557:0.0 558:0.0 559:0.0 560:0.0 561:1.0 562:1.0 563:0.0 564:0.0 565:0.0 566:0.0 567:0.0 568:0.0 569:0.0 570:0.0 571:0.0 572:0.0 573:0.0 574:0.0 575:0.0 576:0.0 
-0.0017898524136335464 0.005510132634570465 0.00615570017532859 0.0 0.007908142855898675 7.585179280977042E-4 0.008841533259257918 0.007825489995530817 3.342640314905443E-4 0.0032887252123597306 0.004115693223370282 0.0 0.0036957259776885226 0.008615471263685743 0.004362720376571988 8.958123725651236E-5 0.10220274092025898 0.002130200579939587 0.006238317880766802 0.0015783757659586356 0.004581151281018509 0.003931859109373788 0.002327500436344754 0.004871121106740666 0.0028144482793988805 0.009503494841098022 0.002657403249642399 0.0071592269663564865 0.012145467229338763 0.009387496940159496 1:0.0 2:0.0 3:0.0 4:0.0 5:0.0 6:0.0 7:0.0 8:0.0 9:0.0 10:1.0 11:0.0 12:0.0 13:0.0 14:0.0 15:0.0 16:0.0 17:0.0 18:0.0 19:0.0 20:0.0 21:1.0 22:1.0 23:1.0 24:1.0 25:0.0 26:1.0 27:1.0 28:1.0 29:1.0 30:1.0 31:1.0 32:0.0 33:1.0 34:1.0 35:0.0 36:0.0 37:1.0 38:0.0 39:0.0 40:0.0 41:0.0 42:0.0 43:0.0 44:0.0 45:0.0 46:0.0 47:0.0 48:0.0 49:0.0 50:0.0 51:0.0 52:0.0 53:0.0 54:0.0 55:0.0 56:0.0 57:0.0 58:0.0 59:0.0 60:1.0 
-0.005956297705961026 0.014228028911002345 0.009610391227432917 0.005635970072814742 0.0022793897211425863 0.0010775340765325312 0.011247951684068537 0.008633280350257 0.0026361313139254615 0.0022869077743603605 1.4648756319894424E-4 0.0030599501012291276 0.002932747139812931 0.0023466734221035757 0.007158041736443942 0.0 0.014842671003127155 0.0 0.0 0.002379026442424265 0.0 0.004627280895722917 0.003955281164832463 4.011855732814934E-4 0.0034695931766370565 0.0 0.0038381831850492517 0.0 0.0010673579413642879 0.017067812720436552 1:0.0 2:0.0 3:0.0 4:0.0 5:0.0 6:0.0 7:0.0 8:0.0 9:0.0 10:0.0 11:0.0 12:0.0 13:0.0 14:0.0 15:0.0 16:0.0 17:0.0 18:0.0 19:0.0 20:0.0 21:0.0 22:1.0 23:1.0 24:1.0 25:0.0 26:0.0 27:0.0 28:0.0 29:0.0 30:0.0 31:0.0 32:0.0 33:0.0 34:0.0 35:0.0 36:0.0 37:0.0 38:0.0 39:0.0 40:0.0 41:0.0 42:0.0 43:0.0 44:0.0 45:0.0 46:1.0 47:1.0 48:1.0 49:0.0 50:0.0 51:0.0 52:0.0 53:0.0 54:0.0 55:0.0 56:0.0 57:0.0 58:0.0 59:0.0 60:0.0 61:0.0 62:0.0 63:0.0 64:0.0 65:0.0 66:0.0 67:0.0 68:0.0 69:0.0 70:1.0 71:1.0 72:1.0 73:0.0 74:0.0 75:0.0 76:0.0 77:0.0 78:0.0 79:0.0 80:0.0 81:0.0 82:0.0 83:0.0 84:0.0 85:0.0 86:0.0 87:0.0 88:0.0 89:0.0 90:0.0 91:0.0 92:0.0 93:0.0 94:1.0 95:1.0 96:1.0 97:0.0 98:0.0 99:0.0 100:0.0 101:0.0 102:0.0 103:0.0 104:0.0 105:0.0 106:0.0 107:0.0 108:0.0 109:0.0 110:0.0 111:0.0 112:0.0 113:0.0 114:0.0 115:0.0 116:0.0 117:0.0 118:1.0 119:1.0 120:1.0 121:0.0 122:0.0 123:0.0 124:0.0 125:0.0 126:0.0 127:0.0 128:0.0 129:0.0 130:0.0 131:0.0 132:0.0 133:0.0 134:0.0 135:0.0 136:0.0 137:0.0 138:0.0 139:0.0 140:0.0 141:0.0 142:1.0 143:1.0 144:1.0 145:1.0 146:1.0 147:0.0 148:0.0 149:0.0 150:0.0 151:0.0 152:0.0 153:0.0 154:0.0 155:0.0 156:0.0 157:1.0 158:1.0 159:1.0 160:1.0 161:1.0 162:1.0 163:1.0 164:1.0 165:1.0 166:1.0 167:1.0 168:1.0 169:1.0 170:1.0 171:0.0 172:0.0 173:0.0 174:0.0 175:0.0 176:0.0 177:0.0 178:0.0 179:0.0 180:0.0 181:1.0 182:1.0 183:1.0 184:1.0 185:1.0 186:1.0 187:1.0 188:1.0 189:1.0 190:1.0 191:1.0 192:1.0 193:1.0 194:1.0 195:0.0 196:0.0 197:0.0 198:0.0 199:0.0 200:0.0 201:0.0 202:0.0 203:0.0 204:0.0 205:1.0 206:1.0 207:1.0 208:1.0 209:1.0 210:1.0 211:1.0 212:1.0 213:1.0 214:1.0 215:1.0 216:1.0 217:1.0 218:1.0 219:0.0 220:0.0 221:0.0 222:0.0 223:0.0 224:0.0 225:0.0 226:0.0 227:0.0 228:0.0 229:1.0 230:1.0 231:1.0 232:1.0 233:1.0 234:1.0 235:1.0 236:1.0 237:1.0 238:1.0 239:1.0 240:1.0 241:1.0 242:1.0 243:0.0 244:0.0 245:0.0 246:0.0 247:0.0 248:0.0 249:0.0 250:0.0 251:0.0 252:0.0 253:1.0 254:1.0 255:1.0 256:1.0 257:1.0 258:1.0 259:1.0 260:1.0 261:1.0 262:1.0 263:1.0 264:1.0 265:1.0 266:1.0 267:0.0 268:0.0 269:0.0 270:0.0 271:0.0 272:0.0 273:0.0 274:0.0 275:0.0 276:0.0 277:1.0 278:1.0 279:1.0 280:1.0 281:1.0 282:1.0 283:1.0 284:1.0 285:1.0 286:1.0 287:1.0 288:1.0 289:1.0 290:1.0 291:1.0 292:1.0 293:1.0 294:1.0 295:1.0 296:1.0 297:1.0 298:1.0 299:1.0 300:1.0 301:1.0 302:1.0 303:1.0 304:1.0 305:1.0 306:1.0 307:1.0 308:1.0 309:1.0 310:1.0 311:1.0 312:1.0 313:1.0 314:1.0 315:1.0 316:1.0 317:1.0 318:1.0 319:1.0 320:1.0 321:1.0 322:1.0 323:1.0 324:1.0 325:1.0 326:1.0 327:1.0 328:1.0 329:1.0 330:1.0 331:1.0 332:1.0 333:1.0 334:1.0 335:1.0 336:1.0 337:1.0 338:1.0 339:1.0 340:1.0 341:1.0 342:1.0 343:1.0 344:1.0 345:1.0 346:1.0 347:1.0 348:1.0 349:1.0 350:1.0 351:1.0 352:1.0 353:1.0 354:1.0 355:1.0 356:1.0 357:1.0 358:1.0 359:1.0 360:1.0 361:1.0 362:1.0 363:1.0 364:1.0 365:1.0 366:1.0 367:1.0 368:1.0 369:1.0 370:1.0 371:1.0 372:1.0 373:1.0 374:1.0 375:1.0 376:1.0 377:1.0 378:1.0 379:1.0 380:1.0 381:1.0 382:1.0 383:1.0 384:1.0 385:1.0 386:1.0 387:1.0 388:1.0 389:1.0 390:1.0 391:1.0 392:1.0 393:1.0 394:1.0 395:1.0 396:1.0 397:1.0 398:1.0 399:1.0 400:1.0 401:1.0 402:1.0 403:1.0 404:1.0 405:1.0 406:1.0 407:1.0 408:1.0 409:1.0 410:1.0 411:1.0 412:1.0 413:1.0 414:1.0 415:1.0 416:1.0 417:1.0 418:1.0 419:1.0 420:1.0 421:1.0 422:1.0 423:1.0 424:1.0 425:1.0 426:1.0 427:1.0 428:1.0 429:1.0 430:1.0 431:1.0 432:1.0 433:0.0 434:0.0 435:1.0 436:1.0 437:1.0 438:1.0 439:1.0 440:1.0 441:1.0 442:1.0 443:1.0 444:1.0 445:0.0 446:0.0 447:0.0 448:0.0 449:0.0 450:0.0 451:0.0 452:0.0 453:0.0 454:0.0 455:0.0 456:0.0 457:0.0 458:0.0 459:1.0 460:1.0 461:1.0 462:1.0 463:1.0 464:1.0 465:1.0 466:1.0 467:1.0 468:1.0 469:0.0 470:0.0 471:0.0 472:0.0 473:0.0 474:0.0 475:0.0 476:0.0 477:0.0 478:0.0 479:0.0 480:0.0 481:0.0 482:0.0 483:1.0 484:1.0 485:1.0 486:1.0 487:1.0 488:1.0 489:1.0 490:1.0 491:1.0 492:1.0 493:0.0 494:0.0 495:0.0 496:0.0 497:0.0 498:0.0 499:0.0 500:0.0 501:0.0 502:0.0 503:0.0 504:0.0 505:0.0 506:0.0 507:1.0 508:1.0 509:1.0 510:1.0 511:1.0 512:1.0 513:1.0 514:1.0 515:1.0 516:1.0 517:0.0 518:0.0 519:0.0 520:0.0 521:0.0 522:0.0 523:0.0 524:0.0 525:0.0 526:0.0 527:0.0 528:0.0 529:0.0 530:0.0 531:1.0 532:1.0 533:1.0 534:1.0 535:1.0 536:1.0 537:1.0 538:1.0 539:1.0 540:1.0 541:0.0 542:0.0 543:0.0 544:0.0 545:0.0 546:0.0 547:0.0 548:0.0 549:0.0 550:0.0 551:0.0 552:0.0 553:0.0 554:0.0 555:1.0 556:1.0 557:1.0 558:1.0 559:1.0 560:1.0 561:1.0 562:1.0 563:1.0 564:1.0 565:0.0 566:0.0 567:0.0 568:0.0 569:0.0 570:0.0 571:0.0 572:0.0 573:0.0 574:0.0 575:0.0 576:0.0 
-0.0 0.002717178202106399 0.0 0.0 0.0 0.0 0.0 0.0 0.0 0.0 0.0 0.0 0.0 0.004153077508750962 0.0 0.0 0.005015475547149344 5.009168149153344E-4 0.0 0.0 0.0 0.0 0.0 0.006014923287363981 0.0 1.7042096677636985E-4 0.0 0.0 0.0 0.007317348530023419 1:0.0 2:0.0 3:0.0 4:0.0 5:0.0 6:0.0 7:0.0 8:0.0 9:0.0 10:0.0 11:0.0 12:0.0 13:0.0 14:0.0 15:0.0 16:0.0 17:0.0 18:0.0 19:0.0 20:0.0 21:0.0 22:1.0 23:1.0 24:1.0 25:0.0 26:0.0 27:0.0 28:0.0 29:0.0 30:0.0 31:0.0 32:0.0 33:0.0 34:0.0 35:0.0 36:0.0 37:0.0 38:0.0 39:0.0 40:0.0 41:0.0 42:0.0 43:0.0 44:0.0 45:0.0 46:1.0 47:1.0 48:1.0 49:0.0 50:0.0 51:0.0 52:0.0 53:0.0 54:0.0 55:0.0 56:0.0 57:0.0 58:0.0 59:0.0 60:0.0 61:0.0 62:0.0 63:0.0 64:0.0 65:0.0 66:0.0 67:0.0 68:0.0 69:0.0 70:1.0 71:1.0 72:1.0 73:0.0 74:0.0 75:0.0 76:0.0 77:0.0 78:0.0 79:0.0 80:0.0 81:0.0 82:0.0 83:0.0 84:0.0 85:0.0 86:0.0 87:0.0 88:0.0 89:0.0 90:0.0 91:0.0 92:0.0 93:0.0 94:1.0 95:1.0 96:1.0 97:0.0 98:0.0 99:1.0 100:1.0 101:0.0 102:0.0 103:0.0 104:0.0 105:0.0 106:0.0 107:0.0 108:0.0 109:0.0 110:0.0 111:0.0 112:0.0 113:0.0 114:0.0 115:0.0 116:0.0 117:0.0 118:1.0 119:1.0 120:1.0 121:0.0 122:0.0 123:1.0 124:1.0 125:0.0 126:0.0 127:0.0 128:0.0 129:0.0 130:0.0 131:0.0 132:0.0 133:0.0 134:0.0 135:0.0 136:0.0 137:0.0 138:0.0 139:0.0 140:0.0 141:0.0 142:1.0 143:1.0 144:1.0 145:0.0 146:0.0 147:1.0 148:1.0 149:0.0 150:0.0 151:0.0 152:0.0 153:0.0 154:0.0 155:0.0 156:0.0 157:0.0 158:0.0 159:0.0 160:0.0 161:0.0 162:0.0 163:0.0 164:0.0 165:0.0 166:1.0 167:1.0 168:1.0 169:0.0 170:0.0 171:1.0 172:1.0 173:0.0 174:0.0 175:0.0 176:0.0 177:0.0 178:0.0 179:0.0 180:0.0 181:0.0 182:0.0 183:0.0 184:0.0 185:0.0 186:0.0 187:0.0 188:0.0 189:0.0 190:1.0 191:1.0 192:1.0 193:0.0 194:0.0 195:1.0 196:1.0 197:0.0 198:0.0 199:0.0 200:1.0 201:1.0 202:1.0 203:1.0 204:1.0 205:1.0 206:1.0 207:1.0 208:1.0 209:1.0 210:1.0 211:1.0 212:1.0 213:1.0 214:1.0 215:1.0 216:1.0 217:0.0 218:0.0 219:1.0 220:1.0 221:0.0 222:0.0 223:0.0 224:1.0 225:1.0 226:1.0 227:1.0 228:1.0 229:1.0 230:1.0 231:1.0 232:1.0 233:1.0 234:1.0 235:1.0 236:1.0 237:1.0 238:1.0 239:1.0 240:1.0 241:0.0 242:0.0 243:1.0 244:1.0 245:0.0 246:0.0 247:0.0 248:1.0 249:1.0 250:1.0 251:1.0 252:1.0 253:1.0 254:1.0 255:1.0 256:1.0 257:1.0 258:1.0 259:1.0 260:1.0 261:1.0 262:1.0 263:1.0 264:1.0 265:0.0 266:0.0 267:1.0 268:1.0 269:0.0 270:0.0 271:0.0 272:1.0 273:1.0 274:1.0 275:1.0 276:1.0 277:1.0 278:1.0 279:1.0 280:1.0 281:1.0 282:1.0 283:1.0 284:1.0 285:1.0 286:1.0 287:1.0 288:1.0 289:0.0 290:0.0 291:1.0 292:1.0 293:1.0 294:1.0 295:1.0 296:1.0 297:1.0 298:1.0 299:1.0 300:1.0 301:1.0 302:1.0 303:1.0 304:1.0 305:1.0 306:1.0 307:1.0 308:1.0 309:1.0 310:1.0 311:1.0 312:1.0 313:0.0 314:0.0 315:1.0 316:1.0 317:1.0 318:1.0 319:1.0 320:1.0 321:1.0 322:1.0 323:1.0 324:1.0 325:1.0 326:1.0 327:1.0 328:1.0 329:1.0 330:1.0 331:1.0 332:1.0 333:1.0 334:1.0 335:1.0 336:1.0 337:0.0 338:0.0 339:1.0 340:1.0 341:1.0 342:1.0 343:1.0 344:1.0 345:1.0 346:1.0 347:1.0 348:1.0 349:1.0 350:1.0 351:1.0 352:1.0 353:1.0 354:1.0 355:1.0 356:1.0 357:1.0 358:1.0 359:1.0 360:1.0 361:0.0 362:0.0 363:1.0 364:1.0 365:1.0 366:1.0 367:1.0 368:1.0 369:1.0 370:1.0 371:1.0 372:1.0 373:1.0 374:1.0 375:1.0 376:1.0 377:1.0 378:1.0 379:1.0 380:1.0 381:1.0 382:1.0 383:1.0 384:1.0 385:1.0 386:1.0 387:1.0 388:1.0 389:1.0 390:1.0 391:1.0 392:0.0 393:0.0 394:0.0 395:0.0 396:0.0 397:0.0 398:0.0 399:0.0 400:0.0 401:0.0 402:0.0 403:0.0 404:0.0 405:0.0 406:1.0 407:1.0 408:1.0 409:1.0 410:1.0 411:1.0 412:1.0 413:1.0 414:1.0 415:1.0 416:0.0 417:0.0 418:0.0 419:0.0 420:0.0 421:0.0 422:0.0 423:0.0 424:0.0 425:0.0 426:0.0 427:0.0 428:0.0 429:0.0 430:1.0 431:1.0 432:1.0 433:1.0 434:1.0 435:1.0 436:1.0 437:1.0 438:1.0 439:1.0 440:0.0 441:0.0 442:0.0 443:0.0 444:0.0 445:0.0 446:0.0 447:0.0 448:0.0 449:0.0 450:0.0 451:0.0 452:0.0 453:0.0 454:1.0 455:1.0 456:1.0 457:1.0 458:1.0 459:1.0 460:1.0 461:1.0 462:1.0 463:1.0 464:0.0 465:0.0 466:0.0 467:0.0 468:0.0 469:0.0 470:0.0 471:0.0 472:0.0 473:0.0 474:0.0 475:0.0 476:0.0 477:0.0 478:1.0 479:1.0 480:1.0 481:0.0 482:0.0 483:0.0 484:0.0 485:0.0 486:0.0 487:0.0 488:0.0 489:0.0 490:0.0 491:0.0 492:0.0 493:0.0 494:0.0 495:0.0 496:0.0 497:0.0 498:0.0 499:0.0 500:0.0 501:0.0 502:1.0 503:1.0 504:1.0 505:0.0 506:0.0 507:0.0 508:0.0 509:0.0 510:0.0 511:0.0 512:0.0 513:0.0 514:0.0 515:0.0 516:0.0 517:0.0 518:0.0 519:0.0 520:0.0 521:0.0 522:0.0 523:0.0 524:0.0 525:0.0 526:1.0 527:1.0 528:1.0 529:0.0 530:0.0 531:0.0 532:0.0 533:0.0 534:0.0 535:0.0 536:0.0 537:0.0 538:0.0 539:0.0 540:0.0 541:0.0 542:0.0 543:0.0 544:0.0 545:0.0 546:0.0 547:0.0 548:0.0 549:0.0 550:1.0 551:1.0 552:1.0 553:0.0 554:0.0 555:0.0 556:0.0 557:0.0 558:0.0 559:0.0 560:0.0 561:0.0 562:0.0 563:0.0 564:0.0 565:0.0 566:0.0 567:0.0 568:0.0 569:0.0 570:0.0 571:0.0 572:0.0 573:0.0 574:1.0 575:1.0 576:1.0 
-0.0 0.0013569873379526655 8.139593573989055E-4 0.00570207267261197 0.0031805700173418738 0.004019324105447446 0.004659883433146248 0.0 0.004326030657600896 0.0033539677458550785 0.006772535678710891 0.006440140986827922 0.005322232299007013 0.008200604075981863 7.861798694060616E-4 0.003469764431258999 0.0021700223231826583 0.0036291197108198644 0.004355576299024155 0.005498886049998524 0.0044212770464616006 0.0010678911022502945 0.0028039697521679108 0.005648193025401412 8.806847412283922E-4 0.011288368957201235 0.0030373837438008623 0.014065235072226437 0.014000258964698796 0.01610631692511111 1:0.0 2:0.0 3:0.0 4:0.0 5:0.0 6:0.0 7:0.0 8:0.0 9:0.0 10:0.0 11:0.0 12:0.0 13:0.0 14:0.0 15:0.0 16:0.0 17:0.0 18:0.0 19:0.0 20:0.0 21:0.0 22:1.0 23:1.0 24:1.0 25:0.0 26:0.0 27:0.0 28:0.0 29:0.0 30:0.0 31:0.0 32:0.0 33:0.0 34:0.0 35:0.0 36:0.0 37:0.0 38:0.0 39:0.0 40:0.0 41:0.0 42:0.0 43:0.0 44:0.0 45:0.0 46:1.0 47:1.0 48:1.0 49:0.0 50:0.0 51:0.0 52:0.0 53:0.0 54:0.0 55:0.0 56:0.0 57:0.0 58:0.0 59:0.0 60:0.0 61:0.0 62:0.0 63:0.0 64:0.0 65:0.0 66:0.0 67:0.0 68:0.0 69:0.0 70:1.0 71:1.0 72:1.0 73:0.0 74:0.0 75:0.0 76:0.0 77:0.0 78:0.0 79:0.0 80:0.0 81:0.0 82:0.0 83:0.0 84:0.0 85:0.0 86:0.0 87:0.0 88:0.0 89:0.0 90:0.0 91:0.0 92:0.0 93:0.0 94:1.0 95:1.0 96:1.0 97:0.0 98:0.0 99:0.0 100:0.0 101:0.0 102:0.0 103:0.0 104:0.0 105:0.0 106:0.0 107:0.0 108:0.0 109:0.0 110:0.0 111:0.0 112:0.0 113:0.0 114:0.0 115:0.0 116:0.0 117:0.0 118:1.0 119:1.0 120:1.0 121:0.0 122:0.0 123:0.0 124:0.0 125:0.0 126:0.0 127:0.0 128:0.0 129:0.0 130:0.0 131:0.0 132:0.0 133:0.0 134:0.0 135:0.0 136:0.0 137:0.0 138:0.0 139:0.0 140:0.0 141:0.0 142:1.0 143:1.0 144:1.0 145:0.0 146:0.0 147:1.0 148:1.0 149:0.0 150:0.0 151:0.0 152:1.0 153:1.0 154:1.0 155:1.0 156:1.0 157:1.0 158:1.0 159:1.0 160:1.0 161:1.0 162:1.0 163:1.0 164:1.0 165:1.0 166:1.0 167:1.0 168:1.0 169:0.0 170:0.0 171:1.0 172:1.0 173:0.0 174:0.0 175:0.0 176:1.0 177:1.0 178:1.0 179:1.0 180:1.0 181:1.0 182:1.0 183:1.0 184:1.0 185:1.0 186:1.0 187:1.0 188:1.0 189:1.0 190:1.0 191:1.0 192:1.0 193:0.0 194:0.0 195:1.0 196:1.0 197:0.0 198:0.0 199:0.0 200:1.0 201:1.0 202:1.0 203:1.0 204:1.0 205:1.0 206:1.0 207:1.0 208:1.0 209:1.0 210:1.0 211:1.0 212:1.0 213:1.0 214:1.0 215:1.0 216:1.0 217:0.0 218:0.0 219:1.0 220:1.0 221:0.0 222:0.0 223:0.0 224:1.0 225:1.0 226:1.0 227:1.0 228:1.0 229:1.0 230:1.0 231:1.0 232:1.0 233:1.0 234:1.0 235:1.0 236:1.0 237:1.0 238:1.0 239:1.0 240:1.0 241:0.0 242:0.0 243:1.0 244:1.0 245:0.0 246:0.0 247:0.0 248:1.0 249:1.0 250:1.0 251:1.0 252:1.0 253:1.0 254:1.0 255:1.0 256:1.0 257:1.0 258:1.0 259:1.0 260:1.0 261:1.0 262:1.0 263:1.0 264:1.0 265:0.0 266:0.0 267:1.0 268:1.0 269:0.0 270:0.0 271:0.0 272:1.0 273:1.0 274:1.0 275:1.0 276:1.0 277:1.0 278:1.0 279:1.0 280:1.0 281:1.0 282:1.0 283:1.0 284:1.0 285:1.0 286:1.0 287:1.0 288:1.0 289:0.0 290:0.0 291:1.0 292:1.0 293:1.0 294:1.0 295:1.0 296:1.0 297:1.0 298:1.0 299:1.0 300:1.0 301:1.0 302:1.0 303:1.0 304:1.0 305:1.0 306:1.0 307:1.0 308:1.0 309:1.0 310:1.0 311:1.0 312:1.0 313:0.0 314:0.0 315:1.0 316:1.0 317:1.0 318:1.0 319:1.0 320:1.0 321:1.0 322:1.0 323:1.0 324:1.0 325:1.0 326:1.0 327:1.0 328:1.0 329:1.0 330:1.0 331:1.0 332:1.0 333:1.0 334:1.0 335:1.0 336:1.0 337:0.0 338:0.0 339:1.0 340:1.0 341:1.0 342:1.0 343:1.0 344:1.0 345:1.0 346:1.0 347:1.0 348:1.0 349:1.0 350:1.0 351:1.0 352:1.0 353:1.0 354:1.0 355:1.0 356:1.0 357:1.0 358:1.0 359:1.0 360:1.0 361:0.0 362:0.0 363:1.0 364:1.0 365:1.0 366:1.0 367:1.0 368:1.0 369:1.0 370:1.0 371:1.0 372:1.0 373:1.0 374:1.0 375:1.0 376:1.0 377:1.0 378:1.0 379:1.0 380:1.0 381:1.0 382:1.0 383:1.0 384:1.0 385:0.0 386:0.0 387:1.0 388:1.0 389:1.0 390:1.0 391:1.0 392:1.0 393:1.0 394:1.0 395:1.0 396:1.0 397:1.0 398:1.0 399:1.0 400:1.0 401:1.0 402:1.0 403:1.0 404:1.0 405:1.0 406:1.0 407:1.0 408:1.0 409:0.0 410:0.0 411:1.0 412:1.0 413:1.0 414:1.0 415:1.0 416:1.0 417:1.0 418:1.0 419:1.0 420:1.0 421:1.0 422:1.0 423:1.0 424:1.0 425:1.0 426:1.0 427:1.0 428:1.0 429:1.0 430:1.0 431:1.0 432:1.0 433:1.0 434:1.0 435:1.0 436:1.0 437:1.0 438:1.0 439:1.0 440:0.0 441:0.0 442:0.0 443:0.0 444:0.0 445:0.0 446:0.0 447:0.0 448:0.0 449:0.0 450:0.0 451:0.0 452:0.0 453:0.0 454:1.0 455:1.0 456:1.0 457:1.0 458:1.0 459:1.0 460:1.0 461:1.0 462:1.0 463:1.0 464:0.0 465:0.0 466:0.0 467:0.0 468:0.0 469:0.0 470:0.0 471:0.0 472:0.0 473:0.0 474:0.0 475:0.0 476:0.0 477:0.0 478:1.0 479:1.0 480:1.0 481:1.0 482:1.0 483:1.0 484:1.0 485:1.0 486:1.0 487:1.0 488:0.0 489:0.0 490:0.0 491:0.0 492:0.0 493:0.0 494:0.0 495:0.0 496:0.0 497:0.0 498:0.0 499:0.0 500:0.0 501:0.0 502:1.0 503:1.0 504:1.0 505:1.0 506:1.0 507:1.0 508:1.0 509:1.0 510:1.0 511:1.0 512:0.0 513:0.0 514:0.0 515:0.0 516:0.0 517:0.0 518:0.0 519:0.0 520:0.0 521:0.0 522:0.0 523:0.0 524:0.0 525:0.0 526:1.0 527:1.0 528:1.0 529:1.0 530:1.0 531:1.0 532:1.0 533:1.0 534:1.0 535:1.0 536:0.0 537:0.0 538:0.0 539:0.0 540:0.0 541:0.0 542:0.0 543:0.0 544:0.0 545:0.0 546:0.0 547:0.0 548:0.0 549:0.0 550:1.0 551:1.0 552:1.0 553:1.0 554:1.0 555:1.0 556:1.0 557:1.0 558:1.0 559:1.0 560:0.0 561:0.0 562:0.0 563:0.0 564:0.0 565:0.0 566:0.0 567:0.0 568:0.0 569:0.0 570:0.0 571:0.0 572:0.0 573:0.0 574:1.0 575:1.0 576:1.0 
-0.005467211590524213 0.006332586500630656 0.009171409810411278 0.005734291968190957 0.008649894311417147 0.008248760423579929 0.005564105738413026 8.678305461011567E-4 0.009086794409271806 0.0038240374748594245 0.011778297026064066 0.0068255286259233825 0.006920233842779566 0.015846830449582933 0.0015020493208832018 0.007062029333960702 0.18416879663008195 0.007772314658545929 0.005423018753367873 0.003662440268431127 0.006401668512458118 0.003742814845186354 0.006234941066190735 0.010640502223479186 0.00844339448474841 0.013714616960009505 0.008818145602744942 0.007268697285555934 0.010602935132503922 0.009751125059663081 1:0.0 2:0.0 3:0.0 4:0.0 5:0.0 6:0.0 7:0.0 8:0.0 9:0.0 10:1.0 11:0.0 12:0.0 13:1.0 14:0.0 15:0.0 16:0.0 17:0.0 18:0.0 19:0.0 20:0.0 21:0.0 22:0.0 23:0.0 24:0.0 25:0.0 26:1.0 27:0.0 28:0.0 29:0.0 30:1.0 31:0.0 32:0.0 33:0.0 34:0.0 35:0.0 36:0.0 37:1.0 38:0.0 39:1.0 40:1.0 41:1.0 42:1.0 43:1.0 44:0.0 45:0.0 46:1.0 47:0.0 48:0.0 49:0.0 50:0.0 51:0.0 52:0.0 53:0.0 54:1.0 55:0.0 56:0.0 57:0.0 58:0.0 59:0.0 60:0.0 61:0.0 62:0.0 63:0.0 64:0.0 65:1.0 66:0.0 
-0.0 0.0 0.004359889638030469 0.00308867716690617 0.004499329792528546 0.002142325550787394 0.0 0.0021940817050475807 0.001546672597050249 0.0 6.591053949348578E-4 0.0 0.0 0.0 0.0028880551506823768 0.0 7.565408910787177E-5 0.0 0.0 0.0 0.0 0.0028005731400645266 0.0 0.0 0.0 0.0 0.0 0.0 0.0 0.0 1:0.0 2:0.0 3:0.0 4:0.0 5:0.0 6:0.0 7:0.0 8:0.0 9:0.0 10:0.0 11:0.0 12:0.0 13:0.0 14:0.0 15:0.0 16:0.0 17:0.0 18:0.0 19:0.0 20:0.0 21:0.0 22:1.0 23:1.0 24:1.0 25:0.0 26:0.0 27:0.0 28:0.0 29:0.0 30:0.0 31:0.0 32:0.0 33:0.0 34:0.0 35:0.0 36:0.0 37:0.0 38:0.0 39:0.0 40:0.0 41:0.0 42:0.0 43:0.0 44:0.0 45:0.0 46:1.0 47:1.0 48:1.0 49:0.0 50:0.0 51:0.0 52:0.0 53:0.0 54:0.0 55:0.0 56:0.0 57:0.0 58:0.0 59:0.0 60:0.0 61:0.0 62:0.0 63:0.0 64:0.0 65:0.0 66:0.0 67:0.0 68:0.0 69:0.0 70:1.0 71:1.0 72:1.0 73:0.0 74:0.0 75:0.0 76:0.0 77:0.0 78:0.0 79:0.0 80:0.0 81:0.0 82:0.0 83:0.0 84:0.0 85:0.0 86:0.0 87:0.0 88:0.0 89:0.0 90:0.0 91:0.0 92:0.0 93:0.0 94:1.0 95:1.0 96:1.0 97:0.0 98:0.0 99:1.0 100:1.0 101:0.0 102:0.0 103:0.0 104:0.0 105:0.0 106:0.0 107:0.0 108:0.0 109:0.0 110:0.0 111:0.0 112:0.0 113:0.0 114:0.0 115:0.0 116:0.0 117:0.0 118:1.0 119:1.0 120:1.0 121:0.0 122:0.0 123:1.0 124:1.0 125:0.0 126:0.0 127:0.0 128:0.0 129:0.0 130:0.0 131:0.0 132:0.0 133:0.0 134:0.0 135:0.0 136:0.0 137:0.0 138:0.0 139:0.0 140:0.0 141:0.0 142:1.0 143:1.0 144:1.0 145:0.0 146:0.0 147:1.0 148:1.0 149:0.0 150:0.0 151:0.0 152:0.0 153:0.0 154:0.0 155:0.0 156:0.0 157:0.0 158:0.0 159:0.0 160:0.0 161:0.0 162:0.0 163:0.0 164:0.0 165:0.0 166:1.0 167:1.0 168:1.0 169:0.0 170:0.0 171:1.0 172:1.0 173:0.0 174:0.0 175:0.0 176:0.0 177:0.0 178:0.0 179:0.0 180:0.0 181:0.0 182:0.0 183:0.0 184:0.0 185:0.0 186:0.0 187:0.0 188:0.0 189:0.0 190:1.0 191:1.0 192:1.0 193:0.0 194:0.0 195:1.0 196:1.0 197:0.0 198:0.0 199:0.0 200:0.0 201:0.0 202:0.0 203:0.0 204:0.0 205:0.0 206:0.0 207:0.0 208:0.0 209:0.0 210:0.0 211:0.0 212:0.0 213:0.0 214:1.0 215:1.0 216:1.0 217:1.0 218:1.0 219:1.0 220:1.0 221:1.0 222:1.0 223:1.0 224:1.0 225:1.0 226:1.0 227:1.0 228:1.0 229:1.0 230:1.0 231:1.0 232:1.0 233:1.0 234:1.0 235:1.0 236:1.0 237:1.0 238:1.0 239:1.0 240:1.0 241:1.0 242:1.0 243:1.0 244:1.0 245:1.0 246:1.0 247:1.0 248:1.0 249:1.0 250:1.0 251:1.0 252:1.0 253:1.0 254:1.0 255:1.0 256:1.0 257:1.0 258:1.0 259:1.0 260:1.0 261:1.0 262:1.0 263:1.0 264:1.0 265:1.0 266:1.0 267:1.0 268:1.0 269:1.0 270:1.0 271:1.0 272:1.0 273:1.0 274:1.0 275:1.0 276:1.0 277:1.0 278:1.0 279:1.0 280:1.0 281:1.0 282:1.0 283:1.0 284:1.0 285:1.0 286:1.0 287:1.0 288:1.0 289:1.0 290:1.0 291:1.0 292:1.0 293:1.0 294:1.0 295:1.0 296:1.0 297:1.0 298:1.0 299:1.0 300:1.0 301:1.0 302:1.0 303:1.0 304:1.0 305:1.0 306:1.0 307:1.0 308:1.0 309:1.0 310:1.0 311:1.0 312:1.0 313:1.0 314:1.0 315:1.0 316:1.0 317:1.0 318:1.0 319:1.0 320:1.0 321:1.0 322:1.0 323:1.0 324:1.0 325:1.0 326:1.0 327:1.0 328:1.0 329:1.0 330:1.0 331:1.0 332:1.0 333:1.0 334:1.0 335:1.0 336:1.0 337:1.0 338:1.0 339:1.0 340:1.0 341:1.0 342:1.0 343:1.0 344:1.0 345:1.0 346:1.0 347:1.0 348:1.0 349:1.0 350:1.0 351:1.0 352:1.0 353:1.0 354:1.0 355:1.0 356:1.0 357:1.0 358:1.0 359:1.0 360:1.0 361:1.0 362:1.0 363:1.0 364:1.0 365:1.0 366:1.0 367:1.0 368:1.0 369:1.0 370:1.0 371:1.0 372:1.0 373:1.0 374:1.0 375:1.0 376:1.0 377:1.0 378:1.0 379:1.0 380:1.0 381:1.0 382:1.0 383:1.0 384:1.0 385:1.0 386:1.0 387:1.0 388:1.0 389:1.0 390:1.0 391:1.0 392:1.0 393:1.0 394:1.0 395:1.0 396:1.0 397:1.0 398:1.0 399:1.0 400:1.0 401:1.0 402:1.0 403:1.0 404:1.0 405:1.0 406:1.0 407:1.0 408:1.0 409:1.0 410:1.0 411:1.0 412:1.0 413:1.0 414:1.0 415:1.0 416:1.0 417:1.0 418:1.0 419:1.0 420:1.0 421:1.0 422:1.0 423:1.0 424:1.0 425:1.0 426:1.0 427:1.0 428:1.0 429:1.0 430:1.0 431:1.0 432:1.0 433:1.0 434:1.0 435:1.0 436:1.0 437:1.0 438:1.0 439:1.0 440:1.0 441:1.0 442:1.0 443:1.0 444:1.0 445:1.0 446:1.0 447:1.0 448:1.0 449:1.0 450:1.0 451:1.0 452:1.0 453:1.0 454:1.0 455:1.0 456:1.0 457:0.0 458:0.0 459:0.0 460:0.0 461:0.0 462:0.0 463:0.0 464:0.0 465:0.0 466:0.0 467:0.0 468:0.0 469:0.0 470:0.0 471:0.0 472:0.0 473:0.0 474:0.0 475:0.0 476:0.0 477:0.0 478:1.0 479:1.0 480:1.0 481:0.0 482:0.0 483:0.0 484:0.0 485:0.0 486:0.0 487:0.0 488:0.0 489:0.0 490:0.0 491:0.0 492:0.0 493:0.0 494:0.0 495:0.0 496:0.0 497:0.0 498:0.0 499:0.0 500:0.0 501:0.0 502:1.0 503:1.0 504:1.0 505:0.0 506:0.0 507:0.0 508:0.0 509:0.0 510:0.0 511:0.0 512:0.0 513:0.0 514:0.0 515:0.0 516:0.0 517:0.0 518:0.0 519:0.0 520:0.0 521:0.0 522:0.0 523:0.0 524:0.0 525:0.0 526:1.0 527:1.0 528:1.0 529:0.0 530:0.0 531:0.0 532:0.0 533:0.0 534:0.0 535:0.0 536:0.0 537:0.0 538:0.0 539:0.0 540:0.0 541:0.0 542:0.0 543:0.0 544:0.0 545:0.0 546:0.0 547:0.0 548:0.0 549:0.0 550:1.0 551:1.0 552:1.0 553:0.0 554:0.0 555:0.0 556:0.0 557:0.0 558:0.0 559:0.0 560:0.0 561:0.0 562:0.0 563:0.0 564:0.0 565:0.0 566:0.0 567:0.0 568:0.0 569:0.0 570:0.0 571:0.0 572:0.0 573:0.0 574:1.0 575:1.0 576:1.0 
-0.0016325461938501453 0.003408736115407753 0.003238466703333168 0.0035550021738603842 0.0034801555952074527 0.0016074450865459819 0.005725078518190902 0.001559647366699605 0.011058454759453213 0.003931862350994554 0.0 0.0021820011943185337 0.0032700599288755256 0.009650369711678113 0.0022289011485060223 0.0032915357965752137 0.017674083508026142 0.003464164384590146 4.907458194658952E-4 0.004512168938847505 0.005574071394810456 0.0022874424124792255 0.0034139173243992226 0.009051355133559296 0.0 0.0036237839361375557 0.004873503173751478 0.013910692058130605 0.006136789356322618 0.006102891939557548 1:0.0 2:0.0 3:0.0 4:0.0 5:0.0 6:0.0 7:0.0 8:0.0 9:0.0 10:0.0 11:0.0 12:0.0 13:0.0 14:0.0 15:0.0 16:0.0 17:0.0 18:0.0 19:0.0 20:1.0 21:1.0 22:1.0 23:1.0 24:1.0 25:0.0 26:0.0 27:0.0 28:0.0 29:0.0 30:0.0 31:0.0 32:0.0 33:0.0 34:0.0 35:0.0 36:0.0 37:0.0 38:0.0 39:0.0 40:0.0 41:0.0 42:0.0 43:0.0 44:1.0 45:1.0 46:1.0 47:1.0 48:1.0 49:0.0 50:0.0 51:0.0 52:0.0 53:0.0 54:0.0 55:0.0 56:0.0 57:0.0 58:0.0 59:0.0 60:0.0 61:0.0 62:0.0 63:0.0 64:0.0 65:0.0 66:0.0 67:0.0 68:1.0 69:1.0 70:1.0 71:1.0 72:1.0 73:0.0 74:0.0 75:0.0 76:0.0 77:0.0 78:0.0 79:0.0 80:0.0 81:0.0 82:0.0 83:0.0 84:0.0 85:0.0 86:0.0 87:0.0 88:0.0 89:0.0 90:0.0 91:0.0 92:1.0 93:1.0 94:1.0 95:1.0 96:1.0 97:0.0 98:0.0 99:1.0 100:1.0 101:0.0 102:0.0 103:0.0 104:0.0 105:0.0 106:0.0 107:0.0 108:0.0 109:0.0 110:0.0 111:0.0 112:0.0 113:0.0 114:0.0 115:0.0 116:1.0 117:1.0 118:0.0 119:0.0 120:0.0 121:0.0 122:0.0 123:1.0 124:1.0 125:0.0 126:0.0 127:0.0 128:0.0 129:0.0 130:0.0 131:0.0 132:0.0 133:0.0 134:0.0 135:0.0 136:0.0 137:0.0 138:0.0 139:0.0 140:1.0 141:1.0 142:0.0 143:0.0 144:0.0 145:0.0 146:0.0 147:1.0 148:1.0 149:0.0 150:0.0 151:0.0 152:0.0 153:0.0 154:0.0 155:0.0 156:0.0 157:0.0 158:0.0 159:0.0 160:0.0 161:0.0 162:0.0 163:0.0 164:1.0 165:1.0 166:0.0 167:0.0 168:0.0 169:0.0 170:0.0 171:1.0 172:1.0 173:0.0 174:0.0 175:0.0 176:0.0 177:0.0 178:0.0 179:0.0 180:0.0 181:0.0 182:0.0 183:0.0 184:0.0 185:0.0 186:0.0 187:0.0 188:1.0 189:1.0 190:0.0 191:0.0 192:0.0 193:0.0 194:0.0 195:1.0 196:1.0 197:0.0 198:0.0 199:0.0 200:0.0 201:0.0 202:0.0 203:0.0 204:0.0 205:0.0 206:0.0 207:0.0 208:0.0 209:0.0 210:0.0 211:0.0 212:1.0 213:1.0 214:0.0 215:0.0 216:0.0 217:1.0 218:1.0 219:1.0 220:1.0 221:1.0 222:1.0 223:1.0 224:1.0 225:1.0 226:1.0 227:1.0 228:1.0 229:1.0 230:1.0 231:1.0 232:1.0 233:1.0 234:1.0 235:1.0 236:1.0 237:1.0 238:0.0 239:0.0 240:0.0 241:1.0 242:1.0 243:1.0 244:1.0 245:1.0 246:1.0 247:1.0 248:1.0 249:1.0 250:1.0 251:1.0 252:1.0 253:1.0 254:1.0 255:1.0 256:1.0 257:1.0 258:1.0 259:1.0 260:1.0 261:1.0 262:0.0 263:0.0 264:0.0 265:1.0 266:1.0 267:1.0 268:1.0 269:1.0 270:1.0 271:1.0 272:1.0 273:1.0 274:1.0 275:1.0 276:1.0 277:1.0 278:1.0 279:1.0 280:1.0 281:1.0 282:1.0 283:1.0 284:1.0 285:1.0 286:0.0 287:0.0 288:0.0 289:1.0 290:1.0 291:1.0 292:1.0 293:1.0 294:1.0 295:1.0 296:1.0 297:1.0 298:1.0 299:1.0 300:1.0 301:1.0 302:1.0 303:1.0 304:1.0 305:1.0 306:1.0 307:1.0 308:1.0 309:1.0 310:0.0 311:0.0 312:0.0 313:1.0 314:1.0 315:1.0 316:1.0 317:1.0 318:1.0 319:1.0 320:1.0 321:1.0 322:1.0 323:1.0 324:1.0 325:1.0 326:1.0 327:1.0 328:1.0 329:1.0 330:1.0 331:1.0 332:1.0 333:1.0 334:0.0 335:0.0 336:0.0 337:1.0 338:1.0 339:1.0 340:1.0 341:1.0 342:1.0 343:1.0 344:1.0 345:1.0 346:1.0 347:1.0 348:1.0 349:1.0 350:1.0 351:1.0 352:1.0 353:1.0 354:1.0 355:1.0 356:1.0 357:1.0 358:0.0 359:0.0 360:0.0 361:1.0 362:1.0 363:1.0 364:1.0 365:1.0 366:1.0 367:1.0 368:1.0 369:1.0 370:1.0 371:1.0 372:1.0 373:1.0 374:1.0 375:1.0 376:1.0 377:1.0 378:1.0 379:1.0 380:1.0 381:1.0 382:0.0 383:0.0 384:0.0 385:1.0 386:1.0 387:1.0 388:1.0 389:1.0 390:1.0 391:1.0 392:1.0 393:1.0 394:1.0 395:1.0 396:1.0 397:1.0 398:1.0 399:1.0 400:1.0 401:1.0 402:1.0 403:1.0 404:1.0 405:1.0 406:0.0 407:0.0 408:0.0 409:1.0 410:1.0 411:1.0 412:1.0 413:1.0 414:1.0 415:1.0 416:1.0 417:1.0 418:1.0 419:1.0 420:1.0 421:1.0 422:1.0 423:1.0 424:1.0 425:1.0 426:1.0 427:1.0 428:1.0 429:1.0 430:0.0 431:0.0 432:0.0 433:1.0 434:1.0 435:1.0 436:1.0 437:1.0 438:1.0 439:1.0 440:1.0 441:1.0 442:1.0 443:1.0 444:1.0 445:1.0 446:1.0 447:1.0 448:1.0 449:1.0 450:1.0 451:1.0 452:1.0 453:1.0 454:0.0 455:0.0 456:0.0 457:0.0 458:0.0 459:0.0 460:0.0 461:0.0 462:0.0 463:0.0 464:0.0 465:0.0 466:0.0 467:0.0 468:0.0 469:0.0 470:0.0 471:0.0 472:0.0 473:0.0 474:0.0 475:0.0 476:1.0 477:1.0 478:0.0 479:0.0 480:0.0 481:0.0 482:0.0 483:0.0 484:0.0 485:0.0 486:0.0 487:0.0 488:0.0 489:0.0 490:0.0 491:0.0 492:0.0 493:0.0 494:0.0 495:0.0 496:0.0 497:0.0 498:0.0 499:0.0 500:1.0 501:1.0 502:0.0 503:0.0 504:0.0 505:0.0 506:0.0 507:0.0 508:0.0 509:0.0 510:0.0 511:0.0 512:0.0 513:0.0 514:0.0 515:0.0 516:0.0 517:0.0 518:0.0 519:0.0 520:0.0 521:0.0 522:0.0 523:0.0 524:1.0 525:1.0 526:0.0 527:0.0 528:0.0 529:0.0 530:0.0 531:0.0 532:0.0 533:0.0 534:0.0 535:0.0 536:0.0 537:0.0 538:0.0 539:0.0 540:0.0 541:0.0 542:0.0 543:0.0 544:0.0 545:0.0 546:0.0 547:0.0 548:1.0 549:1.0 550:0.0 551:0.0 552:0.0 553:0.0 554:0.0 555:0.0 556:0.0 557:0.0 558:0.0 559:0.0 560:0.0 561:0.0 562:0.0 563:0.0 564:0.0 565:0.0 566:0.0 567:0.0 568:0.0 569:0.0 570:0.0 571:0.0 572:1.0 573:1.0 574:0.0 575:0.0 576:0.0 
-0.0026186008757679655 -0.007822465026961893 0.004858607019190063 0.0026691779235327043 0.004931715975298284 0.004057745107839963 0.011842363699550686 0.005206445209612015 0.0029930179903656143 0.005440408967844355 0.004299357110566511 0.002332887569865918 0.00479159464378577 0.005004789554798031 0.005424878942996801 0.0037550166615226265 0.002831618294612878 0.005352425257967356 0.004846636376343488 0.004767218607830449 0.003945201965416874 0.0037011389563957574 0.005301863293150213 0.0047990062847767054 0.003420050013594702 0.006003847879865406 0.004086649723915998 0.0059705189556214485 0.008023339545579662 0.006402237718905981 1:0.0 2:0.0 3:0.0 4:0.0 5:1.0 6:1.0 7:0.0 8:0.0 9:0.0 10:0.0 11:0.0 12:0.0 13:0.0 14:0.0 15:0.0 16:0.0 17:0.0 18:0.0 19:0.0 20:1.0 21:1.0 22:1.0 23:1.0 24:1.0 25:0.0 26:0.0 27:0.0 28:0.0 29:1.0 30:1.0 31:0.0 32:0.0 33:0.0 34:0.0 35:0.0 36:0.0 37:0.0 38:0.0 39:0.0 40:0.0 41:0.0 42:0.0 43:0.0 44:1.0 45:1.0 46:1.0 47:1.0 48:1.0 49:0.0 50:0.0 51:0.0 52:0.0 53:1.0 54:1.0 55:0.0 56:0.0 57:0.0 58:0.0 59:0.0 60:0.0 61:0.0 62:0.0 63:0.0 64:0.0 65:0.0 66:0.0 67:0.0 68:1.0 69:1.0 70:1.0 71:1.0 72:1.0 73:0.0 74:0.0 75:1.0 76:1.0 77:0.0 78:0.0 79:1.0 80:1.0 81:0.0 82:0.0 83:0.0 84:0.0 85:0.0 86:0.0 87:0.0 88:0.0 89:0.0 90:1.0 91:1.0 92:1.0 93:1.0 94:1.0 95:1.0 96:1.0 97:0.0 98:0.0 99:1.0 100:1.0 101:0.0 102:0.0 103:1.0 104:1.0 105:0.0 106:0.0 107:0.0 108:0.0 109:0.0 110:0.0 111:0.0 112:0.0 113:0.0 114:1.0 115:1.0 116:1.0 117:1.0 118:1.0 119:1.0 120:1.0 121:0.0 122:0.0 123:1.0 124:1.0 125:0.0 126:0.0 127:1.0 128:1.0 129:0.0 130:0.0 131:0.0 132:0.0 133:0.0 134:0.0 135:0.0 136:0.0 137:0.0 138:1.0 139:1.0 140:1.0 141:1.0 142:1.0 143:1.0 144:1.0 145:1.0 146:1.0 147:1.0 148:1.0 149:0.0 150:0.0 151:0.0 152:0.0 153:0.0 154:0.0 155:0.0 156:0.0 157:0.0 158:0.0 159:0.0 160:1.0 161:1.0 162:1.0 163:1.0 164:0.0 165:0.0 166:1.0 167:1.0 168:1.0 169:1.0 170:1.0 171:1.0 172:1.0 173:0.0 174:0.0 175:0.0 176:0.0 177:0.0 178:0.0 179:0.0 180:0.0 181:0.0 182:0.0 183:0.0 184:1.0 185:1.0 186:1.0 187:1.0 188:0.0 189:0.0 190:1.0 191:1.0 192:1.0 193:1.0 194:1.0 195:1.0 196:1.0 197:0.0 198:0.0 199:0.0 200:0.0 201:0.0 202:0.0 203:0.0 204:0.0 205:0.0 206:0.0 207:0.0 208:1.0 209:1.0 210:1.0 211:1.0 212:0.0 213:0.0 214:1.0 215:1.0 216:1.0 217:0.0 218:0.0 219:1.0 220:1.0 221:0.0 222:0.0 223:0.0 224:0.0 225:0.0 226:0.0 227:0.0 228:0.0 229:0.0 230:1.0 231:1.0 232:1.0 233:1.0 234:0.0 235:0.0 236:0.0 237:0.0 238:1.0 239:1.0 240:1.0 241:0.0 242:0.0 243:1.0 244:1.0 245:0.0 246:0.0 247:0.0 248:0.0 249:0.0 250:0.0 251:0.0 252:0.0 253:0.0 254:1.0 255:1.0 256:1.0 257:1.0 258:0.0 259:0.0 260:0.0 261:0.0 262:1.0 263:1.0 264:1.0 265:0.0 266:0.0 267:1.0 268:1.0 269:0.0 270:0.0 271:0.0 272:0.0 273:0.0 274:0.0 275:0.0 276:0.0 277:0.0 278:1.0 279:1.0 280:1.0 281:1.0 282:0.0 283:0.0 284:0.0 285:0.0 286:1.0 287:1.0 288:1.0 289:0.0 290:0.0 291:1.0 292:1.0 293:0.0 294:0.0 295:0.0 296:0.0 297:0.0 298:0.0 299:1.0 300:1.0 301:1.0 302:1.0 303:1.0 304:0.0 305:0.0 306:0.0 307:0.0 308:0.0 309:0.0 310:1.0 311:1.0 312:1.0 313:0.0 314:0.0 315:1.0 316:1.0 317:0.0 318:0.0 319:0.0 320:0.0 321:0.0 322:0.0 323:1.0 324:1.0 325:1.0 326:1.0 327:1.0 328:0.0 329:0.0 330:0.0 331:0.0 332:0.0 333:0.0 334:1.0 335:1.0 336:1.0 337:0.0 338:0.0 339:1.0 340:1.0 341:0.0 342:0.0 343:0.0 344:0.0 345:0.0 346:0.0 347:1.0 348:1.0 349:1.0 350:1.0 351:1.0 352:0.0 353:0.0 354:0.0 355:0.0 356:0.0 357:0.0 358:1.0 359:1.0 360:1.0 361:0.0 362:0.0 363:1.0 364:1.0 365:1.0 366:1.0 367:1.0 368:1.0 369:1.0 370:1.0 371:1.0 372:1.0 373:1.0 374:0.0 375:0.0 376:0.0 377:0.0 378:0.0 379:0.0 380:0.0 381:0.0 382:1.0 383:1.0 384:1.0 385:0.0 386:0.0 387:1.0 388:1.0 389:1.0 390:1.0 391:1.0 392:1.0 393:1.0 394:1.0 395:1.0 396:1.0 397:1.0 398:0.0 399:0.0 400:0.0 401:0.0 402:0.0 403:0.0 404:0.0 405:0.0 406:1.0 407:1.0 408:1.0 409:0.0 410:0.0 411:1.0 412:1.0 413:1.0 414:1.0 415:1.0 416:1.0 417:1.0 418:1.0 419:1.0 420:1.0 421:1.0 422:0.0 423:0.0 424:0.0 425:0.0 426:0.0 427:0.0 428:0.0 429:0.0 430:1.0 431:1.0 432:1.0 433:0.0 434:0.0 435:0.0 436:0.0 437:1.0 438:1.0 439:1.0 440:1.0 441:1.0 442:1.0 443:0.0 444:0.0 445:0.0 446:0.0 447:0.0 448:0.0 449:0.0 450:0.0 451:0.0 452:0.0 453:0.0 454:1.0 455:1.0 456:1.0 457:0.0 458:0.0 459:0.0 460:0.0 461:1.0 462:1.0 463:1.0 464:1.0 465:1.0 466:1.0 467:0.0 468:0.0 469:0.0 470:0.0 471:0.0 472:0.0 473:0.0 474:0.0 475:0.0 476:0.0 477:0.0 478:1.0 479:1.0 480:1.0 481:0.0 482:0.0 483:0.0 484:0.0 485:1.0 486:1.0 487:1.0 488:1.0 489:1.0 490:1.0 491:0.0 492:0.0 493:0.0 494:0.0 495:0.0 496:0.0 497:0.0 498:0.0 499:0.0 500:0.0 501:0.0 502:1.0 503:1.0 504:1.0 505:0.0 506:0.0 507:0.0 508:0.0 509:1.0 510:1.0 511:0.0 512:0.0 513:0.0 514:0.0 515:0.0 516:0.0 517:0.0 518:0.0 519:0.0 520:0.0 521:0.0 522:0.0 523:0.0 524:0.0 525:0.0 526:0.0 527:0.0 528:0.0 529:0.0 530:0.0 531:0.0 532:0.0 533:1.0 534:1.0 535:0.0 536:0.0 537:0.0 538:0.0 539:0.0 540:0.0 541:0.0 542:0.0 543:0.0 544:0.0 545:0.0 546:0.0 547:0.0 548:0.0 549:0.0 550:0.0 551:0.0 552:0.0 553:0.0 554:0.0 555:0.0 556:0.0 557:1.0 558:1.0 559:0.0 560:0.0 561:0.0 562:0.0 563:0.0 564:0.0 565:0.0 566:0.0 567:0.0 568:0.0 569:0.0 570:0.0 571:0.0 572:0.0 573:0.0 574:0.0 575:0.0 576:0.0 
