svm_type c_svc
kernel_type linear
nr_class 29
total_sv 173
rho 0.9500123757595916 0.7553831720809553 0.077237750183832 1.0107833944331737 0.3206309213981502 0.7070275162718889 0.018181818181818077 0.6347858988288771 -0.11111111111111116 0.3275875835377929 0.12 -0.15300546448087443 0.7815437659626427 0.47257655048830294 0.1845017187983286 0.32076244400451903 0.13725490196078421 0.18964901028534428 0.13366708453641418 0.0 0.33747844345982025 0.32994348777468685 0.4959349593495934 0.4912484391266916 -0.15068493150684925 0.7299848337845297 0.6330334232034428 -0.07450980392156858 -0.2962013505561079 -0.6748850332423266 0.17706927263031197 -0.4005849229039669 -0.27466805851583703 -0.6798257120492662 -0.5463085226877443 -0.8875047197445702 -0.1822832483023143 -0.5902034683587617 -1.0891435945053118 0.30006224793009095 -0.4209939415455089 -0.5244507548285857 -0.34251538780012947 -0.3998940707139342 -0.6919864650913499 -0.3821162949720568 -0.7608172935903013 -0.5915151160737104 -0.585176523277894 -0.2369205390889785 -0.028693186693260504 -0.7193834855096224 -0.27912065060722446 0.10096778964167435 -1.4372475967899085 -0.6350459074277272 0.7764136743283795 -0.2513426302689991 0.12216291864114237 -0.5922920925360824 -0.3119070497569449 -0.8184225186689646 0.06135494091881319 -0.4958977475139889 -0.6369755186859208 0.3781747924717671 -0.30005229851689846 -0.5647781427942766 -0.2611745476292265 -0.20240512716532696 -0.8224591959101503 -0.32005216176680584 -0.46914596277222975 -0.3890308395530167 -0.7262311033217442 -0.025193365577035224 0.08768605542511378 -0.566379327389696 0.012626890766850528 0.22850794940833638 -0.7000251901518485 0.8762350082840492 0.3928128701603352 0.5806962183797367 -0.04630495107611801 0.8818269135117451 -0.14971062633776627 0.41675828933875514 0.08730057774395115 -0.18432300847808425 0.7682981078280076 0.5168860657512658 0.16882954432851036 0.30957219612098724 0.10892961173537354 0.14902442484555856 0.1117465263004321 -0.024073396436929972 0.31824453144502035 0.3646717721236154 0.39187725266878093 0.48683599807337297 -0.23265055231891427 0.6270364876134911 0.571561238689695 -0.10462796580543275 -0.953366777854324 -0.21860213042881343 -1.213531945962616 -0.8202813773828475 -1.514501120717885 -0.34628697327659547 -0.8321093076646129 -1.0752423873157657 -0.012122740872459743 -1.0282303232298222 -1.17636334968569 -0.9036289461045007 -0.6733126086447786 -1.1720726329565427 -0.9294162138302985 -1.0189569302058472 -1.076890908250842 -1.0999311138458072 -0.3217168516375369 -0.29792807473970634 -1.123470261066624 -0.5640361426924642 -0.15031953357170033 -0.9287385815294691 0.31254056726060625 -0.4180128965262706 0.07513361909427947 -0.7839584734264197 0.7904050183282234 -0.3158924827092773 -0.8121370307069784 1.3284186103587312 0.11678528148043896 -0.18694420407385867 -0.06572816817778611 -0.14597977745135274 -0.2934509038573892 -0.21069049167492637 -0.5504959093957257 -0.08608344656439133 0.231167658434633 0.09683546326486546 0.2690778667920667 -0.5835521765762312 0.22329767069382564 0.38699893312620315 -0.41039339499363037 -0.5848383359345594 -0.3255244568707036 -0.7015508172946718 -0.21141301101211996 -0.33184568352035254 -1.020667624569884 0.39153394894916616 -0.27188435362399926 -0.37463565196122867 -0.18397095989328743 -0.35498291798678117 -0.5514662355330806 -0.36433043641117446 -0.5621892407901925 -0.43194841652862404 -0.19613151006562138 -0.3143158747056728 -0.06092960184015867 -0.7253515393226809 -0.14749858888488102 0.13434352653165443 -1.2579771219920497 0.3440329928912023 -0.179245283018868 0.527013232357822 0.11188811188811187 -0.2777777777777777 0.9685274950665074 1.0767926356795672 0.293920321359672 0.42987389795735076 0.20136518771331058 0.20885402379093482 0.14478114478114484 -0.024390243902439046 0.5814292407360333 0.30714062371727857 0.30729166666666663 0.653742814095253 -0.17142857142857149 0.4734745225018252 0.7036295503471615 -0.06515580736543919 -0.4819807924625302 0.16818879714776955 -0.25604298833571537 -0.47912631199740113 0.6136804112491173 0.2357244446354948 -0.24142956402086396 -0.11335703891637809 -0.08461234606240313 -0.45450471523278785 -0.29332534229373175 -0.21924545442301566 -0.04044373050109983 0.04047257637072422 0.04600014117279071 0.2617197682717888 -0.6766429186708816 0.17505029039999817 0.35094452874153254 -0.41296481419944164 0.7803917853908576 0.3333333333333335 -0.10476190476190483 1.2756122735416429 0.6459513644960345 0.6524224154580164 0.738647971303119 0.42358078602620086 0.363114132624988 0.3075082974366215 0.21411271266540685 0.5835930582979584 0.9847751765117158 0.3979591836734694 0.6552267050396302 -0.03649635036496357 0.6651901276669815 0.7626222534339345 0.053380782918149405 -0.40250987546268535 -1.143443140504977 1.0173090214031504 -0.6800520740225084 -0.5233936616827205 -0.2464665917990696 -0.5589569083367774 -0.3814419718559235 -0.2918518607494294 -1.0011582519355366 -0.3545296606805226 -0.4133882668044769 -0.051878437098095864 0.10846246214137527 -0.6832670438927019 0.013903126893227253 0.25168694548120046 -0.4526079036272363 -0.35114503816793885 0.7263728645924782 0.33690592412477116 0.1783367203896761 0.27766569770000854 0.11111111111111116 0.03912391412033539 0.06826272694909218 -0.1293538411458335 0.1688159969638497 0.4301459894956339 0.20975609756097557 0.3969645491718451 -0.24691358024691357 0.35376218436129303 0.4761245054267456 -0.20446096654275103 2.009911862645373 1.1033338457954216 0.7779569577047545 0.764488872744588 0.5639810426540286 0.486565624018746 0.3053759155636526 0.4047619047619049 0.7494178603577623 1.556311556933488 0.4611398963730571 0.8391645807501571 0.03529411764705892 0.5168262438157387 0.9212938726211419 0.13653136531365306 -1.0773926521562296 -1.0178313017841025 -0.9238101310734379 -0.8382671317394556 -1.154991766958265 -0.932674486418258 -0.9536064008055367 -0.7455282414323464 -1.7210052387241697 -0.5212544341762424 -0.39645830140607974 -1.1151684453522734 -0.5089288585222458 -0.27304277889248196 -1.100946569578496 -0.42864049344320293 -0.08421842467269758 -0.05261776853220065 -0.7359158874342228 -0.2507397467887114 -1.1498495421320287 -0.3054225843061397 -0.1928468371563361 0.01924828797047485 0.27010436173753233 -0.6238183344373833 0.0491285027645844 0.3892226881943525 -0.43243715863456056 -0.019702382209657962 0.1812485415483133 -0.3533873453344862 -0.1699195465574791 -0.4228357883298557 0.16256963622458048 0.27349514037510253 0.20562816119517152 0.4294694689931089 -0.5268286313724085 0.3939259213545014 0.5494920620458545 -0.3187431765985732 -0.24284698318374387 -0.41447105865501244 -0.11416765919770026 -0.4755380225336954 -0.1424809155310572 -0.01781812281674969 0.11719662856530762 0.31994202061708016 -0.8054183649826828 0.3512616141992462 0.49078252695737895 -0.5128942365457361 -0.18305457144748402 -0.030010524228021317 -0.2727272727272727 0.038676813968717874 0.4670828828610794 0.1532467532467533 0.4422924568517571 -0.47136563876651993 0.1394626358372161 0.5283288272830517 -0.25786163522012584 0.33166716543255054 -0.14982383817751102 0.19445298592630977 0.6202791800267573 0.29689090489803727 0.5602415619280698 -0.3060137747716389 0.7240474388155798 0.8195648564207989 -0.23049584036135565 -0.18289867599932533 0.055451494069498244 0.3214174333325128 0.2269048019092261 0.39995601109330037 -0.4171145397686113 0.5063076764538844 0.5814672698684534 -0.17206138093479453 0.4799546186747693 0.7303259738770966 0.25813273293493816 0.4966174800649955 -0.15492957746478875 0.4156710940860513 0.552305605468427 -0.08759483246304221 0.05439574613582603 0.16030186409987868 0.45359614986784424 -0.5307499335598136 0.23751897364811625 0.5046296914678404 -0.3307413700649435 0.04020145904820025 0.32946255480885495 -0.658939266023602 0.1972639650173136 0.4360339790174844 -0.574369894638436 0.11012972878578478 -0.49112426035502965 0.02219956173431473 0.2548041767006765 -0.6051502145922747 -0.8459833334528157 -0.3356534382753554 0.5683336742587544 -0.7030966056811241 0.8795375260654662 1.0036362231613143 0.08771929824561409 0.6462944051402324 -0.7186140636556201 -0.9179345206010835
label 1 2 3 4 5 6 7 9 10 11 12 13 14 15 16 17 20 21 22 23 24 26 27 29 31 32 33 34 35
nr_sv 1 10 4 4 15 7 11 1 8 1 8 1 1 19 9 12 7 1 6 2 2 5 15 2 7 1 6 6 1
SV
0.011530856629128937 0.01188415859480401 0.016936841338272265 0.010573956978601836 0.007517439964224109 0.010424839235799897 0.00909090909090909 0.013163027644290597 0.006535947712418301 0.005600927690303298 0.006666666666666667 0.00546448087431694 0.00888844472097471 0.009657379145957556 0.007418494420521447 0.0070569993075529 0.004357298474945534 0.01075886237515417 0.006369756548053335 0.00625 0.009702528301156647 0.00904678126352749 0.008130081300813009 0.0066885256109257855 0.00684931506849315 0.01152806366084327 0.007736491751160118 0.00784313725490196 1:0.0 2:0.0 3:1.0 4:1.0 5:1.0 6:0.0 7:0.0 8:0.0 9:0.0 10:0.0 11:0.0 12:0.0 13:0.0 14:0.0 15:0.0 16:0.0 17:0.0 18:0.0 19:0.0 20:0.0 21:0.0 22:0.0 23:0.0 24:0.0 25:0.0 26:0.0 27:1.0 28:1.0 29:1.0 30:0.0 31:0.0 32:0.0 33:0.0 34:0.0 35:0.0 36:0.0 37:0.0 38:0.0 39:0.0 40:0.0 41:0.0 42:0.0 43:0.0 44:0.0 45:0.0 46:0.0 47:0.0 48:0.0 49:0.0 50:0.0 51:1.0 52:1.0 53:1.0 54:0.0 55:0.0 56:0.0 57:0.0 58:0.0 59:0.0 60:0.0 61:0.0 62:0.0 63:0.0 64:0.0 65:0.0 66:0.0 67:0.0 68:0.0 69:0.0 70:0.0 71:0.0 72:0.0 73:0.0 74:0.0 75:1.0 76:1.0 77:1.0 78:0.0 79:0.0 80:0.0 81:0.0 82:0.0 83:0.0 84:0.0 85:0.0 86:0.0 87:0.0 88:0.0 89:0.0 90:0.0 91:0.0 92:0.0 93:0.0 94:0.0 95:0.0 96:0.0 97:0.0 98:0.0 99:1.0 100:1.0 101:1.0 102:0.0 103:0.0 104:0.0 105:0.0 106:0.0 107:0.0 108:0.0 109:0.0 110:0.0 111:0.0 112:0.0 113:0.0 114:0.0 115:0.0 116:0.0 117:0.0 118:0.0 119:0.0 120:0.0 121:0.0 122:0.0 123:1.0 124:1.0 125:1.0 126:0.0 127:0.0 128:0.0 129:0.0 130:0.0 131:0.0 132:0.0 133:0.0 134:0.0 135:0.0 136:0.0 137:0.0 138:0.0 139:0.0 140:0.0 141:0.0 142:0.0 143:0.0 144:0.0 145:0.0 146:0.0 147:1.0 148:1.0 149:1.0 150:0.0 151:0.0 152:0.0 153:0.0 154:0.0 155:0.0 156:0.0 157:0.0 158:0.0 159:0.0 160:0.0 161:0.0 162:0.0 163:0.0 164:0.0 165:0.0 166:0.0 167:0.0 168:0.0 169:0.0 170:0.0 171:1.0 172:1.0 173:1.0 174:0.0 175:0.0 176:0.0 177:0.0 178:0.0 179:0.0 180:0.0 181:0.0 182:0.0 183:0.0 184:0.0 185:0.0 186:0.0 187:0.0 188:0.0 189:0.0 190:0.0 191:0.0 192:0.0 193:0.0 194:0.0 195:1.0 196:1.0 197:1.0 198:0.0 199:0.0 200:0.0 201:0.0 202:0.0 203:0.0 204:0.0 205:0.0 206:0.0 207:0.0 208:0.0 209:0.0 210:0.0 211:0.0 212:0.0 213:0.0 214:0.0 215:0.0 216:0.0 217:0.0 218:0.0 219:1.0 220:1.0 221:1.0 222:0.0 223:0.0 224:0.0 225:0.0 226:0.0 227:0.0 228:0.0 229:0.0 230:0.0 231:0.0 232:0.0 233:0.0 234:0.0 235:0.0 236:0.0 237:0.0 238:0.0 239:0.0 240:0.0 241:0.0 242:0.0 243:1.0 244:1.0 245:1.0 246:0.0 247:0.0 248:0.0 249:0.0 250:0.0 251:0.0 252:0.0 253:0.0 254:0.0 255:0.0 256:0.0 257:0.0 258:0.0 259:0.0 260:0.0 261:0.0 262:0.0 263:0.0 264:0.0 265:0.0 266:0.0 267:1.0 268:1.0 269:1.0 270:0.0 271:0.0 272:0.0 273:0.0 274:0.0 275:0.0 276:0.0 277:0.0 278:0.0 279:0.0 280:0.0 281:0.0 282:0.0 283:0.0 284:0.0 285:0.0 286:0.0 287:0.0 288:0.0 289:1.0 290:1.0 291:1.0 292:1.0 293:1.0 294:1.0 295:1.0 296:1.0 297:1.0 298:1.0 299:1.0 300:1.0 301:1.0 302:1.0 303:1.0 304:1.0 305:1.0 306:1.0 307:1.0 308:1.0 309:1.0 310:1.0 311:1.0 312:1.0 313:1.0 314:1.0 315:1.0 316:1.0 317:1.0 318:1.0 319:1.0 320:1.0 321:1.0 322:1.0 323:1.0 324:1.0 325:1.0 326:1.0 327:1.0 328:1.0 329:1.0 330:1.0 331:1.0 332:1.0 333:1.0 334:1.0 335:1.0 336:1.0 337:1.0 338:1.0 339:1.0 340:1.0 341:1.0 342:1.0 343:1.0 344:1.0 345:1.0 346:1.0 347:1.0 348:1.0 349:1.0 350:1.0 351:1.0 352:1.0 353:1.0 354:1.0 355:1.0 356:1.0 357:1.0 358:1.0 359:1.0 360:1.0 361:1.0 362:1.0 363:1.0 364:1.0 365:1.0 366:1.0 367:1.0 368:1.0 369:1.0 370:1.0 371:1.0 372:1.0 373:1.0 374:1.0 375:1.0 376:1.0 377:1.0 378:1.0 379:1.0 380:1.0 381:1.0 382:1.0 383:1.0 384:1.0 385:1.0 386:1.0 387:1.0 388:1.0 389:1.0 390:1.0 391:1.0 392:1.0 393:1.0 394:1.0 395:1.0 396:1.0 397:1.0 398:1.0 399:1.0 400:1.0 401:1.0 402:1.0 403:1.0 404:1.0 405:1.0 406:1.0 407:1.0 408:1.0 409:1.0 410:1.0 411:1.0 412:1.0 413:1.0 414:1.0 415:1.0 416:1.0 417:1.0 418:1.0 419:1.0 420:1.0 421:1.0 422:1.0 423:1.0 424:1.0 425:1.0 426:1.0 427:1.0 428:1.0 429:1.0 430:1.0 431:1.0 432:1.0 433:1.0 434:1.0 435:1.0 436:1.0 437:1.0 438:1.0 439:1.0 440:1.0 441:1.0 442:1.0 443:1.0 444:1.0 445:1.0 446:1.0 447:1.0 448:1.0 449:1.0 450:1.0 451:1.0 452:1.0 453:1.0 454:1.0 455:1.0 456:1.0 457:1.0 458:1.0 459:1.0 460:1.0 461:1.0 462:1.0 463:1.0 464:1.0 465:1.0 466:1.0 467:1.0 468:1.0 469:1.0 470:1.0 471:1.0 472:1.0 473:1.0 474:1.0 475:1.0 476:1.0 477:1.0 478:1.0 479:1.0 480:1.0 481:1.0 482:1.0 483:1.0 484:1.0 485:1.0 486:1.0 487:1.0 488:1.0 489:1.0 490:1.0 491:1.0 492:1.0 493:1.0 494:1.0 495:1.0 496:1.0 497:1.0 498:1.0 499:1.0 500:1.0 501:1.0 502:1.0 503:1.0 504:1.0 505:1.0 506:1.0 507:1.0 508:1.0 509:1.0 510:1.0 511:1.0 512:1.0 513:1.0 514:1.0 515:1.0 516:1.0 517:1.0 518:1.0 519:1.0 520:1.0 521:1.0 522:1.0 523:1.0 524:1.0 525:1.0 526:1.0 527:1.0 528:1.0 529:1.0 530:1.0 531:1.0 532:1.0 533:1.0 534:1.0 535:1.0 536:1.0 537:1.0 538:1.0 539:1.0 540:1.0 541:1.0 542:1.0 543:1.0 544:1.0 545:1.0 546:1.0 547:1.0 548:1.0 549:1.0 550:1.0 551:1.0 552:1.0 553:1.0 554:1.0 555:1.0 556:1.0 557:1.0 558:1.0 559:1.0 560:1.0 561:1.0 562:1.0 563:1.0 564:1.0 565:1.0 566:1.0 567:1.0 568:1.0 569:1.0 570:1.0 571:1.0 572:1.0 573:1.0 574:1.0 575:1.0 576:1.0 
-0.0038099704895102017 0.0037923121486485613 0.002233497987217407 0.003994779967336326 0.0029518961830636795 0.004307614653706092 0.001239039135026105 0.0036439449852715146 0.002164133665095939 0.001909681924602946 0.002280637919560308 0.0 0.0045611770066102415 0.0030344204129273194 0.003805844004061339 0.0017855647656392448 0.0 0.002656726722282465 0.002782282210983069 0.0014355690219367868 0.0026484785465350925 0.003722586278733289 0.002775606997474986 4.278028132902116E-4 0.0 0.0035415733504200807 0.001070400719066403 0.0 1:0.0 2:0.0 3:0.0 4:0.0 5:0.0 6:0.0 7:0.0 8:0.0 9:0.0 10:0.0 11:0.0 12:0.0 13:0.0 14:0.0 15:0.0 16:0.0 17:0.0 18:0.0 19:0.0 20:0.0 21:0.0 22:1.0 23:1.0 24:1.0 25:0.0 26:0.0 27:0.0 28:0.0 29:0.0 30:0.0 31:0.0 32:0.0 33:0.0 34:0.0 35:0.0 36:0.0 37:0.0 38:0.0 39:0.0 40:0.0 41:0.0 42:0.0 43:0.0 44:0.0 45:0.0 46:1.0 47:1.0 48:1.0 49:0.0 50:0.0 51:0.0 52:0.0 53:0.0 54:0.0 55:0.0 56:0.0 57:0.0 58:0.0 59:0.0 60:0.0 61:0.0 62:0.0 63:0.0 64:0.0 65:0.0 66:0.0 67:0.0 68:0.0 69:0.0 70:1.0 71:1.0 72:1.0 73:0.0 74:0.0 75:0.0 76:0.0 77:0.0 78:0.0 79:0.0 80:0.0 81:0.0 82:0.0 83:0.0 84:0.0 85:0.0 86:0.0 87:0.0 88:0.0 89:0.0 90:0.0 91:0.0 92:0.0 93:0.0 94:1.0 95:1.0 96:1.0 97:0.0 98:0.0 99:1.0 100:1.0 101:1.0 102:0.0 103:0.0 104:0.0 105:0.0 106:0.0 107:0.0 108:0.0 109:0.0 110:0.0 111:0.0 112:0.0 113:0.0 114:0.0 115:1.0 116:1.0 117:1.0 118:1.0 119:1.0 120:1.0 121:0.0 122:0.0 123:1.0 124:1.0 125:1.0 126:0.0 127:0.0 128:0.0 129:0.0 130:0.0 131:0.0 132:0.0 133:0.0 134:0.0 135:0.0 136:0.0 137:0.0 138:0.0 139:1.0 140:1.0 141:1.0 142:1.0 143:1.0 144:1.0 145:0.0 146:0.0 147:1.0 148:1.0 149:1.0 150:0.0 151:0.0 152:0.0 153:0.0 154:0.0 155:0.0 156:0.0 157:0.0 158:0.0 159:0.0 160:0.0 161:0.0 162:0.0 163:1.0 164:1.0 165:1.0 166:1.0 167:1.0 168:1.0 169:0.0 170:0.0 171:1.0 172:1.0 173:1.0 174:0.0 175:0.0 176:0.0 177:0.0 178:0.0 179:0.0 180:0.0 181:0.0 182:0.0 183:0.0 184:0.0 185:0.0 186:0.0 187:1.0 188:1.0 189:1.0 190:1.0 191:1.0 192:1.0 193:1.0 194:1.0 195:0.0 196:0.0 197:0.0 198:0.0 199:0.0 200:0.0 201:0.0 202:0.0 203:0.0 204:0.0 205:0.0 206:0.0 207:0.0 208:0.0 209:0.0 210:0.0 211:1.0 212:1.0 213:1.0 214:0.0 215:0.0 216:0.0 217:1.0 218:1.0 219:0.0 220:0.0 221:0.0 222:0.0 223:0.0 224:0.0 225:0.0 226:0.0 227:0.0 228:0.0 229:0.0 230:0.0 231:0.0 232:0.0 233:0.0 234:0.0 235:1.0 236:1.0 237:1.0 238:0.0 239:0.0 240:0.0 241:1.0 242:1.0 243:0.0 244:0.0 245:0.0 246:0.0 247:0.0 248:0.0 249:0.0 250:0.0 251:0.0 252:0.0 253:0.0 254:0.0 255:0.0 256:0.0 257:0.0 258:0.0 259:1.0 260:1.0 261:1.0 262:0.0 263:0.0 264:0.0 265:1.0 266:1.0 267:0.0 268:0.0 269:0.0 270:0.0 271:0.0 272:0.0 273:0.0 274:0.0 275:0.0 276:0.0 277:0.0 278:0.0 279:0.0 280:0.0 281:0.0 282:0.0 283:1.0 284:1.0 285:1.0 286:0.0 287:0.0 288:0.0 289:1.0 290:1.0 291:0.0 292:0.0 293:0.0 294:0.0 295:0.0 296:0.0 297:1.0 298:1.0 299:1.0 300:1.0 301:1.0 302:0.0 303:0.0 304:0.0 305:1.0 306:1.0 307:1.0 308:1.0 309:1.0 310:0.0 311:0.0 312:0.0 313:1.0 314:1.0 315:0.0 316:0.0 317:0.0 318:0.0 319:0.0 320:0.0 321:1.0 322:1.0 323:1.0 324:1.0 325:1.0 326:0.0 327:0.0 328:0.0 329:1.0 330:1.0 331:1.0 332:1.0 333:1.0 334:0.0 335:0.0 336:0.0 337:1.0 338:1.0 339:0.0 340:0.0 341:0.0 342:0.0 343:0.0 344:0.0 345:1.0 346:1.0 347:1.0 348:1.0 349:1.0 350:0.0 351:0.0 352:0.0 353:1.0 354:1.0 355:1.0 356:1.0 357:1.0 358:0.0 359:0.0 360:0.0 361:1.0 362:1.0 363:0.0 364:0.0 365:0.0 366:0.0 367:0.0 368:0.0 369:1.0 370:1.0 371:1.0 372:1.0 373:1.0 374:0.0 375:0.0 376:0.0 377:1.0 378:1.0 379:1.0 380:1.0 381:1.0 382:0.0 383:0.0 384:0.0 385:1.0 386:1.0 387:0.0 388:0.0 389:0.0 390:0.0 391:0.0 392:0.0 393:0.0 394:0.0 395:0.0 396:0.0 397:0.0 398:1.0 399:1.0 400:1.0 401:1.0 402:1.0 403:0.0 404:0.0 405:0.0 406:0.0 407:0.0 408:0.0 409:1.0 410:1.0 411:0.0 412:0.0 413:0.0 414:0.0 415:0.0 416:0.0 417:0.0 418:0.0 419:0.0 420:0.0 421:0.0 422:1.0 423:1.0 424:1.0 425:1.0 426:1.0 427:0.0 428:0.0 429:0.0 430:0.0 431:0.0 432:0.0 433:1.0 434:1.0 435:0.0 436:0.0 437:0.0 438:0.0 439:0.0 440:0.0 441:0.0 442:0.0 443:0.0 444:0.0 445:0.0 446:1.0 447:1.0 448:1.0 449:1.0 450:1.0 451:0.0 452:0.0 453:0.0 454:0.0 455:0.0 456:0.0 457:1.0 458:1.0 459:0.0 460:0.0 461:0.0 462:0.0 463:0.0 464:0.0 465:0.0 466:0.0 467:0.0 468:0.0 469:0.0 470:1.0 471:1.0 472:1.0 473:1.0 474:1.0 475:0.0 476:0.0 477:0.0 478:0.0 479:0.0 480:0.0 481:0.0 482:0.0 483:1.0 484:1.0 485:1.0 486:1.0 487:1.0 488:1.0 489:1.0 490:1.0 491:1.0 492:1.0 493:1.0 494:1.0 495:1.0 496:1.0 497:0.0 498:0.0 499:0.0 500:0.0 501:0.0 502:0.0 503:0.0 504:0.0 505:0.0 506:0.0 507:1.0 508:1.0 509:1.0 510:1.0 511:1.0 512:1.0 513:1.0 514:1.0 515:1.0 516:1.0 517:1.0 518:1.0 519:1.0 520:1.0 521:0.0 522:0.0 523:0.0 524:0.0 525:0.0 526:0.0 527:0.0 528:0.0 529:0.0 530:0.0 531:1.0 532:1.0 533:1.0 534:1.0 535:1.0 536:1.0 537:1.0 538:1.0 539:1.0 540:1.0 541:1.0 542:1.0 543:1.0 544:1.0 545:0.0 546:0.0 547:0.0 548:0.0 549:0.0 550:0.0 551:0.0 552:0.0 553:0.0 554:0.0 555:1.0 556:1.0 557:1.0 558:1.0 559:1.0 560:1.0 561:1.0 562:1.0 563:1.0 564:1.0 565:1.0 566:1.0 567:1.0 568:1.0 569:0.0 570:0.0 571:0.0 572:0.0 573:0.0 574:0.0 575:0.0 576:0.0 
-0.0 0.0 7.209004786230727E-5 0.0 0.0 0.001389862196221943 0.0012013446580049349 0.0 0.0 0.0 0.0 0.0027442027746505514 4.504821825628319E-4 0.0 0.0 0.0 0.0 0.0 0.0 0.0 0.0019003483987243804 0.0018633667874202787 0.0 0.0051357622811926485 0.002306783883421168 0.0 0.0027246846417562755 0.0 1:0.0 2:0.0 3:1.0 4:1.0 5:1.0 6:0.0 7:0.0 8:0.0 9:0.0 10:0.0 11:0.0 12:0.0 13:0.0 14:0.0 15:0.0 16:0.0 17:0.0 18:0.0 19:0.0 20:0.0 21:0.0 22:1.0 23:1.0 24:1.0 25:0.0 26:0.0 27:1.0 28:1.0 29:1.0 30:0.0 31:0.0 32:0.0 33:0.0 34:0.0 35:0.0 36:0.0 37:0.0 38:0.0 39:0.0 40:0.0 41:0.0 42:0.0 43:0.0 44:0.0 45:0.0 46:1.0 47:1.0 48:1.0 49:0.0 50:0.0 51:1.0 52:1.0 53:1.0 54:0.0 55:0.0 56:0.0 57:0.0 58:0.0 59:0.0 60:0.0 61:0.0 62:0.0 63:0.0 64:0.0 65:0.0 66:0.0 67:0.0 68:0.0 69:0.0 70:1.0 71:1.0 72:1.0 73:0.0 74:0.0 75:1.0 76:1.0 77:1.0 78:0.0 79:0.0 80:0.0 81:0.0 82:0.0 83:0.0 84:0.0 85:0.0 86:0.0 87:0.0 88:0.0 89:0.0 90:0.0 91:0.0 92:0.0 93:0.0 94:1.0 95:1.0 96:1.0 97:0.0 98:0.0 99:1.0 100:1.0 101:1.0 102:0.0 103:0.0 104:0.0 105:0.0 106:0.0 107:0.0 108:0.0 109:0.0 110:0.0 111:0.0 112:0.0 113:1.0 114:1.0 115:1.0 116:1.0 117:1.0 118:1.0 119:1.0 120:1.0 121:0.0 122:0.0 123:1.0 124:1.0 125:1.0 126:0.0 127:0.0 128:0.0 129:0.0 130:0.0 131:0.0 132:0.0 133:0.0 134:0.0 135:0.0 136:0.0 137:1.0 138:1.0 139:1.0 140:1.0 141:1.0 142:1.0 143:1.0 144:1.0 145:0.0 146:0.0 147:1.0 148:1.0 149:1.0 150:0.0 151:0.0 152:0.0 153:0.0 154:0.0 155:0.0 156:0.0 157:0.0 158:0.0 159:0.0 160:0.0 161:1.0 162:1.0 163:1.0 164:1.0 165:1.0 166:1.0 167:1.0 168:1.0 169:0.0 170:0.0 171:1.0 172:1.0 173:1.0 174:0.0 175:0.0 176:0.0 177:0.0 178:0.0 179:0.0 180:0.0 181:0.0 182:0.0 183:0.0 184:0.0 185:1.0 186:1.0 187:1.0 188:1.0 189:1.0 190:1.0 191:1.0 192:1.0 193:1.0 194:1.0 195:0.0 196:0.0 197:0.0 198:0.0 199:0.0 200:0.0 201:0.0 202:0.0 203:0.0 204:0.0 205:0.0 206:0.0 207:0.0 208:0.0 209:1.0 210:1.0 211:1.0 212:1.0 213:1.0 214:1.0 215:1.0 216:1.0 217:1.0 218:1.0 219:0.0 220:0.0 221:0.0 222:0.0 223:0.0 224:0.0 225:0.0 226:0.0 227:0.0 228:0.0 229:0.0 230:0.0 231:0.0 232:0.0 233:1.0 234:1.0 235:1.0 236:1.0 237:1.0 238:1.0 239:1.0 240:1.0 241:1.0 242:1.0 243:0.0 244:0.0 245:0.0 246:0.0 247:0.0 248:0.0 249:0.0 250:0.0 251:0.0 252:0.0 253:0.0 254:0.0 255:0.0 256:0.0 257:1.0 258:1.0 259:1.0 260:1.0 261:1.0 262:1.0 263:1.0 264:1.0 265:1.0 266:1.0 267:0.0 268:0.0 269:0.0 270:0.0 271:0.0 272:0.0 273:0.0 274:0.0 275:0.0 276:0.0 277:0.0 278:0.0 279:0.0 280:0.0 281:1.0 282:1.0 283:1.0 284:1.0 285:1.0 286:1.0 287:1.0 288:1.0 289:1.0 290:1.0 291:0.0 292:0.0 293:0.0 294:0.0 295:0.0 296:0.0 297:0.0 298:0.0 299:0.0 300:0.0 301:0.0 302:1.0 303:1.0 304:1.0 305:1.0 306:1.0 307:1.0 308:1.0 309:1.0 310:0.0 311:0.0 312:0.0 313:1.0 314:1.0 315:0.0 316:0.0 317:0.0 318:0.0 319:0.0 320:0.0 321:0.0 322:0.0 323:0.0 324:0.0 325:0.0 326:1.0 327:1.0 328:1.0 329:1.0 330:1.0 331:1.0 332:1.0 333:1.0 334:0.0 335:0.0 336:0.0 337:1.0 338:1.0 339:0.0 340:0.0 341:0.0 342:0.0 343:0.0 344:0.0 345:0.0 346:0.0 347:0.0 348:0.0 349:0.0 350:1.0 351:1.0 352:1.0 353:1.0 354:1.0 355:1.0 356:1.0 357:1.0 358:0.0 359:0.0 360:0.0 361:1.0 362:1.0 363:0.0 364:0.0 365:0.0 366:0.0 367:0.0 368:0.0 369:0.0 370:0.0 371:0.0 372:0.0 373:0.0 374:1.0 375:1.0 376:1.0 377:1.0 378:1.0 379:1.0 380:1.0 381:1.0 382:0.0 383:0.0 384:0.0 385:1.0 386:1.0 387:0.0 388:0.0 389:0.0 390:0.0 391:0.0 392:0.0 393:0.0 394:0.0 395:1.0 396:1.0 397:1.0 398:1.0 399:1.0 400:1.0 401:1.0 402:1.0 403:0.0 404:0.0 405:0.0 406:0.0 407:0.0 408:0.0 409:1.0 410:1.0 411:0.0 412:0.0 413:0.0 414:0.0 415:0.0 416:0.0 417:0.0 418:0.0 419:1.0 420:1.0 421:1.0 422:1.0 423:1.0 424:1.0 425:1.0 426:1.0 427:0.0 428:0.0 429:0.0 430:0.0 431:0.0 432:0.0 433:1.0 434:1.0 435:0.0 436:0.0 437:0.0 438:0.0 439:0.0 440:0.0 441:0.0 442:0.0 443:1.0 444:1.0 445:1.0 446:1.0 447:1.0 448:1.0 449:1.0 450:1.0 451:0.0 452:0.0 453:0.0 454:0.0 455:0.0 456:0.0 457:1.0 458:1.0 459:0.0 460:0.0 461:0.0 462:0.0 463:0.0 464:0.0 465:0.0 466:0.0 467:1.0 468:1.0 469:1.0 470:1.0 471:1.0 472:1.0 473:1.0 474:1.0 475:0.0 476:0.0 477:0.0 478:0.0 479:0.0 480:0.0 481:0.0 482:0.0 483:1.0 484:1.0 485:1.0 486:1.0 487:1.0 488:1.0 489:1.0 490:1.0 491:1.0 492:1.0 493:1.0 494:1.0 495:1.0 496:1.0 497:0.0 498:0.0 499:0.0 500:0.0 501:0.0 502:0.0 503:0.0 504:0.0 505:0.0 506:0.0 507:1.0 508:1.0 509:1.0 510:1.0 511:1.0 512:1.0 513:1.0 514:1.0 515:1.0 516:1.0 517:1.0 518:1.0 519:1.0 520:1.0 521:0.0 522:0.0 523:0.0 524:0.0 525:0.0 526:0.0 527:0.0 528:0.0 529:0.0 530:0.0 531:1.0 532:1.0 533:1.0 534:1.0 535:1.0 536:1.0 537:1.0 538:1.0 539:1.0 540:1.0 541:1.0 542:1.0 543:1.0 544:1.0 545:0.0 546:0.0 547:0.0 548:0.0 549:0.0 550:0.0 551:0.0 552:0.0 553:0.0 554:0.0 555:1.0 556:1.0 557:1.0 558:1.0 559:1.0 560:1.0 561:1.0 562:1.0 563:1.0 564:1.0 565:1.0 566:1.0 567:1.0 568:1.0 569:0.0 570:0.0 571:0.0 572:0.0 573:0.0 574:0.0 575:0.0 576:0.0 
-0.004311171151117839 0.0013416048385943094 6.317104133181114E-4 0.0038839843693520794 0.0025180118512489824 1.0 0.002973474104952659 0.0015467019907975008 6.16203969668378E-4 0.0043494810360467095 0.0 0.0012521843512872258 0.004438831471254372 0.003983251884793784 0.0012978661269279013 0.0012309388140481006 0.0021749345218186394 0.0011720020589825447 7.123001369880893E-4 0.0030668149729367327 0.0033164224521612046 0.0021490049233692157 0.0037429592067671135 0.0028416253420232174 0.0017044552795221798 0.003200637668416694 0.005405618623621694 5.937077005600608E-4 1:1.0 2:1.0 3:1.0 4:1.0 5:1.0 6:0.0 7:0.0 8:0.0 9:0.0 10:0.0 11:0.0 12:0.0 13:0.0 14:0.0 15:0.0 16:0.0 17:0.0 18:0.0 19:0.0 20:0.0 21:0.0 22:0.0 23:0.0 24:0.0 25:1.0 26:1.0 27:1.0 28:1.0 29:1.0 30:0.0 31:0.0 32:0.0 33:0.0 34:0.0 35:0.0 36:0.0 37:0.0 38:0.0 39:0.0 40:0.0 41:0.0 42:0.0 43:0.0 44:0.0 45:0.0 46:0.0 47:0.0 48:0.0 49:1.0 50:1.0 51:1.0 52:1.0 53:1.0 54:0.0 55:0.0 56:0.0 57:0.0 58:0.0 59:0.0 60:0.0 61:0.0 62:0.0 63:0.0 64:0.0 65:0.0 66:0.0 67:0.0 68:0.0 69:0.0 70:0.0 71:0.0 72:0.0 73:1.0 74:1.0 75:1.0 76:1.0 77:1.0 78:0.0 79:0.0 80:0.0 81:0.0 82:0.0 83:0.0 84:0.0 85:0.0 86:0.0 87:0.0 88:0.0 89:0.0 90:0.0 91:0.0 92:0.0 93:0.0 94:0.0 95:0.0 96:0.0 97:1.0 98:1.0 99:1.0 100:1.0 101:1.0 102:0.0 103:0.0 104:0.0 105:0.0 106:0.0 107:0.0 108:0.0 109:0.0 110:0.0 111:0.0 112:0.0 113:0.0 114:0.0 115:1.0 116:1.0 117:1.0 118:1.0 119:1.0 120:1.0 121:1.0 122:1.0 123:1.0 124:1.0 125:1.0 126:0.0 127:0.0 128:0.0 129:0.0 130:0.0 131:0.0 132:0.0 133:0.0 134:0.0 135:0.0 136:0.0 137:0.0 138:0.0 139:1.0 140:1.0 141:1.0 142:1.0 143:1.0 144:1.0 145:1.0 146:1.0 147:1.0 148:1.0 149:1.0 150:0.0 151:0.0 152:0.0 153:0.0 154:0.0 155:0.0 156:0.0 157:0.0 158:0.0 159:0.0 160:0.0 161:0.0 162:0.0 163:1.0 164:1.0 165:1.0 166:1.0 167:1.0 168:1.0 169:1.0 170:1.0 171:1.0 172:1.0 173:1.0 174:0.0 175:0.0 176:0.0 177:0.0 178:0.0 179:0.0 180:0.0 181:0.0 182:0.0 183:0.0 184:0.0 185:0.0 186:0.0 187:1.0 188:1.0 189:1.0 190:1.0 191:1.0 192:1.0 193:1.0 194:1.0 195:1.0 196:1.0 197:1.0 198:0.0 199:0.0 200:0.0 201:0.0 202:0.0 203:0.0 204:0.0 205:0.0 206:0.0 207:0.0 208:0.0 209:0.0 210:0.0 211:1.0 212:1.0 213:1.0 214:1.0 215:1.0 216:1.0 217:1.0 218:1.0 219:1.0 220:1.0 221:1.0 222:0.0 223:0.0 224:0.0 225:0.0 226:0.0 227:0.0 228:0.0 229:0.0 230:1.0 231:1.0 232:1.0 233:1.0 234:1.0 235:0.0 236:0.0 237:0.0 238:0.0 239:0.0 240:0.0 241:1.0 242:1.0 243:1.0 244:1.0 245:1.0 246:0.0 247:0.0 248:0.0 249:0.0 250:0.0 251:0.0 252:0.0 253:0.0 254:1.0 255:1.0 256:1.0 257:1.0 258:1.0 259:0.0 260:0.0 261:0.0 262:0.0 263:0.0 264:0.0 265:1.0 266:1.0 267:1.0 268:1.0 269:1.0 270:0.0 271:0.0 272:0.0 273:0.0 274:0.0 275:0.0 276:0.0 277:0.0 278:1.0 279:1.0 280:1.0 281:1.0 282:1.0 283:0.0 284:0.0 285:0.0 286:0.0 287:0.0 288:0.0 289:1.0 290:1.0 291:1.0 292:1.0 293:1.0 294:0.0 295:0.0 296:0.0 297:0.0 298:0.0 299:0.0 300:0.0 301:0.0 302:1.0 303:1.0 304:1.0 305:1.0 306:1.0 307:0.0 308:0.0 309:0.0 310:0.0 311:0.0 312:0.0 313:1.0 314:1.0 315:1.0 316:1.0 317:1.0 318:0.0 319:0.0 320:0.0 321:0.0 322:0.0 323:0.0 324:0.0 325:0.0 326:1.0 327:1.0 328:1.0 329:1.0 330:1.0 331:0.0 332:0.0 333:0.0 334:0.0 335:0.0 336:0.0 337:1.0 338:1.0 339:1.0 340:1.0 341:1.0 342:1.0 343:1.0 344:1.0 345:0.0 346:0.0 347:1.0 348:1.0 349:1.0 350:0.0 351:0.0 352:0.0 353:0.0 354:0.0 355:0.0 356:0.0 357:0.0 358:0.0 359:0.0 360:0.0 361:1.0 362:1.0 363:1.0 364:1.0 365:1.0 366:1.0 367:1.0 368:1.0 369:0.0 370:0.0 371:1.0 372:1.0 373:1.0 374:0.0 375:0.0 376:0.0 377:0.0 378:0.0 379:0.0 380:0.0 381:0.0 382:0.0 383:0.0 384:0.0 385:1.0 386:1.0 387:1.0 388:1.0 389:1.0 390:1.0 391:1.0 392:1.0 393:0.0 394:0.0 395:1.0 396:1.0 397:1.0 398:0.0 399:0.0 400:0.0 401:0.0 402:0.0 403:0.0 404:0.0 405:0.0 406:0.0 407:0.0 408:0.0 409:1.0 410:1.0 411:1.0 412:1.0 413:1.0 414:1.0 415:1.0 416:1.0 417:0.0 418:0.0 419:1.0 420:1.0 421:1.0 422:0.0 423:0.0 424:0.0 425:0.0 426:0.0 427:0.0 428:0.0 429:0.0 430:0.0 431:0.0 432:0.0 433:1.0 434:1.0 435:1.0 436:1.0 437:1.0 438:1.0 439:1.0 440:1.0 441:0.0 442:0.0 443:1.0 444:1.0 445:1.0 446:0.0 447:0.0 448:0.0 449:0.0 450:0.0 451:0.0 452:0.0 453:0.0 454:0.0 455:0.0 456:0.0 457:0.0 458:0.0 459:1.0 460:1.0 461:1.0 462:1.0 463:1.0 464:1.0 465:1.0 466:1.0 467:0.0 468:0.0 469:0.0 470:0.0 471:0.0 472:0.0 473:0.0 474:0.0 475:0.0 476:0.0 477:0.0 478:0.0 479:0.0 480:0.0 481:0.0 482:0.0 483:1.0 484:1.0 485:1.0 486:1.0 487:1.0 488:1.0 489:1.0 490:1.0 491:0.0 492:0.0 493:0.0 494:0.0 495:0.0 496:0.0 497:0.0 498:0.0 499:0.0 500:0.0 501:0.0 502:0.0 503:0.0 504:0.0 505:0.0 506:0.0 507:1.0 508:1.0 509:1.0 510:1.0 511:1.0 512:1.0 513:1.0 514:1.0 515:0.0 516:0.0 517:0.0 518:0.0 519:0.0 520:0.0 521:0.0 522:0.0 523:0.0 524:0.0 525:0.0 526:0.0 527:0.0 528:0.0 529:0.0 530:0.0 531:1.0 532:1.0 533:1.0 534:1.0 535:1.0 536:1.0 537:1.0 538:1.0 539:0.0 540:0.0 541:0.0 542:0.0 543:0.0 544:0.0 545:0.0 546:0.0 547:0.0 548:0.0 549:0.0 550:0.0 551:0.0 552:0.0 553:0.0 554:0.0 555:1.0 556:1.0 557:1.0 558:1.0 559:1.0 560:1.0 561:1.0 562:1.0 563:0.0 564:0.0 565:0.0 566:0.0 567:0.0 568:0.0 569:0.0 570:0.0 571:0.0 572:0.0 573:0.0 574:0.0 575:0.0 576:0.0 
-0.0 0.0 0.0 0.0 0.0 0.13784778313025137 0.0 0.0 0.0 3.3080970904877135E-4 0.0010104569814260794 0.0023765599903228856 0.0013902986631055495 1.4683305204323677E-4 0.0 0.0 0.0 8.481405083333473E-4 0.0 0.0 0.0 0.0 0.0016227249769693803 0.001367228580623025 5.848354805606951E-4 0.0 0.0017010593876734636 0.004715582210568876 1:1.0 2:1.0 3:0.0 4:0.0 5:0.0 6:0.0 7:0.0 8:0.0 9:0.0 10:0.0 11:0.0 12:0.0 13:0.0 14:0.0 15:0.0 16:0.0 17:0.0 18:0.0 19:1.0 20:1.0 21:1.0 22:1.0 23:1.0 24:1.0 25:1.0 26:1.0 27:0.0 28:0.0 29:0.0 30:0.0 31:0.0 32:0.0 33:0.0 34:0.0 35:0.0 36:0.0 37:0.0 38:0.0 39:0.0 40:0.0 41:0.0 42:0.0 43:1.0 44:1.0 45:1.0 46:1.0 47:1.0 48:1.0 49:1.0 50:1.0 51:0.0 52:0.0 53:0.0 54:0.0 55:0.0 56:0.0 57:0.0 58:0.0 59:0.0 60:0.0 61:0.0 62:0.0 63:0.0 64:0.0 65:0.0 66:0.0 67:1.0 68:1.0 69:1.0 70:1.0 71:1.0 72:1.0 73:1.0 74:1.0 75:0.0 76:0.0 77:0.0 78:0.0 79:0.0 80:0.0 81:0.0 82:0.0 83:0.0 84:0.0 85:0.0 86:0.0 87:0.0 88:0.0 89:0.0 90:0.0 91:1.0 92:1.0 93:1.0 94:1.0 95:1.0 96:1.0 97:1.0 98:1.0 99:0.0 100:0.0 101:0.0 102:0.0 103:0.0 104:0.0 105:0.0 106:0.0 107:0.0 108:0.0 109:0.0 110:0.0 111:0.0 112:0.0 113:0.0 114:0.0 115:1.0 116:1.0 117:1.0 118:1.0 119:1.0 120:1.0 121:1.0 122:1.0 123:0.0 124:0.0 125:0.0 126:0.0 127:0.0 128:0.0 129:0.0 130:0.0 131:0.0 132:0.0 133:0.0 134:0.0 135:0.0 136:0.0 137:0.0 138:0.0 139:1.0 140:1.0 141:1.0 142:1.0 143:1.0 144:1.0 145:1.0 146:1.0 147:0.0 148:0.0 149:0.0 150:0.0 151:0.0 152:0.0 153:0.0 154:0.0 155:0.0 156:0.0 157:0.0 158:1.0 159:1.0 160:1.0 161:1.0 162:1.0 163:1.0 164:1.0 165:1.0 166:1.0 167:1.0 168:1.0 169:1.0 170:1.0 171:0.0 172:0.0 173:0.0 174:0.0 175:0.0 176:0.0 177:0.0 178:0.0 179:0.0 180:0.0 181:0.0 182:1.0 183:1.0 184:1.0 185:1.0 186:1.0 187:1.0 188:1.0 189:1.0 190:1.0 191:1.0 192:1.0 193:1.0 194:1.0 195:0.0 196:0.0 197:0.0 198:0.0 199:0.0 200:0.0 201:0.0 202:0.0 203:0.0 204:0.0 205:0.0 206:1.0 207:1.0 208:1.0 209:1.0 210:1.0 211:1.0 212:1.0 213:1.0 214:1.0 215:1.0 216:1.0 217:1.0 218:1.0 219:0.0 220:0.0 221:0.0 222:0.0 223:0.0 224:0.0 225:0.0 226:0.0 227:0.0 228:0.0 229:0.0 230:1.0 231:1.0 232:1.0 233:1.0 234:1.0 235:1.0 236:1.0 237:1.0 238:1.0 239:1.0 240:1.0 241:1.0 242:1.0 243:0.0 244:0.0 245:0.0 246:0.0 247:0.0 248:0.0 249:0.0 250:0.0 251:0.0 252:0.0 253:0.0 254:1.0 255:1.0 256:1.0 257:1.0 258:1.0 259:1.0 260:1.0 261:1.0 262:1.0 263:1.0 264:1.0 265:1.0 266:1.0 267:0.0 268:0.0 269:0.0 270:0.0 271:0.0 272:0.0 273:0.0 274:0.0 275:0.0 276:0.0 277:0.0 278:1.0 279:1.0 280:1.0 281:1.0 282:1.0 283:1.0 284:1.0 285:1.0 286:1.0 287:1.0 288:1.0 289:1.0 290:1.0 291:0.0 292:0.0 293:0.0 294:0.0 295:0.0 296:0.0 297:1.0 298:1.0 299:1.0 300:1.0 301:1.0 302:1.0 303:1.0 304:1.0 305:1.0 306:1.0 307:0.0 308:0.0 309:0.0 310:0.0 311:0.0 312:0.0 313:1.0 314:1.0 315:0.0 316:0.0 317:0.0 318:0.0 319:0.0 320:0.0 321:1.0 322:1.0 323:1.0 324:1.0 325:1.0 326:1.0 327:1.0 328:1.0 329:1.0 330:1.0 331:0.0 332:0.0 333:0.0 334:0.0 335:0.0 336:0.0 337:1.0 338:1.0 339:0.0 340:0.0 341:0.0 342:0.0 343:0.0 344:0.0 345:1.0 346:1.0 347:1.0 348:1.0 349:1.0 350:1.0 351:1.0 352:1.0 353:1.0 354:1.0 355:0.0 356:0.0 357:0.0 358:0.0 359:0.0 360:0.0 361:1.0 362:1.0 363:0.0 364:0.0 365:0.0 366:0.0 367:0.0 368:0.0 369:1.0 370:1.0 371:1.0 372:1.0 373:1.0 374:1.0 375:1.0 376:1.0 377:1.0 378:1.0 379:0.0 380:0.0 381:0.0 382:0.0 383:0.0 384:0.0 385:1.0 386:1.0 387:0.0 388:0.0 389:0.0 390:0.0 391:0.0 392:0.0 393:1.0 394:1.0 395:1.0 396:1.0 397:1.0 398:1.0 399:1.0 400:1.0 401:1.0 402:1.0 403:0.0 404:0.0 405:0.0 406:0.0 407:0.0 408:0.0 409:1.0 410:1.0 411:0.0 412:0.0 413:0.0 414:0.0 415:0.0 416:0.0 417:1.0 418:1.0 419:1.0 420:1.0 421:1.0 422:1.0 423:1.0 424:1.0 425:1.0 426:1.0 427:0.0 428:0.0 429:0.0 430:0.0 431:0.0 432:0.0 433:1.0 434:1.0 435:1.0 436:1.0 437:1.0 438:1.0 439:1.0 440:1.0 441:1.0 442:1.0 443:1.0 444:1.0 445:1.0 446:0.0 447:0.0 448:0.0 449:0.0 450:0.0 451:0.0 452:0.0 453:0.0 454:0.0 455:0.0 456:0.0 457:1.0 458:1.0 459:1.0 460:1.0 461:1.0 462:1.0 463:1.0 464:1.0 465:1.0 466:1.0 467:1.0 468:1.0 469:1.0 470:0.0 471:0.0 472:0.0 473:0.0 474:0.0 475:0.0 476:0.0 477:0.0 478:0.0 479:0.0 480:0.0 481:1.0 482:1.0 483:1.0 484:1.0 485:1.0 486:1.0 487:1.0 488:1.0 489:1.0 490:1.0 491:1.0 492:1.0 493:1.0 494:0.0 495:0.0 496:0.0 497:0.0 498:0.0 499:0.0 500:0.0 501:0.0 502:0.0 503:0.0 504:0.0 505:1.0 506:1.0 507:1.0 508:1.0 509:1.0 510:1.0 511:1.0 512:1.0 513:1.0 514:1.0 515:1.0 516:1.0 517:1.0 518:0.0 519:0.0 520:0.0 521:0.0 522:0.0 523:0.0 524:0.0 525:0.0 526:0.0 527:0.0 528:0.0 529:1.0 530:1.0 531:1.0 532:1.0 533:1.0 534:1.0 535:1.0 536:1.0 537:1.0 538:1.0 539:1.0 540:1.0 541:1.0 542:0.0 543:0.0 544:0.0 545:0.0 546:0.0 547:0.0 548:0.0 549:0.0 550:0.0 551:0.0 552:0.0 553:1.0 554:1.0 555:1.0 556:1.0 557:1.0 558:1.0 559:1.0 560:1.0 561:1.0 562:1.0 563:1.0 564:1.0 565:1.0 566:0.0 567:0.0 568:0.0 569:0.0 570:0.0 571:0.0 572:0.0 573:0.0 574:0.0 575:0.0 576:0.0 
-0.0 0.0041415760020437455 0.0 0.0011057088032427982 0.0 0.013679737016700257 0.0 0.0 0.0 0.0 0.0 0.0 0.0012872159130277484 0.0 0.0 3.1477325540396573E-4 0.0 7.661371324910614E-4 5.953284100040162E-4 0.0 7.396568155100908E-4 5.047221364034466E-4 7.268444201746698E-5 0.0 0.0 0.0015259293696786862 0.0 0.0 1:0.0 2:0.0 3:1.0 4:1.0 5:1.0 6:0.0 7:0.0 8:0.0 9:0.0 10:0.0 11:0.0 12:0.0 13:0.0 14:0.0 15:0.0 16:0.0 17:0.0 18:0.0 19:0.0 20:0.0 21:0.0 22:1.0 23:1.0 24:1.0 25:0.0 26:0.0 27:1.0 28:1.0 29:1.0 30:0.0 31:0.0 32:0.0 33:0.0 34:0.0 35:0.0 36:0.0 37:0.0 38:0.0 39:0.0 40:0.0 41:0.0 42:0.0 43:0.0 44:0.0 45:0.0 46:1.0 47:1.0 48:1.0 49:0.0 50:0.0 51:1.0 52:1.0 53:1.0 54:0.0 55:0.0 56:0.0 57:0.0 58:0.0 59:0.0 60:0.0 61:0.0 62:0.0 63:0.0 64:0.0 65:0.0 66:0.0 67:0.0 68:0.0 69:0.0 70:1.0 71:1.0 72:1.0 73:0.0 74:0.0 75:1.0 76:1.0 77:1.0 78:0.0 79:0.0 80:0.0 81:0.0 82:0.0 83:0.0 84:0.0 85:0.0 86:0.0 87:0.0 88:0.0 89:0.0 90:0.0 91:0.0 92:0.0 93:0.0 94:1.0 95:1.0 96:1.0 97:1.0 98:1.0 99:0.0 100:0.0 101:0.0 102:0.0 103:0.0 104:0.0 105:0.0 106:0.0 107:0.0 108:0.0 109:0.0 110:0.0 111:0.0 112:0.0 113:0.0 114:0.0 115:1.0 116:1.0 117:1.0 118:1.0 119:1.0 120:1.0 121:1.0 122:1.0 123:0.0 124:0.0 125:0.0 126:0.0 127:0.0 128:0.0 129:0.0 130:0.0 131:0.0 132:0.0 133:0.0 134:0.0 135:0.0 136:0.0 137:0.0 138:0.0 139:1.0 140:1.0 141:1.0 142:1.0 143:1.0 144:1.0 145:1.0 146:1.0 147:0.0 148:0.0 149:0.0 150:0.0 151:0.0 152:0.0 153:0.0 154:0.0 155:0.0 156:0.0 157:0.0 158:0.0 159:0.0 160:0.0 161:0.0 162:0.0 163:1.0 164:1.0 165:1.0 166:1.0 167:1.0 168:1.0 169:1.0 170:1.0 171:0.0 172:0.0 173:0.0 174:0.0 175:0.0 176:0.0 177:0.0 178:0.0 179:0.0 180:0.0 181:0.0 182:0.0 183:0.0 184:0.0 185:0.0 186:0.0 187:1.0 188:1.0 189:1.0 190:1.0 191:1.0 192:1.0 193:1.0 194:1.0 195:0.0 196:0.0 197:0.0 198:0.0 199:0.0 200:0.0 201:0.0 202:0.0 203:0.0 204:0.0 205:0.0 206:0.0 207:0.0 208:0.0 209:1.0 210:1.0 211:1.0 212:1.0 213:1.0 214:0.0 215:0.0 216:0.0 217:1.0 218:1.0 219:0.0 220:0.0 221:0.0 222:0.0 223:0.0 224:0.0 225:0.0 226:0.0 227:0.0 228:0.0 229:0.0 230:0.0 231:0.0 232:0.0 233:1.0 234:1.0 235:1.0 236:1.0 237:1.0 238:0.0 239:0.0 240:0.0 241:1.0 242:1.0 243:0.0 244:0.0 245:0.0 246:0.0 247:0.0 248:0.0 249:0.0 250:0.0 251:0.0 252:0.0 253:0.0 254:0.0 255:0.0 256:0.0 257:1.0 258:1.0 259:1.0 260:1.0 261:1.0 262:0.0 263:0.0 264:0.0 265:1.0 266:1.0 267:0.0 268:0.0 269:0.0 270:0.0 271:0.0 272:0.0 273:0.0 274:0.0 275:0.0 276:0.0 277:0.0 278:0.0 279:0.0 280:0.0 281:1.0 282:1.0 283:1.0 284:1.0 285:1.0 286:0.0 287:0.0 288:0.0 289:1.0 290:1.0 291:0.0 292:0.0 293:0.0 294:0.0 295:0.0 296:0.0 297:0.0 298:0.0 299:0.0 300:0.0 301:0.0 302:1.0 303:1.0 304:1.0 305:1.0 306:1.0 307:0.0 308:0.0 309:0.0 310:0.0 311:0.0 312:0.0 313:1.0 314:1.0 315:0.0 316:0.0 317:0.0 318:0.0 319:0.0 320:0.0 321:0.0 322:0.0 323:0.0 324:0.0 325:0.0 326:1.0 327:1.0 328:1.0 329:1.0 330:1.0 331:0.0 332:0.0 333:0.0 334:0.0 335:0.0 336:0.0 337:1.0 338:1.0 339:0.0 340:0.0 341:0.0 342:0.0 343:0.0 344:0.0 345:0.0 346:0.0 347:0.0 348:0.0 349:0.0 350:1.0 351:1.0 352:1.0 353:1.0 354:1.0 355:0.0 356:0.0 357:0.0 358:0.0 359:0.0 360:0.0 361:1.0 362:1.0 363:0.0 364:0.0 365:0.0 366:0.0 367:0.0 368:0.0 369:0.0 370:0.0 371:0.0 372:0.0 373:0.0 374:1.0 375:1.0 376:1.0 377:1.0 378:1.0 379:0.0 380:0.0 381:0.0 382:0.0 383:0.0 384:0.0 385:1.0 386:1.0 387:0.0 388:0.0 389:0.0 390:0.0 391:0.0 392:0.0 393:0.0 394:0.0 395:1.0 396:1.0 397:1.0 398:1.0 399:1.0 400:1.0 401:0.0 402:0.0 403:0.0 404:0.0 405:0.0 406:0.0 407:0.0 408:0.0 409:1.0 410:1.0 411:0.0 412:0.0 413:0.0 414:0.0 415:0.0 416:0.0 417:0.0 418:0.0 419:1.0 420:1.0 421:1.0 422:1.0 423:1.0 424:1.0 425:0.0 426:0.0 427:0.0 428:0.0 429:0.0 430:0.0 431:0.0 432:0.0 433:1.0 434:1.0 435:0.0 436:0.0 437:0.0 438:0.0 439:0.0 440:0.0 441:0.0 442:0.0 443:1.0 444:1.0 445:1.0 446:1.0 447:1.0 448:1.0 449:0.0 450:0.0 451:0.0 452:0.0 453:0.0 454:0.0 455:0.0 456:0.0 457:1.0 458:1.0 459:0.0 460:0.0 461:0.0 462:0.0 463:0.0 464:0.0 465:0.0 466:0.0 467:1.0 468:1.0 469:1.0 470:1.0 471:1.0 472:1.0 473:0.0 474:0.0 475:0.0 476:0.0 477:0.0 478:0.0 479:0.0 480:0.0 481:1.0 482:1.0 483:1.0 484:1.0 485:1.0 486:1.0 487:1.0 488:1.0 489:1.0 490:1.0 491:1.0 492:1.0 493:1.0 494:0.0 495:0.0 496:0.0 497:0.0 498:0.0 499:0.0 500:0.0 501:0.0 502:0.0 503:0.0 504:0.0 505:1.0 506:1.0 507:1.0 508:1.0 509:1.0 510:1.0 511:1.0 512:1.0 513:1.0 514:1.0 515:1.0 516:1.0 517:1.0 518:0.0 519:0.0 520:0.0 521:0.0 522:0.0 523:0.0 524:0.0 525:0.0 526:0.0 527:0.0 528:0.0 529:1.0 530:1.0 531:1.0 532:1.0 533:1.0 534:1.0 535:1.0 536:1.0 537:1.0 538:1.0 539:1.0 540:1.0 541:1.0 542:0.0 543:0.0 544:0.0 545:0.0 546:0.0 547:0.0 548:0.0 549:0.0 550:0.0 551:0.0 552:0.0 553:1.0 554:1.0 555:1.0 556:1.0 557:1.0 558:1.0 559:1.0 560:1.0 561:1.0 562:1.0 563:1.0 564:1.0 565:1.0 566:0.0 567:0.0 568:0.0 569:0.0 570:0.0 571:0.0 572:0.0 573:0.0 574:0.0 575:0.0 576:0.0 
-0.0 0.0 0.001789201231925957 0.004186911675298373 0.002719644097413669 0.0 0.0 0.0012640573343314474 6.154968579886855E-4 0.00318056741524929 0.003484923889960116 0.0017458672937949622 2.0764987246418688E-4 0.0028278697830535046 0.0020967612311918707 0.005221119866307542 0.004769527636987449 0.0 0.0 0.005649562780328369 0.003431984134235776 0.004857319305940523 5.760135726363645E-4 1.823876618889605E-4 0.0 0.0 0.0 0.0 1:0.0 2:0.0 3:0.0 4:0.0 5:0.0 6:0.0 7:0.0 8:0.0 9:0.0 10:0.0 11:0.0 12:0.0 13:0.0 14:0.0 15:0.0 16:0.0 17:0.0 18:0.0 19:0.0 20:1.0 21:1.0 22:1.0 23:1.0 24:1.0 25:0.0 26:0.0 27:0.0 28:0.0 29:0.0 30:0.0 31:0.0 32:0.0 33:0.0 34:0.0 35:0.0 36:0.0 37:0.0 38:0.0 39:0.0 40:0.0 41:0.0 42:0.0 43:0.0 44:1.0 45:1.0 46:1.0 47:1.0 48:1.0 49:0.0 50:0.0 51:0.0 52:0.0 53:0.0 54:0.0 55:0.0 56:0.0 57:0.0 58:0.0 59:0.0 60:0.0 61:0.0 62:0.0 63:0.0 64:0.0 65:0.0 66:0.0 67:0.0 68:1.0 69:1.0 70:1.0 71:1.0 72:1.0 73:0.0 74:0.0 75:0.0 76:0.0 77:0.0 78:0.0 79:0.0 80:0.0 81:0.0 82:0.0 83:0.0 84:0.0 85:0.0 86:0.0 87:0.0 88:0.0 89:0.0 90:0.0 91:0.0 92:1.0 93:1.0 94:1.0 95:1.0 96:1.0 97:0.0 98:0.0 99:1.0 100:1.0 101:0.0 102:0.0 103:0.0 104:0.0 105:0.0 106:0.0 107:0.0 108:0.0 109:0.0 110:0.0 111:0.0 112:0.0 113:1.0 114:1.0 115:1.0 116:1.0 117:1.0 118:1.0 119:1.0 120:1.0 121:0.0 122:0.0 123:1.0 124:1.0 125:0.0 126:0.0 127:0.0 128:0.0 129:0.0 130:0.0 131:0.0 132:0.0 133:0.0 134:0.0 135:0.0 136:0.0 137:1.0 138:1.0 139:1.0 140:1.0 141:1.0 142:1.0 143:1.0 144:1.0 145:0.0 146:0.0 147:1.0 148:1.0 149:0.0 150:0.0 151:0.0 152:0.0 153:0.0 154:0.0 155:0.0 156:0.0 157:0.0 158:0.0 159:0.0 160:0.0 161:1.0 162:1.0 163:1.0 164:1.0 165:1.0 166:1.0 167:1.0 168:1.0 169:0.0 170:0.0 171:1.0 172:1.0 173:0.0 174:0.0 175:0.0 176:0.0 177:0.0 178:0.0 179:0.0 180:0.0 181:0.0 182:0.0 183:0.0 184:0.0 185:1.0 186:1.0 187:1.0 188:1.0 189:1.0 190:1.0 191:1.0 192:1.0 193:1.0 194:1.0 195:0.0 196:0.0 197:0.0 198:0.0 199:0.0 200:0.0 201:0.0 202:0.0 203:0.0 204:0.0 205:0.0 206:0.0 207:0.0 208:0.0 209:1.0 210:1.0 211:1.0 212:0.0 213:0.0 214:1.0 215:1.0 216:1.0 217:1.0 218:1.0 219:0.0 220:0.0 221:0.0 222:0.0 223:0.0 224:0.0 225:0.0 226:0.0 227:0.0 228:0.0 229:0.0 230:0.0 231:0.0 232:0.0 233:1.0 234:1.0 235:1.0 236:0.0 237:0.0 238:1.0 239:1.0 240:1.0 241:1.0 242:1.0 243:0.0 244:0.0 245:0.0 246:0.0 247:0.0 248:0.0 249:0.0 250:0.0 251:0.0 252:0.0 253:0.0 254:0.0 255:0.0 256:0.0 257:1.0 258:1.0 259:1.0 260:0.0 261:0.0 262:1.0 263:1.0 264:1.0 265:1.0 266:1.0 267:0.0 268:0.0 269:0.0 270:0.0 271:0.0 272:0.0 273:0.0 274:0.0 275:0.0 276:0.0 277:0.0 278:0.0 279:0.0 280:0.0 281:1.0 282:1.0 283:1.0 284:0.0 285:0.0 286:1.0 287:1.0 288:1.0 289:1.0 290:1.0 291:0.0 292:0.0 293:0.0 294:0.0 295:0.0 296:0.0 297:0.0 298:0.0 299:0.0 300:0.0 301:0.0 302:0.0 303:1.0 304:1.0 305:1.0 306:1.0 307:1.0 308:0.0 309:0.0 310:1.0 311:1.0 312:1.0 313:1.0 314:1.0 315:0.0 316:0.0 317:0.0 318:0.0 319:0.0 320:0.0 321:0.0 322:0.0 323:0.0 324:0.0 325:0.0 326:0.0 327:1.0 328:1.0 329:1.0 330:1.0 331:1.0 332:0.0 333:0.0 334:1.0 335:1.0 336:1.0 337:1.0 338:1.0 339:0.0 340:0.0 341:0.0 342:0.0 343:0.0 344:0.0 345:0.0 346:0.0 347:0.0 348:0.0 349:0.0 350:0.0 351:1.0 352:1.0 353:1.0 354:1.0 355:1.0 356:0.0 357:0.0 358:1.0 359:1.0 360:1.0 361:1.0 362:1.0 363:0.0 364:0.0 365:0.0 366:0.0 367:0.0 368:0.0 369:0.0 370:0.0 371:0.0 372:0.0 373:0.0 374:0.0 375:1.0 376:1.0 377:1.0 378:1.0 379:1.0 380:0.0 381:0.0 382:1.0 383:1.0 384:1.0 385:1.0 386:1.0 387:0.0 388:0.0 389:0.0 390:0.0 391:0.0 392:0.0 393:0.0 394:0.0 395:0.0 396:0.0 397:1.0 398:1.0 399:1.0 400:1.0 401:0.0 402:0.0 403:0.0 404:0.0 405:0.0 406:1.0 407:1.0 408:1.0 409:1.0 410:1.0 411:0.0 412:0.0 413:0.0 414:0.0 415:0.0 416:0.0 417:0.0 418:0.0 419:0.0 420:0.0 421:1.0 422:1.0 423:1.0 424:1.0 425:0.0 426:0.0 427:0.0 428:0.0 429:0.0 430:1.0 431:1.0 432:1.0 433:1.0 434:1.0 435:0.0 436:0.0 437:0.0 438:0.0 439:0.0 440:0.0 441:0.0 442:0.0 443:0.0 444:0.0 445:1.0 446:1.0 447:1.0 448:1.0 449:0.0 450:0.0 451:0.0 452:0.0 453:0.0 454:1.0 455:1.0 456:1.0 457:1.0 458:1.0 459:0.0 460:0.0 461:0.0 462:0.0 463:0.0 464:0.0 465:0.0 466:0.0 467:0.0 468:0.0 469:1.0 470:1.0 471:1.0 472:1.0 473:0.0 474:0.0 475:0.0 476:0.0 477:0.0 478:1.0 479:1.0 480:1.0 481:0.0 482:0.0 483:1.0 484:1.0 485:1.0 486:1.0 487:1.0 488:1.0 489:1.0 490:1.0 491:1.0 492:1.0 493:1.0 494:1.0 495:0.0 496:0.0 497:0.0 498:0.0 499:0.0 500:0.0 501:0.0 502:1.0 503:1.0 504:1.0 505:0.0 506:0.0 507:1.0 508:1.0 509:1.0 510:1.0 511:1.0 512:1.0 513:1.0 514:1.0 515:1.0 516:1.0 517:1.0 518:1.0 519:0.0 520:0.0 521:0.0 522:0.0 523:0.0 524:0.0 525:0.0 526:1.0 527:1.0 528:1.0 529:0.0 530:0.0 531:1.0 532:1.0 533:1.0 534:1.0 535:1.0 536:1.0 537:1.0 538:1.0 539:1.0 540:1.0 541:1.0 542:1.0 543:0.0 544:0.0 545:0.0 546:0.0 547:0.0 548:0.0 549:0.0 550:1.0 551:1.0 552:1.0 553:0.0 554:0.0 555:1.0 556:1.0 557:1.0 558:1.0 559:1.0 560:1.0 561:1.0 562:1.0 563:1.0 564:1.0 565:1.0 566:1.0 567:0.0 568:0.0 569:0.0 570:0.0 571:0.0 572:0.0 573:0.0 574:1.0 575:1.0 576:1.0 
-0.0 0.0 0.0 0.0 0.0 0.0 0.0 0.0 3.1133917743501144E-5 0.0 0.0 0.0 0.0 0.0 0.0 0.0 0.0 0.0 0.0 0.0 0.0 0.0 0.0 0.0 0.0 0.0 0.0 0.0 1:0.0 2:0.0 3:0.0 4:0.0 5:0.0 6:0.0 7:0.0 8:0.0 9:0.0 10:0.0 11:0.0 12:0.0 13:0.0 14:0.0 15:0.0 16:0.0 17:0.0 18:0.0 19:0.0 20:0.0 21:0.0 22:1.0 23:1.0 24:1.0 25:0.0 26:0.0 27:0.0 28:0.0 29:0.0 30:0.0 31:0.0 32:0.0 33:0.0 34:0.0 35:0.0 36:0.0 37:0.0 38:0.0 39:0.0 40:0.0 41:0.0 42:0.0 43:0.0 44:0.0 45:0.0 46:1.0 47:1.0 48:1.0 49:0.0 50:0.0 51:0.0 52:0.0 53:0.0 54:0.0 55:0.0 56:0.0 57:0.0 58:0.0 59:0.0 60:0.0 61:0.0 62:0.0 63:0.0 64:0.0 65:0.0 66:0.0 67:0.0 68:0.0 69:0.0 70:1.0 71:1.0 72:1.0 73:0.0 74:0.0 75:1.0 76:1.0 77:0.0 78:0.0 79:0.0 80:0.0 81:0.0 82:0.0 83:0.0 84:0.0 85:0.0 86:0.0 87:0.0 88:0.0 89:0.0 90:0.0 91:0.0 92:1.0 93:1.0 94:1.0 95:1.0 96:1.0 97:0.0 98:0.0 99:1.0 100:1.0 101:0.0 102:0.0 103:0.0 104:0.0 105:0.0 106:0.0 107:0.0 108:0.0 109:0.0 110:0.0 111:0.0 112:0.0 113:0.0 114:0.0 115:0.0 116:1.0 117:1.0 118:1.0 119:1.0 120:1.0 121:0.0 122:0.0 123:1.0 124:1.0 125:0.0 126:0.0 127:0.0 128:0.0 129:0.0 130:0.0 131:0.0 132:0.0 133:0.0 134:0.0 135:0.0 136:0.0 137:0.0 138:0.0 139:0.0 140:1.0 141:1.0 142:1.0 143:1.0 144:1.0 145:1.0 146:1.0 147:0.0 148:0.0 149:0.0 150:0.0 151:0.0 152:0.0 153:0.0 154:0.0 155:0.0 156:0.0 157:0.0 158:0.0 159:0.0 160:0.0 161:1.0 162:1.0 163:1.0 164:1.0 165:1.0 166:1.0 167:1.0 168:1.0 169:1.0 170:1.0 171:0.0 172:0.0 173:0.0 174:0.0 175:0.0 176:0.0 177:0.0 178:0.0 179:0.0 180:0.0 181:0.0 182:0.0 183:0.0 184:0.0 185:1.0 186:1.0 187:1.0 188:1.0 189:1.0 190:1.0 191:1.0 192:1.0 193:1.0 194:1.0 195:0.0 196:0.0 197:0.0 198:0.0 199:0.0 200:0.0 201:0.0 202:0.0 203:0.0 204:0.0 205:0.0 206:0.0 207:0.0 208:0.0 209:1.0 210:1.0 211:1.0 212:1.0 213:1.0 214:1.0 215:1.0 216:1.0 217:1.0 218:1.0 219:0.0 220:0.0 221:0.0 222:0.0 223:0.0 224:0.0 225:0.0 226:0.0 227:0.0 228:0.0 229:0.0 230:0.0 231:0.0 232:0.0 233:1.0 234:1.0 235:1.0 236:1.0 237:1.0 238:1.0 239:1.0 240:1.0 241:1.0 242:1.0 243:0.0 244:0.0 245:0.0 246:0.0 247:0.0 248:0.0 249:0.0 250:0.0 251:0.0 252:0.0 253:0.0 254:0.0 255:1.0 256:1.0 257:1.0 258:1.0 259:1.0 260:0.0 261:0.0 262:1.0 263:1.0 264:1.0 265:1.0 266:1.0 267:0.0 268:0.0 269:0.0 270:0.0 271:0.0 272:0.0 273:0.0 274:0.0 275:0.0 276:0.0 277:0.0 278:0.0 279:1.0 280:1.0 281:1.0 282:1.0 283:1.0 284:0.0 285:0.0 286:1.0 287:1.0 288:1.0 289:1.0 290:1.0 291:0.0 292:0.0 293:0.0 294:0.0 295:0.0 296:0.0 297:0.0 298:0.0 299:0.0 300:0.0 301:0.0 302:0.0 303:1.0 304:1.0 305:1.0 306:1.0 307:1.0 308:0.0 309:0.0 310:1.0 311:1.0 312:1.0 313:1.0 314:1.0 315:0.0 316:0.0 317:0.0 318:0.0 319:0.0 320:0.0 321:0.0 322:0.0 323:0.0 324:0.0 325:1.0 326:1.0 327:1.0 328:1.0 329:0.0 330:0.0 331:0.0 332:0.0 333:0.0 334:1.0 335:1.0 336:1.0 337:1.0 338:1.0 339:0.0 340:0.0 341:0.0 342:0.0 343:0.0 344:0.0 345:0.0 346:0.0 347:0.0 348:0.0 349:1.0 350:1.0 351:1.0 352:1.0 353:0.0 354:0.0 355:0.0 356:0.0 357:0.0 358:1.0 359:1.0 360:1.0 361:1.0 362:1.0 363:0.0 364:0.0 365:0.0 366:0.0 367:0.0 368:0.0 369:0.0 370:0.0 371:0.0 372:0.0 373:1.0 374:1.0 375:1.0 376:1.0 377:0.0 378:0.0 379:0.0 380:0.0 381:0.0 382:1.0 383:1.0 384:1.0 385:1.0 386:1.0 387:0.0 388:0.0 389:0.0 390:0.0 391:0.0 392:0.0 393:0.0 394:0.0 395:0.0 396:0.0 397:1.0 398:1.0 399:1.0 400:1.0 401:0.0 402:0.0 403:0.0 404:0.0 405:0.0 406:1.0 407:1.0 408:1.0 409:0.0 410:0.0 411:1.0 412:1.0 413:0.0 414:0.0 415:0.0 416:0.0 417:0.0 418:1.0 419:1.0 420:1.0 421:1.0 422:1.0 423:0.0 424:0.0 425:0.0 426:0.0 427:0.0 428:0.0 429:0.0 430:0.0 431:0.0 432:0.0 433:0.0 434:0.0 435:1.0 436:1.0 437:0.0 438:0.0 439:0.0 440:0.0 441:0.0 442:1.0 443:1.0 444:1.0 445:1.0 446:1.0 447:0.0 448:0.0 449:0.0 450:0.0 451:0.0 452:0.0 453:0.0 454:0.0 455:0.0 456:0.0 457:0.0 458:0.0 459:1.0 460:1.0 461:0.0 462:0.0 463:0.0 464:0.0 465:0.0 466:1.0 467:1.0 468:1.0 469:1.0 470:1.0 471:0.0 472:0.0 473:0.0 474:0.0 475:0.0 476:0.0 477:0.0 478:0.0 479:0.0 480:0.0 481:0.0 482:0.0 483:1.0 484:1.0 485:1.0 486:1.0 487:1.0 488:1.0 489:1.0 490:1.0 491:1.0 492:1.0 493:0.0 494:0.0 495:0.0 496:0.0 497:0.0 498:0.0 499:0.0 500:0.0 501:0.0 502:0.0 503:0.0 504:0.0 505:0.0 506:0.0 507:1.0 508:1.0 509:1.0 510:1.0 511:1.0 512:1.0 513:1.0 514:1.0 515:1.0 516:1.0 517:0.0 518:0.0 519:0.0 520:0.0 521:0.0 522:0.0 523:0.0 524:0.0 525:0.0 526:0.0 527:0.0 528:0.0 529:0.0 530:0.0 531:1.0 532:1.0 533:1.0 534:1.0 535:1.0 536:1.0 537:1.0 538:1.0 539:1.0 540:1.0 541:0.0 542:0.0 543:0.0 544:0.0 545:0.0 546:0.0 547:0.0 548:0.0 549:0.0 550:0.0 551:0.0 552:0.0 553:0.0 554:0.0 555:1.0 556:1.0 557:1.0 558:1.0 559:1.0 560:1.0 561:1.0 562:1.0 563:1.0 564:1.0 565:0.0 566:0.0 567:0.0 568:0.0 569:0.0 570:0.0 571:0.0 572:0.0 573:0.0 574:0.0 575:0.0 576:0.0 
-0.003409714988500897 0.003608693174443528 0.001487677506981272 0.0 5.615033131291324E-4 0.0 0.002285633342585719 0.004550987675048834 0.0016161732560166782 0.0 9.478899227744148E-4 0.0 0.001578028773998567 0.0031407496193364445 0.001032353600045312 5.720463542111769E-5 0.0 0.003461758126401406 0.0011713129717178974 0.0 3.105357592273705E-4 0.001015545506467232 0.0 0.0 0.0012354678506819414 0.004045105658132623 5.6996853029924455E-5 0.008081664612921651 1:0.0 2:0.0 3:1.0 4:1.0 5:0.0 6:0.0 7:0.0 8:0.0 9:0.0 10:0.0 11:0.0 12:0.0 13:0.0 14:0.0 15:0.0 16:0.0 17:0.0 18:0.0 19:0.0 20:1.0 21:1.0 22:1.0 23:1.0 24:1.0 25:0.0 26:0.0 27:1.0 28:1.0 29:0.0 30:0.0 31:0.0 32:0.0 33:0.0 34:0.0 35:0.0 36:0.0 37:0.0 38:0.0 39:0.0 40:0.0 41:0.0 42:0.0 43:0.0 44:1.0 45:1.0 46:1.0 47:1.0 48:1.0 49:0.0 50:0.0 51:1.0 52:1.0 53:0.0 54:0.0 55:0.0 56:0.0 57:0.0 58:0.0 59:0.0 60:0.0 61:0.0 62:0.0 63:0.0 64:0.0 65:0.0 66:0.0 67:0.0 68:1.0 69:1.0 70:1.0 71:1.0 72:1.0 73:0.0 74:0.0 75:1.0 76:1.0 77:0.0 78:0.0 79:0.0 80:0.0 81:0.0 82:0.0 83:0.0 84:0.0 85:0.0 86:0.0 87:0.0 88:0.0 89:0.0 90:0.0 91:0.0 92:1.0 93:1.0 94:1.0 95:1.0 96:1.0 97:0.0 98:0.0 99:1.0 100:1.0 101:0.0 102:0.0 103:0.0 104:0.0 105:0.0 106:0.0 107:0.0 108:0.0 109:0.0 110:0.0 111:0.0 112:0.0 113:1.0 114:1.0 115:1.0 116:1.0 117:1.0 118:1.0 119:1.0 120:1.0 121:0.0 122:0.0 123:1.0 124:1.0 125:0.0 126:0.0 127:0.0 128:0.0 129:0.0 130:0.0 131:0.0 132:0.0 133:0.0 134:0.0 135:0.0 136:0.0 137:1.0 138:1.0 139:1.0 140:1.0 141:1.0 142:1.0 143:1.0 144:1.0 145:0.0 146:0.0 147:1.0 148:1.0 149:0.0 150:0.0 151:0.0 152:0.0 153:0.0 154:0.0 155:0.0 156:0.0 157:0.0 158:0.0 159:0.0 160:0.0 161:1.0 162:1.0 163:1.0 164:1.0 165:1.0 166:1.0 167:1.0 168:1.0 169:0.0 170:0.0 171:1.0 172:1.0 173:0.0 174:0.0 175:0.0 176:0.0 177:0.0 178:0.0 179:0.0 180:0.0 181:0.0 182:0.0 183:0.0 184:0.0 185:1.0 186:1.0 187:1.0 188:1.0 189:1.0 190:1.0 191:1.0 192:1.0 193:1.0 194:1.0 195:0.0 196:0.0 197:0.0 198:0.0 199:0.0 200:0.0 201:0.0 202:0.0 203:0.0 204:0.0 205:0.0 206:0.0 207:1.0 208:1.0 209:1.0 210:1.0 211:1.0 212:0.0 213:0.0 214:1.0 215:1.0 216:1.0 217:1.0 218:1.0 219:0.0 220:0.0 221:0.0 222:0.0 223:0.0 224:0.0 225:0.0 226:0.0 227:0.0 228:0.0 229:0.0 230:0.0 231:1.0 232:1.0 233:1.0 234:1.0 235:1.0 236:0.0 237:0.0 238:1.0 239:1.0 240:1.0 241:1.0 242:1.0 243:0.0 244:0.0 245:0.0 246:0.0 247:0.0 248:0.0 249:0.0 250:0.0 251:0.0 252:0.0 253:0.0 254:0.0 255:1.0 256:1.0 257:1.0 258:1.0 259:1.0 260:0.0 261:0.0 262:1.0 263:1.0 264:1.0 265:1.0 266:1.0 267:0.0 268:0.0 269:0.0 270:0.0 271:0.0 272:0.0 273:0.0 274:0.0 275:0.0 276:0.0 277:0.0 278:0.0 279:1.0 280:1.0 281:1.0 282:1.0 283:1.0 284:0.0 285:0.0 286:1.0 287:1.0 288:1.0 289:1.0 290:1.0 291:0.0 292:0.0 293:0.0 294:0.0 295:0.0 296:0.0 297:0.0 298:0.0 299:0.0 300:0.0 301:1.0 302:1.0 303:1.0 304:1.0 305:1.0 306:1.0 307:1.0 308:0.0 309:0.0 310:1.0 311:1.0 312:1.0 313:1.0 314:1.0 315:0.0 316:0.0 317:0.0 318:0.0 319:0.0 320:0.0 321:0.0 322:0.0 323:0.0 324:0.0 325:1.0 326:1.0 327:1.0 328:1.0 329:1.0 330:1.0 331:1.0 332:0.0 333:0.0 334:1.0 335:1.0 336:1.0 337:1.0 338:1.0 339:0.0 340:0.0 341:0.0 342:0.0 343:0.0 344:0.0 345:0.0 346:0.0 347:0.0 348:0.0 349:1.0 350:1.0 351:1.0 352:1.0 353:1.0 354:1.0 355:1.0 356:0.0 357:0.0 358:1.0 359:1.0 360:1.0 361:1.0 362:1.0 363:0.0 364:0.0 365:0.0 366:0.0 367:0.0 368:0.0 369:0.0 370:0.0 371:0.0 372:0.0 373:1.0 374:1.0 375:1.0 376:1.0 377:1.0 378:1.0 379:1.0 380:0.0 381:0.0 382:1.0 383:1.0 384:1.0 385:1.0 386:1.0 387:0.0 388:0.0 389:0.0 390:0.0 391:0.0 392:0.0 393:0.0 394:1.0 395:1.0 396:1.0 397:1.0 398:1.0 399:1.0 400:1.0 401:0.0 402:0.0 403:0.0 404:0.0 405:0.0 406:1.0 407:1.0 408:1.0 409:1.0 410:1.0 411:0.0 412:0.0 413:0.0 414:0.0 415:0.0 416:0.0 417:0.0 418:1.0 419:1.0 420:1.0 421:1.0 422:1.0 423:1.0 424:1.0 425:0.0 426:0.0 427:0.0 428:0.0 429:0.0 430:1.0 431:1.0 432:1.0 433:1.0 434:1.0 435:0.0 436:0.0 437:0.0 438:0.0 439:0.0 440:0.0 441:0.0 442:1.0 443:1.0 444:1.0 445:1.0 446:1.0 447:1.0 448:1.0 449:0.0 450:0.0 451:0.0 452:0.0 453:0.0 454:1.0 455:1.0 456:1.0 457:1.0 458:1.0 459:0.0 460:0.0 461:0.0 462:0.0 463:0.0 464:0.0 465:0.0 466:1.0 467:1.0 468:1.0 469:1.0 470:1.0 471:1.0 472:1.0 473:0.0 474:0.0 475:0.0 476:0.0 477:0.0 478:1.0 479:1.0 480:1.0 481:0.0 482:0.0 483:1.0 484:1.0 485:1.0 486:1.0 487:1.0 488:1.0 489:1.0 490:1.0 491:1.0 492:1.0 493:1.0 494:1.0 495:0.0 496:0.0 497:0.0 498:0.0 499:0.0 500:0.0 501:0.0 502:1.0 503:1.0 504:1.0 505:0.0 506:0.0 507:1.0 508:1.0 509:1.0 510:1.0 511:1.0 512:1.0 513:1.0 514:1.0 515:1.0 516:1.0 517:1.0 518:1.0 519:0.0 520:0.0 521:0.0 522:0.0 523:0.0 524:0.0 525:0.0 526:1.0 527:1.0 528:1.0 529:0.0 530:0.0 531:1.0 532:1.0 533:1.0 534:1.0 535:1.0 536:1.0 537:1.0 538:1.0 539:1.0 540:1.0 541:1.0 542:1.0 543:0.0 544:0.0 545:0.0 546:0.0 547:0.0 548:0.0 549:0.0 550:1.0 551:1.0 552:1.0 553:0.0 554:0.0 555:1.0 556:1.0 557:1.0 558:1.0 559:1.0 560:1.0 561:1.0 562:1.0 563:1.0 564:1.0 565:1.0 566:1.0 567:0.0 568:0.0 569:0.0 570:0.0 571:0.0 572:0.0 573:0.0 574:1.0 575:1.0 576:1.0 
-0.0 0.0012506498601230084 0.0 0.0014361890571169412 0.0 0.009391172530001001 0.0010089628076931814 0.0 0.001493080565503507 0.0011415106930324048 0.0 7.988703988683817E-4 0.002952374553922446 0.0 0.0 0.0 7.634632794600555E-4 0.0 0.0 0.0 0.0 0.0 8.501620367395104E-4 0.003062034300257363 0.0 0.0 0.004498831622516281 0.0 1:0.0 2:0.0 3:0.0 4:0.0 5:0.0 6:0.0 7:0.0 8:0.0 9:0.0 10:0.0 11:0.0 12:0.0 13:0.0 14:0.0 15:0.0 16:0.0 17:0.0 18:0.0 19:0.0 20:0.0 21:0.0 22:1.0 23:1.0 24:1.0 25:0.0 26:0.0 27:0.0 28:0.0 29:0.0 30:0.0 31:0.0 32:0.0 33:0.0 34:0.0 35:0.0 36:0.0 37:0.0 38:0.0 39:0.0 40:0.0 41:0.0 42:0.0 43:0.0 44:0.0 45:0.0 46:1.0 47:1.0 48:1.0 49:0.0 50:0.0 51:0.0 52:0.0 53:0.0 54:0.0 55:0.0 56:0.0 57:0.0 58:0.0 59:0.0 60:0.0 61:0.0 62:0.0 63:0.0 64:0.0 65:0.0 66:0.0 67:0.0 68:0.0 69:0.0 70:1.0 71:1.0 72:1.0 73:0.0 74:0.0 75:1.0 76:1.0 77:0.0 78:0.0 79:0.0 80:0.0 81:0.0 82:0.0 83:0.0 84:0.0 85:0.0 86:0.0 87:0.0 88:0.0 89:0.0 90:0.0 91:0.0 92:1.0 93:1.0 94:1.0 95:1.0 96:1.0 97:0.0 98:0.0 99:1.0 100:1.0 101:0.0 102:0.0 103:0.0 104:0.0 105:0.0 106:0.0 107:0.0 108:0.0 109:0.0 110:0.0 111:0.0 112:0.0 113:0.0 114:0.0 115:0.0 116:1.0 117:1.0 118:1.0 119:1.0 120:1.0 121:0.0 122:0.0 123:1.0 124:1.0 125:0.0 126:0.0 127:0.0 128:0.0 129:0.0 130:0.0 131:0.0 132:0.0 133:0.0 134:0.0 135:0.0 136:0.0 137:0.0 138:0.0 139:0.0 140:1.0 141:1.0 142:1.0 143:1.0 144:1.0 145:1.0 146:1.0 147:0.0 148:0.0 149:0.0 150:0.0 151:0.0 152:0.0 153:0.0 154:0.0 155:0.0 156:0.0 157:0.0 158:0.0 159:0.0 160:0.0 161:1.0 162:1.0 163:1.0 164:1.0 165:1.0 166:1.0 167:1.0 168:1.0 169:1.0 170:1.0 171:0.0 172:0.0 173:0.0 174:0.0 175:0.0 176:0.0 177:0.0 178:0.0 179:0.0 180:0.0 181:0.0 182:0.0 183:0.0 184:0.0 185:1.0 186:1.0 187:1.0 188:1.0 189:1.0 190:1.0 191:1.0 192:1.0 193:1.0 194:1.0 195:0.0 196:0.0 197:0.0 198:0.0 199:0.0 200:0.0 201:0.0 202:0.0 203:0.0 204:0.0 205:0.0 206:0.0 207:0.0 208:0.0 209:1.0 210:1.0 211:1.0 212:1.0 213:1.0 214:1.0 215:1.0 216:1.0 217:1.0 218:1.0 219:0.0 220:0.0 221:0.0 222:0.0 223:0.0 224:0.0 225:0.0 226:0.0 227:0.0 228:0.0 229:0.0 230:0.0 231:0.0 232:0.0 233:1.0 234:1.0 235:1.0 236:1.0 237:1.0 238:1.0 239:1.0 240:1.0 241:1.0 242:1.0 243:0.0 244:0.0 245:0.0 246:0.0 247:0.0 248:0.0 249:0.0 250:0.0 251:0.0 252:0.0 253:0.0 254:0.0 255:1.0 256:1.0 257:1.0 258:1.0 259:1.0 260:0.0 261:0.0 262:1.0 263:1.0 264:1.0 265:1.0 266:1.0 267:0.0 268:0.0 269:0.0 270:0.0 271:0.0 272:0.0 273:0.0 274:0.0 275:0.0 276:0.0 277:0.0 278:0.0 279:1.0 280:1.0 281:1.0 282:1.0 283:1.0 284:0.0 285:0.0 286:1.0 287:1.0 288:1.0 289:1.0 290:1.0 291:0.0 292:0.0 293:0.0 294:0.0 295:0.0 296:0.0 297:0.0 298:0.0 299:0.0 300:0.0 301:0.0 302:0.0 303:1.0 304:1.0 305:1.0 306:1.0 307:1.0 308:0.0 309:0.0 310:1.0 311:1.0 312:1.0 313:1.0 314:1.0 315:0.0 316:0.0 317:0.0 318:0.0 319:0.0 320:0.0 321:0.0 322:0.0 323:0.0 324:0.0 325:1.0 326:1.0 327:1.0 328:1.0 329:0.0 330:0.0 331:0.0 332:0.0 333:0.0 334:1.0 335:1.0 336:1.0 337:1.0 338:1.0 339:0.0 340:0.0 341:0.0 342:0.0 343:0.0 344:0.0 345:0.0 346:0.0 347:0.0 348:0.0 349:1.0 350:1.0 351:1.0 352:1.0 353:0.0 354:0.0 355:0.0 356:0.0 357:0.0 358:1.0 359:1.0 360:1.0 361:1.0 362:1.0 363:0.0 364:0.0 365:0.0 366:0.0 367:0.0 368:0.0 369:0.0 370:0.0 371:0.0 372:0.0 373:1.0 374:1.0 375:1.0 376:1.0 377:0.0 378:0.0 379:0.0 380:0.0 381:0.0 382:1.0 383:1.0 384:1.0 385:1.0 386:1.0 387:0.0 388:0.0 389:0.0 390:0.0 391:0.0 392:0.0 393:0.0 394:0.0 395:0.0 396:0.0 397:1.0 398:1.0 399:1.0 400:1.0 401:0.0 402:0.0 403:0.0 404:0.0 405:0.0 406:1.0 407:1.0 408:1.0 409:0.0 410:0.0 411:1.0 412:1.0 413:0.0 414:0.0 415:0.0 416:0.0 417:0.0 418:1.0 419:1.0 420:1.0 421:1.0 422:1.0 423:0.0 424:0.0 425:0.0 426:0.0 427:0.0 428:0.0 429:0.0 430:0.0 431:0.0 432:0.0 433:0.0 434:0.0 435:1.0 436:1.0 437:0.0 438:0.0 439:0.0 440:0.0 441:0.0 442:1.0 443:1.0 444:1.0 445:1.0 446:1.0 447:0.0 448:0.0 449:0.0 450:0.0 451:0.0 452:0.0 453:0.0 454:0.0 455:0.0 456:0.0 457:0.0 458:0.0 459:1.0 460:1.0 461:0.0 462:0.0 463:0.0 464:0.0 465:0.0 466:1.0 467:1.0 468:1.0 469:1.0 470:1.0 471:0.0 472:0.0 473:0.0 474:0.0 475:0.0 476:0.0 477:0.0 478:0.0 479:0.0 480:0.0 481:0.0 482:0.0 483:1.0 484:1.0 485:1.0 486:1.0 487:1.0 488:1.0 489:1.0 490:1.0 491:1.0 492:1.0 493:0.0 494:0.0 495:0.0 496:0.0 497:0.0 498:0.0 499:0.0 500:0.0 501:0.0 502:0.0 503:0.0 504:0.0 505:0.0 506:0.0 507:1.0 508:1.0 509:1.0 510:1.0 511:1.0 512:1.0 513:1.0 514:1.0 515:1.0 516:1.0 517:0.0 518:0.0 519:0.0 520:0.0 521:0.0 522:0.0 523:0.0 524:0.0 525:0.0 526:0.0 527:0.0 528:0.0 529:0.0 530:0.0 531:1.0 532:1.0 533:1.0 534:1.0 535:1.0 536:1.0 537:1.0 538:1.0 539:1.0 540:1.0 541:0.0 542:0.0 543:0.0 544:0.0 545:0.0 546:0.0 547:0.0 548:0.0 549:0.0 550:0.0 551:0.0 552:0.0 553:0.0 554:0.0 555:1.0 556:1.0 557:1.0 558:1.0 559:1.0 560:1.0 561:1.0 562:1.0 563:1.0 564:1.0 565:0.0 566:0.0 567:0.0 568:0.0 569:0.0 570:0.0 571:0.0 572:0.0 573:0.0 574:0.0 575:0.0 576:0.0 
-0.0 0.0028014784861523736 0.0034002661505209927 0.0011112636862349603 0.0020208073263818017 1.0 0.0 0.007697892378138778 0.0027313620196548465 0.0 0.003058759739679399 0.002059665612202715 0.005835036887667935 3.645111914054965E-4 0.003626358558783246 0.004392732807362795 9.430022134908572E-4 0.004032324973435622 0.0020887699459703566 0.0 0.0 0.007224057317459951 0.0020398077446540444 8.208700567998149E-4 0.001999906776658958 0.003478980097694187 0.0017483809182559584 0.009263017938192697 1:1.0 2:1.0 3:0.0 4:0.0 5:0.0 6:0.0 7:0.0 8:0.0 9:0.0 10:0.0 11:0.0 12:0.0 13:0.0 14:0.0 15:0.0 16:0.0 17:0.0 18:0.0 19:1.0 20:1.0 21:1.0 22:1.0 23:1.0 24:1.0 25:1.0 26:1.0 27:0.0 28:0.0 29:0.0 30:0.0 31:0.0 32:0.0 33:0.0 34:0.0 35:0.0 36:0.0 37:0.0 38:0.0 39:0.0 40:0.0 41:0.0 42:0.0 43:1.0 44:1.0 45:1.0 46:1.0 47:1.0 48:1.0 49:1.0 50:1.0 51:0.0 52:0.0 53:0.0 54:0.0 55:0.0 56:0.0 57:0.0 58:0.0 59:0.0 60:0.0 61:0.0 62:0.0 63:0.0 64:0.0 65:0.0 66:0.0 67:1.0 68:1.0 69:1.0 70:1.0 71:1.0 72:1.0 73:1.0 74:1.0 75:0.0 76:0.0 77:0.0 78:0.0 79:0.0 80:0.0 81:0.0 82:0.0 83:0.0 84:0.0 85:0.0 86:0.0 87:0.0 88:0.0 89:0.0 90:0.0 91:1.0 92:1.0 93:1.0 94:1.0 95:1.0 96:1.0 97:1.0 98:1.0 99:0.0 100:0.0 101:0.0 102:0.0 103:0.0 104:0.0 105:0.0 106:0.0 107:0.0 108:0.0 109:0.0 110:1.0 111:1.0 112:1.0 113:1.0 114:1.0 115:1.0 116:1.0 117:1.0 118:1.0 119:1.0 120:1.0 121:1.0 122:1.0 123:0.0 124:0.0 125:0.0 126:0.0 127:0.0 128:0.0 129:0.0 130:0.0 131:0.0 132:0.0 133:0.0 134:1.0 135:1.0 136:1.0 137:1.0 138:1.0 139:1.0 140:1.0 141:1.0 142:1.0 143:1.0 144:1.0 145:1.0 146:1.0 147:0.0 148:0.0 149:0.0 150:0.0 151:0.0 152:0.0 153:0.0 154:0.0 155:0.0 156:0.0 157:0.0 158:1.0 159:1.0 160:1.0 161:1.0 162:1.0 163:1.0 164:1.0 165:1.0 166:1.0 167:1.0 168:1.0 169:1.0 170:1.0 171:0.0 172:0.0 173:0.0 174:0.0 175:0.0 176:0.0 177:0.0 178:0.0 179:0.0 180:0.0 181:0.0 182:1.0 183:1.0 184:1.0 185:1.0 186:1.0 187:1.0 188:1.0 189:1.0 190:1.0 191:1.0 192:1.0 193:1.0 194:1.0 195:0.0 196:0.0 197:0.0 198:0.0 199:0.0 200:0.0 201:0.0 202:0.0 203:0.0 204:0.0 205:0.0 206:1.0 207:1.0 208:1.0 209:1.0 210:1.0 211:1.0 212:1.0 213:1.0 214:1.0 215:1.0 216:1.0 217:1.0 218:1.0 219:0.0 220:0.0 221:0.0 222:0.0 223:0.0 224:0.0 225:1.0 226:1.0 227:1.0 228:1.0 229:1.0 230:1.0 231:1.0 232:1.0 233:1.0 234:1.0 235:0.0 236:0.0 237:0.0 238:0.0 239:0.0 240:0.0 241:1.0 242:1.0 243:0.0 244:0.0 245:0.0 246:0.0 247:0.0 248:0.0 249:1.0 250:1.0 251:1.0 252:1.0 253:1.0 254:1.0 255:1.0 256:1.0 257:1.0 258:1.0 259:0.0 260:0.0 261:0.0 262:0.0 263:0.0 264:0.0 265:1.0 266:1.0 267:0.0 268:0.0 269:0.0 270:0.0 271:0.0 272:0.0 273:1.0 274:1.0 275:1.0 276:1.0 277:1.0 278:1.0 279:1.0 280:1.0 281:1.0 282:1.0 283:0.0 284:0.0 285:0.0 286:0.0 287:0.0 288:0.0 289:1.0 290:1.0 291:0.0 292:0.0 293:0.0 294:0.0 295:0.0 296:0.0 297:1.0 298:1.0 299:1.0 300:1.0 301:1.0 302:1.0 303:1.0 304:1.0 305:1.0 306:1.0 307:0.0 308:0.0 309:0.0 310:0.0 311:0.0 312:0.0 313:1.0 314:1.0 315:0.0 316:0.0 317:0.0 318:0.0 319:0.0 320:0.0 321:1.0 322:1.0 323:1.0 324:1.0 325:1.0 326:1.0 327:1.0 328:1.0 329:1.0 330:1.0 331:0.0 332:0.0 333:0.0 334:0.0 335:0.0 336:0.0 337:1.0 338:1.0 339:1.0 340:1.0 341:1.0 342:1.0 343:1.0 344:1.0 345:1.0 346:1.0 347:1.0 348:1.0 349:1.0 350:1.0 351:1.0 352:1.0 353:0.0 354:0.0 355:0.0 356:0.0 357:0.0 358:0.0 359:0.0 360:0.0 361:1.0 362:1.0 363:1.0 364:1.0 365:1.0 366:1.0 367:1.0 368:1.0 369:1.0 370:1.0 371:1.0 372:1.0 373:1.0 374:1.0 375:1.0 376:1.0 377:0.0 378:0.0 379:0.0 380:0.0 381:0.0 382:0.0 383:0.0 384:0.0 385:1.0 386:1.0 387:1.0 388:1.0 389:1.0 390:1.0 391:1.0 392:1.0 393:1.0 394:1.0 395:1.0 396:1.0 397:1.0 398:1.0 399:1.0 400:1.0 401:0.0 402:0.0 403:0.0 404:0.0 405:0.0 406:0.0 407:0.0 408:0.0 409:1.0 410:1.0 411:1.0 412:1.0 413:1.0 414:1.0 415:1.0 416:1.0 417:1.0 418:1.0 419:1.0 420:1.0 421:1.0 422:1.0 423:1.0 424:1.0 425:0.0 426:0.0 427:0.0 428:0.0 429:0.0 430:0.0 431:0.0 432:0.0 433:1.0 434:1.0 435:1.0 436:1.0 437:1.0 438:1.0 439:1.0 440:1.0 441:1.0 442:1.0 443:1.0 444:1.0 445:1.0 446:1.0 447:1.0 448:1.0 449:0.0 450:0.0 451:0.0 452:0.0 453:0.0 454:0.0 455:0.0 456:0.0 457:0.0 458:0.0 459:1.0 460:1.0 461:1.0 462:1.0 463:1.0 464:1.0 465:1.0 466:1.0 467:0.0 468:0.0 469:0.0 470:0.0 471:0.0 472:0.0 473:0.0 474:0.0 475:0.0 476:0.0 477:0.0 478:0.0 479:0.0 480:0.0 481:0.0 482:0.0 483:1.0 484:1.0 485:1.0 486:1.0 487:1.0 488:1.0 489:1.0 490:1.0 491:0.0 492:0.0 493:0.0 494:0.0 495:0.0 496:0.0 497:0.0 498:0.0 499:0.0 500:0.0 501:0.0 502:0.0 503:0.0 504:0.0 505:0.0 506:0.0 507:1.0 508:1.0 509:1.0 510:1.0 511:1.0 512:1.0 513:1.0 514:1.0 515:0.0 516:0.0 517:0.0 518:0.0 519:0.0 520:0.0 521:0.0 522:0.0 523:0.0 524:0.0 525:0.0 526:0.0 527:0.0 528:0.0 529:0.0 530:0.0 531:1.0 532:1.0 533:1.0 534:1.0 535:1.0 536:1.0 537:1.0 538:1.0 539:0.0 540:0.0 541:0.0 542:0.0 543:0.0 544:0.0 545:0.0 546:0.0 547:0.0 548:0.0 549:0.0 550:0.0 551:0.0 552:0.0 553:0.0 554:0.0 555:1.0 556:1.0 557:1.0 558:1.0 559:1.0 560:1.0 561:1.0 562:1.0 563:0.0 564:0.0 565:0.0 566:0.0 567:0.0 568:0.0 569:0.0 570:0.0 571:0.0 572:0.0 573:0.0 574:0.0 575:0.0 576:0.0 
-0.0 -1.532114423409748E-5 0.0 0.0 0.0 0.0 0.0 0.0 0.0 0.0 0.0 0.0 0.0 0.0 0.0 0.0 0.0 0.0 0.0 0.0 0.0 0.0 0.0 0.0 0.0 0.0 0.0 0.0 1:0.0 2:0.0 3:1.0 4:1.0 5:1.0 6:0.0 7:0.0 8:0.0 9:0.0 10:0.0 11:0.0 12:0.0 13:0.0 14:0.0 15:0.0 16:0.0 17:0.0 18:0.0 19:0.0 20:0.0 21:0.0 22:1.0 23:1.0 24:1.0 25:0.0 26:0.0 27:1.0 28:1.0 29:1.0 30:0.0 31:0.0 32:0.0 33:0.0 34:0.0 35:0.0 36:0.0 37:0.0 38:0.0 39:0.0 40:0.0 41:0.0 42:0.0 43:0.0 44:0.0 45:0.0 46:1.0 47:1.0 48:1.0 49:0.0 50:0.0 51:1.0 52:1.0 53:1.0 54:0.0 55:0.0 56:0.0 57:0.0 58:0.0 59:0.0 60:0.0 61:0.0 62:0.0 63:0.0 64:0.0 65:0.0 66:0.0 67:0.0 68:0.0 69:0.0 70:1.0 71:1.0 72:1.0 73:0.0 74:0.0 75:1.0 76:1.0 77:1.0 78:0.0 79:0.0 80:0.0 81:0.0 82:0.0 83:0.0 84:0.0 85:0.0 86:0.0 87:0.0 88:0.0 89:0.0 90:0.0 91:0.0 92:0.0 93:0.0 94:1.0 95:1.0 96:1.0 97:1.0 98:1.0 99:0.0 100:0.0 101:0.0 102:0.0 103:0.0 104:0.0 105:0.0 106:0.0 107:1.0 108:1.0 109:1.0 110:0.0 111:0.0 112:0.0 113:0.0 114:0.0 115:0.0 116:0.0 117:0.0 118:0.0 119:0.0 120:0.0 121:1.0 122:1.0 123:0.0 124:0.0 125:0.0 126:0.0 127:0.0 128:0.0 129:0.0 130:0.0 131:1.0 132:1.0 133:1.0 134:0.0 135:0.0 136:0.0 137:0.0 138:0.0 139:0.0 140:0.0 141:0.0 142:0.0 143:0.0 144:0.0 145:1.0 146:1.0 147:0.0 148:0.0 149:0.0 150:0.0 151:0.0 152:0.0 153:0.0 154:0.0 155:1.0 156:1.0 157:1.0 158:0.0 159:0.0 160:0.0 161:0.0 162:0.0 163:0.0 164:0.0 165:0.0 166:0.0 167:0.0 168:0.0 169:1.0 170:1.0 171:0.0 172:0.0 173:0.0 174:0.0 175:0.0 176:0.0 177:0.0 178:0.0 179:1.0 180:1.0 181:1.0 182:0.0 183:0.0 184:0.0 185:0.0 186:0.0 187:0.0 188:0.0 189:0.0 190:0.0 191:0.0 192:0.0 193:1.0 194:1.0 195:0.0 196:0.0 197:0.0 198:0.0 199:0.0 200:0.0 201:0.0 202:0.0 203:1.0 204:1.0 205:1.0 206:0.0 207:0.0 208:0.0 209:0.0 210:0.0 211:0.0 212:0.0 213:0.0 214:0.0 215:0.0 216:0.0 217:1.0 218:1.0 219:0.0 220:0.0 221:0.0 222:0.0 223:0.0 224:0.0 225:0.0 226:0.0 227:1.0 228:1.0 229:1.0 230:0.0 231:0.0 232:0.0 233:0.0 234:0.0 235:0.0 236:0.0 237:0.0 238:0.0 239:0.0 240:0.0 241:1.0 242:1.0 243:0.0 244:0.0 245:0.0 246:0.0 247:0.0 248:0.0 249:0.0 250:0.0 251:1.0 252:1.0 253:1.0 254:0.0 255:0.0 256:0.0 257:0.0 258:0.0 259:0.0 260:0.0 261:0.0 262:0.0 263:0.0 264:0.0 265:1.0 266:1.0 267:0.0 268:0.0 269:0.0 270:0.0 271:0.0 272:0.0 273:0.0 274:0.0 275:1.0 276:1.0 277:1.0 278:0.0 279:0.0 280:0.0 281:0.0 282:0.0 283:0.0 284:0.0 285:0.0 286:0.0 287:0.0 288:0.0 289:1.0 290:1.0 291:0.0 292:0.0 293:0.0 294:0.0 295:0.0 296:0.0 297:0.0 298:0.0 299:1.0 300:1.0 301:1.0 302:0.0 303:0.0 304:0.0 305:0.0 306:0.0 307:0.0 308:0.0 309:0.0 310:0.0 311:0.0 312:0.0 313:1.0 314:1.0 315:0.0 316:0.0 317:0.0 318:0.0 319:0.0 320:0.0 321:0.0 322:0.0 323:1.0 324:1.0 325:1.0 326:0.0 327:0.0 328:0.0 329:0.0 330:0.0 331:0.0 332:0.0 333:0.0 334:0.0 335:0.0 336:0.0 337:1.0 338:1.0 339:0.0 340:0.0 341:0.0 342:0.0 343:0.0 344:0.0 345:0.0 346:0.0 347:1.0 348:1.0 349:1.0 350:0.0 351:0.0 352:0.0 353:0.0 354:0.0 355:0.0 356:0.0 357:0.0 358:0.0 359:0.0 360:0.0 361:1.0 362:1.0 363:0.0 364:0.0 365:0.0 366:0.0 367:0.0 368:0.0 369:0.0 370:0.0 371:1.0 372:1.0 373:1.0 374:0.0 375:0.0 376:0.0 377:0.0 378:0.0 379:0.0 380:0.0 381:0.0 382:0.0 383:0.0 384:0.0 385:1.0 386:1.0 387:0.0 388:0.0 389:0.0 390:0.0 391:0.0 392:0.0 393:1.0 394:1.0 395:1.0 396:1.0 397:1.0 398:1.0 399:1.0 400:1.0 401:0.0 402:0.0 403:0.0 404:0.0 405:0.0 406:1.0 407:1.0 408:1.0 409:1.0 410:1.0 411:0.0 412:0.0 413:0.0 414:0.0 415:0.0 416:0.0 417:1.0 418:1.0 419:1.0 420:1.0 421:1.0 422:1.0 423:1.0 424:1.0 425:0.0 426:0.0 427:0.0 428:0.0 429:0.0 430:1.0 431:1.0 432:1.0 433:1.0 434:1.0 435:0.0 436:0.0 437:0.0 438:0.0 439:0.0 440:0.0 441:1.0 442:1.0 443:1.0 444:1.0 445:1.0 446:1.0 447:1.0 448:1.0 449:0.0 450:0.0 451:0.0 452:0.0 453:0.0 454:1.0 455:1.0 456:1.0 457:1.0 458:1.0 459:0.0 460:0.0 461:0.0 462:0.0 463:0.0 464:0.0 465:1.0 466:1.0 467:1.0 468:1.0 469:1.0 470:1.0 471:1.0 472:1.0 473:0.0 474:0.0 475:0.0 476:0.0 477:0.0 478:1.0 479:1.0 480:1.0 481:1.0 482:1.0 483:1.0 484:1.0 485:1.0 486:1.0 487:1.0 488:1.0 489:1.0 490:1.0 491:0.0 492:0.0 493:0.0 494:1.0 495:1.0 496:1.0 497:1.0 498:1.0 499:1.0 500:1.0 501:1.0 502:1.0 503:1.0 504:1.0 505:1.0 506:1.0 507:1.0 508:1.0 509:1.0 510:1.0 511:1.0 512:1.0 513:1.0 514:1.0 515:0.0 516:0.0 517:0.0 518:1.0 519:1.0 520:1.0 521:1.0 522:1.0 523:1.0 524:1.0 525:1.0 526:1.0 527:1.0 528:1.0 529:1.0 530:1.0 531:1.0 532:1.0 533:1.0 534:1.0 535:1.0 536:1.0 537:1.0 538:1.0 539:0.0 540:0.0 541:0.0 542:1.0 543:1.0 544:1.0 545:1.0 546:1.0 547:1.0 548:1.0 549:1.0 550:1.0 551:1.0 552:1.0 553:1.0 554:1.0 555:1.0 556:1.0 557:1.0 558:1.0 559:1.0 560:1.0 561:1.0 562:1.0 563:0.0 564:0.0 565:0.0 566:1.0 567:1.0 568:1.0 569:1.0 570:1.0 571:1.0 572:1.0 573:1.0 574:1.0 575:1.0 576:1.0 
-0.007050731263752927 -0.008877164890400345 0.005031602402745588 0.0 0.002201613613916953 0.007421648505028662 0.0067834049001559565 0.010967111490095426 0.0 0.0 0.0036697709339791576 0.003291692631697033 0.0026770107640163615 0.008352900528161815 0.0054121052005507 0.0018846635789129234 0.0 0.010600049832600912 0.002323375797583465 0.00276655322102149 0.004367699941525876 0.006817101108017997 0.003220710873332188 0.0033687103543556768 4.919732933337237E-4 0.006764953795557215 0.0049880161843932035 0.0045196139175314705 1:0.0 2:0.0 3:0.0 4:0.0 5:0.0 6:0.0 7:0.0 8:0.0 9:0.0 10:0.0 11:0.0 12:0.0 13:0.0 14:0.0 15:0.0 16:0.0 17:0.0 18:0.0 19:0.0 20:0.0 21:0.0 22:1.0 23:1.0 24:1.0 25:0.0 26:0.0 27:0.0 28:0.0 29:0.0 30:0.0 31:0.0 32:0.0 33:0.0 34:0.0 35:0.0 36:0.0 37:0.0 38:0.0 39:0.0 40:0.0 41:0.0 42:0.0 43:0.0 44:0.0 45:0.0 46:1.0 47:1.0 48:1.0 49:0.0 50:0.0 51:0.0 52:0.0 53:0.0 54:0.0 55:0.0 56:0.0 57:0.0 58:0.0 59:0.0 60:0.0 61:0.0 62:0.0 63:0.0 64:0.0 65:0.0 66:0.0 67:0.0 68:0.0 69:0.0 70:1.0 71:1.0 72:1.0 73:0.0 74:0.0 75:1.0 76:1.0 77:1.0 78:0.0 79:0.0 80:0.0 81:0.0 82:0.0 83:0.0 84:0.0 85:0.0 86:0.0 87:0.0 88:0.0 89:0.0 90:0.0 91:0.0 92:0.0 93:0.0 94:0.0 95:0.0 96:0.0 97:0.0 98:0.0 99:1.0 100:1.0 101:1.0 102:0.0 103:0.0 104:0.0 105:0.0 106:0.0 107:0.0 108:0.0 109:0.0 110:0.0 111:0.0 112:0.0 113:0.0 114:0.0 115:0.0 116:0.0 117:0.0 118:0.0 119:0.0 120:0.0 121:0.0 122:0.0 123:1.0 124:1.0 125:1.0 126:0.0 127:0.0 128:0.0 129:0.0 130:0.0 131:0.0 132:0.0 133:0.0 134:0.0 135:0.0 136:0.0 137:0.0 138:0.0 139:0.0 140:0.0 141:0.0 142:0.0 143:0.0 144:0.0 145:1.0 146:1.0 147:0.0 148:0.0 149:0.0 150:0.0 151:0.0 152:0.0 153:0.0 154:0.0 155:1.0 156:1.0 157:1.0 158:0.0 159:0.0 160:0.0 161:0.0 162:0.0 163:0.0 164:0.0 165:0.0 166:0.0 167:0.0 168:0.0 169:1.0 170:1.0 171:0.0 172:0.0 173:0.0 174:0.0 175:0.0 176:0.0 177:0.0 178:0.0 179:1.0 180:1.0 181:1.0 182:0.0 183:0.0 184:0.0 185:0.0 186:0.0 187:0.0 188:0.0 189:0.0 190:0.0 191:0.0 192:0.0 193:1.0 194:1.0 195:0.0 196:0.0 197:0.0 198:0.0 199:0.0 200:0.0 201:0.0 202:0.0 203:1.0 204:1.0 205:1.0 206:0.0 207:0.0 208:0.0 209:0.0 210:0.0 211:0.0 212:0.0 213:0.0 214:0.0 215:0.0 216:0.0 217:1.0 218:1.0 219:0.0 220:0.0 221:0.0 222:0.0 223:0.0 224:0.0 225:0.0 226:0.0 227:1.0 228:1.0 229:1.0 230:0.0 231:0.0 232:0.0 233:0.0 234:0.0 235:0.0 236:0.0 237:0.0 238:0.0 239:0.0 240:0.0 241:1.0 242:1.0 243:0.0 244:0.0 245:0.0 246:0.0 247:0.0 248:0.0 249:0.0 250:0.0 251:1.0 252:1.0 253:1.0 254:1.0 255:1.0 256:1.0 257:0.0 258:0.0 259:0.0 260:0.0 261:0.0 262:0.0 263:0.0 264:0.0 265:1.0 266:1.0 267:0.0 268:0.0 269:0.0 270:0.0 271:0.0 272:0.0 273:0.0 274:0.0 275:1.0 276:1.0 277:1.0 278:1.0 279:1.0 280:1.0 281:0.0 282:0.0 283:0.0 284:0.0 285:0.0 286:0.0 287:0.0 288:0.0 289:1.0 290:1.0 291:0.0 292:0.0 293:0.0 294:0.0 295:0.0 296:0.0 297:0.0 298:0.0 299:1.0 300:1.0 301:1.0 302:1.0 303:1.0 304:1.0 305:0.0 306:0.0 307:0.0 308:0.0 309:0.0 310:0.0 311:0.0 312:0.0 313:1.0 314:1.0 315:0.0 316:0.0 317:0.0 318:0.0 319:0.0 320:0.0 321:0.0 322:0.0 323:1.0 324:1.0 325:1.0 326:1.0 327:1.0 328:1.0 329:0.0 330:0.0 331:0.0 332:0.0 333:0.0 334:0.0 335:0.0 336:0.0 337:1.0 338:1.0 339:0.0 340:0.0 341:0.0 342:0.0 343:0.0 344:0.0 345:0.0 346:0.0 347:1.0 348:1.0 349:1.0 350:1.0 351:1.0 352:1.0 353:0.0 354:0.0 355:0.0 356:0.0 357:0.0 358:0.0 359:0.0 360:0.0 361:1.0 362:1.0 363:0.0 364:0.0 365:0.0 366:0.0 367:0.0 368:0.0 369:0.0 370:0.0 371:1.0 372:1.0 373:1.0 374:1.0 375:1.0 376:1.0 377:0.0 378:0.0 379:0.0 380:0.0 381:0.0 382:0.0 383:0.0 384:0.0 385:1.0 386:1.0 387:0.0 388:0.0 389:0.0 390:0.0 391:0.0 392:0.0 393:0.0 394:0.0 395:1.0 396:1.0 397:1.0 398:1.0 399:1.0 400:1.0 401:0.0 402:0.0 403:0.0 404:0.0 405:0.0 406:0.0 407:0.0 408:0.0 409:0.0 410:0.0 411:1.0 412:1.0 413:1.0 414:0.0 415:0.0 416:0.0 417:1.0 418:1.0 419:1.0 420:1.0 421:1.0 422:1.0 423:1.0 424:1.0 425:1.0 426:1.0 427:1.0 428:1.0 429:1.0 430:1.0 431:1.0 432:1.0 433:0.0 434:0.0 435:1.0 436:1.0 437:1.0 438:0.0 439:0.0 440:0.0 441:1.0 442:1.0 443:1.0 444:1.0 445:1.0 446:1.0 447:1.0 448:1.0 449:1.0 450:1.0 451:1.0 452:1.0 453:1.0 454:1.0 455:1.0 456:1.0 457:0.0 458:0.0 459:1.0 460:1.0 461:1.0 462:0.0 463:0.0 464:0.0 465:1.0 466:1.0 467:1.0 468:1.0 469:1.0 470:1.0 471:1.0 472:1.0 473:1.0 474:1.0 475:1.0 476:1.0 477:1.0 478:1.0 479:1.0 480:1.0 481:0.0 482:0.0 483:1.0 484:1.0 485:1.0 486:1.0 487:1.0 488:1.0 489:1.0 490:1.0 491:1.0 492:1.0 493:1.0 494:0.0 495:0.0 496:0.0 497:1.0 498:1.0 499:1.0 500:1.0 501:1.0 502:1.0 503:1.0 504:1.0 505:0.0 506:0.0 507:1.0 508:1.0 509:1.0 510:1.0 511:1.0 512:1.0 513:1.0 514:1.0 515:1.0 516:1.0 517:1.0 518:0.0 519:0.0 520:0.0 521:1.0 522:1.0 523:1.0 524:1.0 525:1.0 526:1.0 527:1.0 528:1.0 529:0.0 530:0.0 531:1.0 532:1.0 533:1.0 534:1.0 535:1.0 536:1.0 537:1.0 538:1.0 539:1.0 540:1.0 541:1.0 542:0.0 543:0.0 544:0.0 545:1.0 546:1.0 547:1.0 548:1.0 549:1.0 550:1.0 551:1.0 552:1.0 553:0.0 554:0.0 555:1.0 556:1.0 557:1.0 558:1.0 559:1.0 560:1.0 561:1.0 562:1.0 563:1.0 564:1.0 565:1.0 566:0.0 567:0.0 568:0.0 569:1.0 570:1.0 571:1.0 572:1.0 573:1.0 574:1.0 575:1.0 576:1.0 
-0.0 -0.0 9.723897710097181E-4 0.02203840350177664 0.0025697857452091195 0.0 7.825953808172828E-4 0.0 0.006238967618705988 0.0032645956922966787 0.0 0.0 0.0028505573181386097 0.0 0.0016565725541626568 0.0059077647480521855 0.002595935599172143 0.0 0.004005690135916253 0.0014992214539337014 0.00193307929809244 0.009042485810049761 0.0 0.002164925204601032 0.00438894303533837 0.004225485901146319 0.0015352004014696336 0.0 1:0.0 2:0.0 3:0.0 4:0.0 5:0.0 6:0.0 7:0.0 8:0.0 9:0.0 10:0.0 11:0.0 12:0.0 13:0.0 14:0.0 15:0.0 16:0.0 17:0.0 18:0.0 19:0.0 20:0.0 21:0.0 22:1.0 23:1.0 24:1.0 25:0.0 26:0.0 27:0.0 28:0.0 29:0.0 30:0.0 31:0.0 32:0.0 33:0.0 34:0.0 35:0.0 36:0.0 37:0.0 38:0.0 39:0.0 40:0.0 41:0.0 42:0.0 43:0.0 44:0.0 45:0.0 46:1.0 47:1.0 48:1.0 49:0.0 50:0.0 51:0.0 52:0.0 53:0.0 54:0.0 55:0.0 56:0.0 57:0.0 58:0.0 59:0.0 60:0.0 61:0.0 62:0.0 63:0.0 64:0.0 65:0.0 66:0.0 67:0.0 68:0.0 69:0.0 70:1.0 71:1.0 72:1.0 73:0.0 74:0.0 75:1.0 76:1.0 77:1.0 78:0.0 79:0.0 80:0.0 81:0.0 82:0.0 83:1.0 84:1.0 85:1.0 86:0.0 87:0.0 88:0.0 89:0.0 90:0.0 91:0.0 92:0.0 93:0.0 94:0.0 95:0.0 96:0.0 97:0.0 98:0.0 99:1.0 100:1.0 101:1.0 102:0.0 103:0.0 104:0.0 105:0.0 106:0.0 107:1.0 108:1.0 109:1.0 110:0.0 111:0.0 112:0.0 113:0.0 114:0.0 115:0.0 116:0.0 117:0.0 118:0.0 119:0.0 120:0.0 121:0.0 122:0.0 123:1.0 124:1.0 125:1.0 126:0.0 127:0.0 128:0.0 129:0.0 130:0.0 131:1.0 132:1.0 133:1.0 134:0.0 135:0.0 136:0.0 137:0.0 138:0.0 139:0.0 140:0.0 141:0.0 142:0.0 143:0.0 144:0.0 145:1.0 146:1.0 147:0.0 148:0.0 149:0.0 150:0.0 151:0.0 152:0.0 153:0.0 154:0.0 155:1.0 156:1.0 157:1.0 158:0.0 159:0.0 160:0.0 161:0.0 162:0.0 163:0.0 164:0.0 165:0.0 166:0.0 167:0.0 168:0.0 169:1.0 170:1.0 171:0.0 172:0.0 173:0.0 174:0.0 175:0.0 176:0.0 177:0.0 178:0.0 179:1.0 180:1.0 181:1.0 182:0.0 183:0.0 184:0.0 185:0.0 186:0.0 187:0.0 188:0.0 189:0.0 190:0.0 191:0.0 192:0.0 193:1.0 194:1.0 195:0.0 196:0.0 197:0.0 198:0.0 199:0.0 200:0.0 201:0.0 202:0.0 203:1.0 204:1.0 205:1.0 206:0.0 207:0.0 208:0.0 209:0.0 210:0.0 211:0.0 212:0.0 213:0.0 214:0.0 215:0.0 216:0.0 217:1.0 218:1.0 219:0.0 220:0.0 221:0.0 222:0.0 223:0.0 224:0.0 225:0.0 226:0.0 227:1.0 228:1.0 229:1.0 230:0.0 231:0.0 232:0.0 233:0.0 234:0.0 235:0.0 236:0.0 237:0.0 238:0.0 239:0.0 240:0.0 241:1.0 242:1.0 243:0.0 244:0.0 245:0.0 246:0.0 247:0.0 248:0.0 249:0.0 250:0.0 251:1.0 252:1.0 253:1.0 254:0.0 255:0.0 256:0.0 257:0.0 258:0.0 259:0.0 260:0.0 261:0.0 262:0.0 263:0.0 264:0.0 265:1.0 266:1.0 267:0.0 268:0.0 269:0.0 270:0.0 271:0.0 272:0.0 273:0.0 274:0.0 275:1.0 276:1.0 277:1.0 278:0.0 279:0.0 280:0.0 281:0.0 282:0.0 283:0.0 284:0.0 285:0.0 286:0.0 287:0.0 288:0.0 289:1.0 290:1.0 291:0.0 292:0.0 293:0.0 294:0.0 295:0.0 296:0.0 297:0.0 298:0.0 299:1.0 300:1.0 301:1.0 302:0.0 303:0.0 304:0.0 305:0.0 306:0.0 307:0.0 308:0.0 309:0.0 310:0.0 311:0.0 312:0.0 313:1.0 314:1.0 315:0.0 316:0.0 317:0.0 318:0.0 319:0.0 320:0.0 321:0.0 322:0.0 323:1.0 324:1.0 325:1.0 326:1.0 327:1.0 328:1.0 329:0.0 330:0.0 331:0.0 332:0.0 333:0.0 334:0.0 335:0.0 336:0.0 337:1.0 338:1.0 339:0.0 340:0.0 341:0.0 342:0.0 343:0.0 344:0.0 345:0.0 346:0.0 347:1.0 348:1.0 349:1.0 350:1.0 351:1.0 352:1.0 353:0.0 354:0.0 355:0.0 356:0.0 357:0.0 358:0.0 359:0.0 360:0.0 361:1.0 362:1.0 363:0.0 364:0.0 365:0.0 366:0.0 367:0.0 368:0.0 369:0.0 370:0.0 371:1.0 372:1.0 373:1.0 374:1.0 375:1.0 376:1.0 377:0.0 378:0.0 379:0.0 380:0.0 381:0.0 382:0.0 383:0.0 384:0.0 385:1.0 386:1.0 387:0.0 388:0.0 389:0.0 390:0.0 391:0.0 392:0.0 393:0.0 394:0.0 395:1.0 396:1.0 397:1.0 398:1.0 399:1.0 400:1.0 401:0.0 402:0.0 403:0.0 404:0.0 405:0.0 406:0.0 407:0.0 408:0.0 409:0.0 410:0.0 411:1.0 412:1.0 413:1.0 414:0.0 415:0.0 416:0.0 417:1.0 418:1.0 419:1.0 420:1.0 421:1.0 422:1.0 423:1.0 424:1.0 425:1.0 426:1.0 427:1.0 428:1.0 429:1.0 430:1.0 431:1.0 432:1.0 433:0.0 434:0.0 435:1.0 436:1.0 437:1.0 438:0.0 439:0.0 440:0.0 441:1.0 442:1.0 443:1.0 444:1.0 445:1.0 446:1.0 447:1.0 448:1.0 449:1.0 450:1.0 451:1.0 452:1.0 453:1.0 454:1.0 455:1.0 456:1.0 457:0.0 458:0.0 459:1.0 460:1.0 461:1.0 462:0.0 463:0.0 464:0.0 465:1.0 466:1.0 467:1.0 468:1.0 469:1.0 470:1.0 471:1.0 472:1.0 473:1.0 474:1.0 475:1.0 476:1.0 477:1.0 478:1.0 479:1.0 480:1.0 481:0.0 482:0.0 483:1.0 484:1.0 485:1.0 486:1.0 487:1.0 488:1.0 489:1.0 490:1.0 491:0.0 492:0.0 493:0.0 494:0.0 495:0.0 496:0.0 497:1.0 498:1.0 499:1.0 500:1.0 501:1.0 502:1.0 503:1.0 504:1.0 505:0.0 506:0.0 507:1.0 508:1.0 509:1.0 510:1.0 511:1.0 512:1.0 513:1.0 514:1.0 515:0.0 516:0.0 517:0.0 518:0.0 519:0.0 520:0.0 521:1.0 522:1.0 523:1.0 524:1.0 525:1.0 526:1.0 527:1.0 528:1.0 529:0.0 530:0.0 531:1.0 532:1.0 533:1.0 534:1.0 535:1.0 536:1.0 537:1.0 538:1.0 539:0.0 540:0.0 541:0.0 542:0.0 543:0.0 544:0.0 545:1.0 546:1.0 547:1.0 548:1.0 549:1.0 550:1.0 551:1.0 552:1.0 553:0.0 554:0.0 555:1.0 556:1.0 557:1.0 558:1.0 559:1.0 560:1.0 561:1.0 562:1.0 563:0.0 564:0.0 565:0.0 566:0.0 567:0.0 568:0.0 569:1.0 570:1.0 571:1.0 572:1.0 573:1.0 574:1.0 575:1.0 576:1.0 
-0.004833427331051084 -0.008043828475371082 0.005074685392099454 0.01628612449571004 0.005200525069545733 0.005942576699666074 0.0024874278208193296 0.006797986221065367 0.0038568163461091577 0.003798597190584381 0.007242968948643071 0.0035999257294157517 0.007119038557887807 0.008312366710209627 0.007276237237827673 0.0031094453770882237 0.0036609289296916456 0.006887461499349209 0.0021168637510735246 0.0035242555779640143 0.006165142931286503 0.005625800382176958 0.004365888147512689 0.00370690842858305 0.001777095961709091 0.005012573447640717 0.0041044167844171975 0.004948990097433505 1:0.0 2:0.0 3:1.0 4:1.0 5:1.0 6:0.0 7:0.0 8:0.0 9:0.0 10:0.0 11:0.0 12:0.0 13:0.0 14:0.0 15:0.0 16:0.0 17:0.0 18:0.0 19:0.0 20:0.0 21:0.0 22:1.0 23:1.0 24:1.0 25:0.0 26:0.0 27:1.0 28:1.0 29:1.0 30:0.0 31:0.0 32:0.0 33:0.0 34:0.0 35:0.0 36:0.0 37:0.0 38:0.0 39:0.0 40:0.0 41:0.0 42:0.0 43:0.0 44:0.0 45:0.0 46:1.0 47:1.0 48:1.0 49:0.0 50:0.0 51:1.0 52:1.0 53:1.0 54:0.0 55:0.0 56:0.0 57:0.0 58:0.0 59:0.0 60:0.0 61:0.0 62:0.0 63:0.0 64:0.0 65:0.0 66:0.0 67:0.0 68:0.0 69:0.0 70:1.0 71:1.0 72:1.0 73:0.0 74:0.0 75:1.0 76:1.0 77:1.0 78:0.0 79:0.0 80:0.0 81:0.0 82:0.0 83:0.0 84:0.0 85:0.0 86:0.0 87:0.0 88:0.0 89:0.0 90:0.0 91:0.0 92:0.0 93:0.0 94:1.0 95:1.0 96:1.0 97:1.0 98:1.0 99:0.0 100:0.0 101:0.0 102:0.0 103:0.0 104:0.0 105:0.0 106:0.0 107:1.0 108:1.0 109:1.0 110:0.0 111:0.0 112:0.0 113:0.0 114:0.0 115:0.0 116:0.0 117:0.0 118:0.0 119:0.0 120:0.0 121:1.0 122:1.0 123:0.0 124:0.0 125:0.0 126:0.0 127:0.0 128:0.0 129:0.0 130:0.0 131:1.0 132:1.0 133:1.0 134:0.0 135:0.0 136:0.0 137:0.0 138:0.0 139:0.0 140:0.0 141:0.0 142:0.0 143:0.0 144:0.0 145:1.0 146:1.0 147:0.0 148:0.0 149:0.0 150:0.0 151:0.0 152:0.0 153:0.0 154:0.0 155:1.0 156:1.0 157:1.0 158:0.0 159:0.0 160:0.0 161:0.0 162:0.0 163:0.0 164:0.0 165:0.0 166:0.0 167:0.0 168:0.0 169:1.0 170:1.0 171:0.0 172:0.0 173:0.0 174:0.0 175:0.0 176:0.0 177:0.0 178:0.0 179:1.0 180:1.0 181:1.0 182:0.0 183:0.0 184:0.0 185:0.0 186:0.0 187:0.0 188:0.0 189:0.0 190:0.0 191:0.0 192:0.0 193:1.0 194:1.0 195:0.0 196:0.0 197:0.0 198:0.0 199:0.0 200:0.0 201:0.0 202:0.0 203:1.0 204:1.0 205:1.0 206:0.0 207:0.0 208:0.0 209:0.0 210:0.0 211:0.0 212:0.0 213:0.0 214:0.0 215:0.0 216:0.0 217:1.0 218:1.0 219:0.0 220:0.0 221:0.0 222:0.0 223:0.0 224:0.0 225:0.0 226:0.0 227:1.0 228:1.0 229:1.0 230:0.0 231:0.0 232:0.0 233:0.0 234:0.0 235:0.0 236:0.0 237:0.0 238:0.0 239:0.0 240:0.0 241:1.0 242:1.0 243:0.0 244:0.0 245:0.0 246:0.0 247:0.0 248:0.0 249:0.0 250:0.0 251:1.0 252:1.0 253:1.0 254:0.0 255:0.0 256:0.0 257:0.0 258:0.0 259:0.0 260:0.0 261:0.0 262:0.0 263:0.0 264:0.0 265:1.0 266:1.0 267:0.0 268:0.0 269:0.0 270:0.0 271:0.0 272:0.0 273:0.0 274:0.0 275:1.0 276:1.0 277:1.0 278:0.0 279:0.0 280:0.0 281:0.0 282:0.0 283:0.0 284:0.0 285:0.0 286:0.0 287:0.0 288:0.0 289:1.0 290:1.0 291:0.0 292:0.0 293:0.0 294:0.0 295:0.0 296:0.0 297:0.0 298:0.0 299:1.0 300:1.0 301:1.0 302:0.0 303:0.0 304:0.0 305:0.0 306:0.0 307:0.0 308:0.0 309:0.0 310:0.0 311:0.0 312:0.0 313:1.0 314:1.0 315:0.0 316:0.0 317:0.0 318:0.0 319:0.0 320:0.0 321:0.0 322:0.0 323:1.0 324:1.0 325:1.0 326:0.0 327:0.0 328:0.0 329:0.0 330:0.0 331:0.0 332:0.0 333:0.0 334:0.0 335:0.0 336:0.0 337:1.0 338:1.0 339:0.0 340:0.0 341:0.0 342:0.0 343:0.0 344:0.0 345:0.0 346:0.0 347:1.0 348:1.0 349:1.0 350:0.0 351:0.0 352:0.0 353:0.0 354:0.0 355:0.0 356:0.0 357:0.0 358:0.0 359:0.0 360:0.0 361:1.0 362:1.0 363:0.0 364:0.0 365:0.0 366:0.0 367:0.0 368:0.0 369:0.0 370:0.0 371:1.0 372:1.0 373:1.0 374:0.0 375:0.0 376:0.0 377:0.0 378:0.0 379:0.0 380:0.0 381:0.0 382:0.0 383:0.0 384:0.0 385:1.0 386:1.0 387:0.0 388:0.0 389:0.0 390:0.0 391:0.0 392:0.0 393:1.0 394:1.0 395:1.0 396:1.0 397:1.0 398:1.0 399:1.0 400:1.0 401:0.0 402:0.0 403:0.0 404:0.0 405:0.0 406:1.0 407:1.0 408:1.0 409:1.0 410:1.0 411:0.0 412:0.0 413:0.0 414:0.0 415:0.0 416:0.0 417:1.0 418:1.0 419:1.0 420:1.0 421:1.0 422:1.0 423:1.0 424:1.0 425:0.0 426:0.0 427:0.0 428:0.0 429:0.0 430:1.0 431:1.0 432:1.0 433:1.0 434:1.0 435:0.0 436:0.0 437:0.0 438:0.0 439:0.0 440:0.0 441:1.0 442:1.0 443:1.0 444:1.0 445:1.0 446:1.0 447:1.0 448:1.0 449:0.0 450:0.0 451:0.0 452:0.0 453:0.0 454:1.0 455:1.0 456:1.0 457:1.0 458:1.0 459:0.0 460:0.0 461:0.0 462:0.0 463:0.0 464:0.0 465:1.0 466:1.0 467:1.0 468:1.0 469:1.0 470:1.0 471:1.0 472:1.0 473:0.0 474:0.0 475:0.0 476:0.0 477:0.0 478:1.0 479:1.0 480:1.0 481:1.0 482:1.0 483:1.0 484:1.0 485:1.0 486:1.0 487:1.0 488:1.0 489:1.0 490:1.0 491:0.0 492:0.0 493:0.0 494:1.0 495:1.0 496:1.0 497:1.0 498:1.0 499:1.0 500:1.0 501:1.0 502:1.0 503:1.0 504:1.0 505:1.0 506:1.0 507:1.0 508:1.0 509:1.0 510:1.0 511:1.0 512:1.0 513:1.0 514:1.0 515:0.0 516:0.0 517:0.0 518:1.0 519:1.0 520:1.0 521:1.0 522:1.0 523:1.0 524:1.0 525:1.0 526:1.0 527:1.0 528:1.0 529:1.0 530:1.0 531:1.0 532:1.0 533:1.0 534:1.0 535:1.0 536:1.0 537:1.0 538:1.0 539:0.0 540:0.0 541:0.0 542:1.0 543:1.0 544:1.0 545:1.0 546:1.0 547:1.0 548:1.0 549:1.0 550:1.0 551:1.0 552:1.0 553:1.0 554:1.0 555:1.0 556:1.0 557:1.0 558:1.0 559:1.0 560:1.0 561:1.0 562:1.0 563:0.0 564:0.0 565:0.0 566:1.0 567:1.0 568:1.0 569:1.0 570:1.0 571:1.0 572:1.0 573:1.0 574:1.0 575:1.0 576:1.0 
-0.0 -1.7052660399462192E-5 -0.0 0.0 0.0 0.0 0.0 0.0 0.0 0.0 0.0 0.0 0.0 0.0 0.0 0.0 0.0 0.0 0.0 0.0 0.0 0.0 0.0 0.0 0.0 0.0 0.0 0.0 1:0.0 2:0.0 3:0.0 4:0.0 5:0.0 6:0.0 7:0.0 8:0.0 9:0.0 10:0.0 11:0.0 12:0.0 13:0.0 14:1.0 15:1.0 16:1.0 17:1.0 18:1.0 19:0.0 20:0.0 21:0.0 22:0.0 23:0.0 24:0.0 25:0.0 26:0.0 27:0.0 28:0.0 29:0.0 30:0.0 31:0.0 32:0.0 33:0.0 34:0.0 35:0.0 36:0.0 37:0.0 38:1.0 39:1.0 40:1.0 41:1.0 42:1.0 43:0.0 44:0.0 45:0.0 46:0.0 47:0.0 48:0.0 49:0.0 50:0.0 51:0.0 52:0.0 53:0.0 54:0.0 55:0.0 56:0.0 57:0.0 58:0.0 59:0.0 60:0.0 61:0.0 62:1.0 63:1.0 64:1.0 65:1.0 66:1.0 67:0.0 68:0.0 69:0.0 70:0.0 71:0.0 72:0.0 73:0.0 74:0.0 75:0.0 76:0.0 77:0.0 78:0.0 79:0.0 80:0.0 81:0.0 82:0.0 83:0.0 84:0.0 85:0.0 86:1.0 87:1.0 88:1.0 89:1.0 90:1.0 91:0.0 92:0.0 93:0.0 94:0.0 95:0.0 96:0.0 97:0.0 98:0.0 99:0.0 100:0.0 101:0.0 102:0.0 103:0.0 104:0.0 105:1.0 106:1.0 107:1.0 108:1.0 109:1.0 110:0.0 111:0.0 112:0.0 113:1.0 114:1.0 115:0.0 116:0.0 117:0.0 118:0.0 119:0.0 120:0.0 121:0.0 122:0.0 123:0.0 124:0.0 125:0.0 126:0.0 127:0.0 128:0.0 129:1.0 130:1.0 131:1.0 132:1.0 133:1.0 134:0.0 135:0.0 136:0.0 137:1.0 138:1.0 139:0.0 140:0.0 141:0.0 142:0.0 143:0.0 144:0.0 145:0.0 146:0.0 147:0.0 148:0.0 149:0.0 150:0.0 151:0.0 152:0.0 153:1.0 154:1.0 155:1.0 156:1.0 157:1.0 158:0.0 159:0.0 160:0.0 161:1.0 162:1.0 163:0.0 164:0.0 165:0.0 166:0.0 167:0.0 168:0.0 169:0.0 170:0.0 171:0.0 172:0.0 173:0.0 174:0.0 175:0.0 176:0.0 177:1.0 178:1.0 179:1.0 180:1.0 181:1.0 182:0.0 183:0.0 184:0.0 185:1.0 186:1.0 187:0.0 188:0.0 189:0.0 190:0.0 191:0.0 192:0.0 193:0.0 194:0.0 195:0.0 196:0.0 197:0.0 198:0.0 199:0.0 200:0.0 201:1.0 202:1.0 203:1.0 204:1.0 205:1.0 206:0.0 207:0.0 208:0.0 209:1.0 210:1.0 211:0.0 212:0.0 213:0.0 214:0.0 215:0.0 216:0.0 217:0.0 218:0.0 219:1.0 220:1.0 221:1.0 222:1.0 223:1.0 224:1.0 225:0.0 226:0.0 227:0.0 228:0.0 229:0.0 230:0.0 231:0.0 232:0.0 233:1.0 234:1.0 235:0.0 236:0.0 237:0.0 238:0.0 239:0.0 240:0.0 241:0.0 242:0.0 243:1.0 244:1.0 245:1.0 246:1.0 247:1.0 248:1.0 249:0.0 250:0.0 251:0.0 252:0.0 253:0.0 254:0.0 255:0.0 256:0.0 257:1.0 258:1.0 259:0.0 260:0.0 261:0.0 262:0.0 263:0.0 264:0.0 265:0.0 266:0.0 267:1.0 268:1.0 269:1.0 270:1.0 271:1.0 272:1.0 273:0.0 274:0.0 275:0.0 276:0.0 277:0.0 278:0.0 279:0.0 280:0.0 281:1.0 282:1.0 283:0.0 284:0.0 285:0.0 286:0.0 287:0.0 288:0.0 289:0.0 290:0.0 291:1.0 292:1.0 293:1.0 294:1.0 295:1.0 296:1.0 297:0.0 298:0.0 299:0.0 300:0.0 301:0.0 302:0.0 303:0.0 304:0.0 305:1.0 306:1.0 307:0.0 308:0.0 309:0.0 310:0.0 311:0.0 312:0.0 313:0.0 314:0.0 315:1.0 316:1.0 317:1.0 318:1.0 319:1.0 320:1.0 321:0.0 322:0.0 323:0.0 324:0.0 325:0.0 326:0.0 327:0.0 328:0.0 329:1.0 330:1.0 331:0.0 332:0.0 333:0.0 334:0.0 335:0.0 336:0.0 337:1.0 338:1.0 339:1.0 340:1.0 341:1.0 342:1.0 343:1.0 344:1.0 345:1.0 346:1.0 347:1.0 348:1.0 349:1.0 350:1.0 351:1.0 352:1.0 353:1.0 354:1.0 355:1.0 356:1.0 357:1.0 358:1.0 359:1.0 360:1.0 361:1.0 362:1.0 363:1.0 364:1.0 365:1.0 366:1.0 367:1.0 368:1.0 369:1.0 370:1.0 371:1.0 372:1.0 373:1.0 374:1.0 375:1.0 376:1.0 377:1.0 378:1.0 379:1.0 380:1.0 381:1.0 382:1.0 383:1.0 384:1.0 385:1.0 386:1.0 387:1.0 388:1.0 389:1.0 390:1.0 391:1.0 392:1.0 393:1.0 394:1.0 395:1.0 396:1.0 397:1.0 398:1.0 399:1.0 400:1.0 401:1.0 402:1.0 403:1.0 404:1.0 405:1.0 406:1.0 407:1.0 408:1.0 409:1.0 410:1.0 411:1.0 412:1.0 413:1.0 414:1.0 415:1.0 416:1.0 417:1.0 418:1.0 419:1.0 420:1.0 421:1.0 422:1.0 423:1.0 424:1.0 425:1.0 426:1.0 427:1.0 428:1.0 429:1.0 430:1.0 431:1.0 432:1.0 433:1.0 434:1.0 435:1.0 436:1.0 437:1.0 438:1.0 439:1.0 440:1.0 441:1.0 442:1.0 443:1.0 444:1.0 445:1.0 446:1.0 447:1.0 448:1.0 449:1.0 450:1.0 451:1.0 452:1.0 453:1.0 454:1.0 455:1.0 456:1.0 457:1.0 458:1.0 459:1.0 460:1.0 461:1.0 462:1.0 463:1.0 464:1.0 465:1.0 466:1.0 467:1.0 468:1.0 469:1.0 470:1.0 471:1.0 472:1.0 473:1.0 474:1.0 475:1.0 476:1.0 477:1.0 478:1.0 479:1.0 480:1.0 481:1.0 482:1.0 483:1.0 484:1.0 485:1.0 486:1.0 487:1.0 488:1.0 489:1.0 490:1.0 491:1.0 492:1.0 493:1.0 494:1.0 495:1.0 496:1.0 497:1.0 498:1.0 499:1.0 500:1.0 501:1.0 502:1.0 503:1.0 504:1.0 505:1.0 506:1.0 507:1.0 508:1.0 509:1.0 510:1.0 511:1.0 512:1.0 513:1.0 514:1.0 515:1.0 516:1.0 517:1.0 518:1.0 519:1.0 520:1.0 521:1.0 522:1.0 523:1.0 524:1.0 525:1.0 526:1.0 527:1.0 528:1.0 529:1.0 530:1.0 531:1.0 532:1.0 533:1.0 534:1.0 535:1.0 536:1.0 537:1.0 538:1.0 539:1.0 540:1.0 541:1.0 542:1.0 543:1.0 544:1.0 545:1.0 546:1.0 547:1.0 548:1.0 549:1.0 550:1.0 551:1.0 552:1.0 553:1.0 554:1.0 555:1.0 556:1.0 557:1.0 558:1.0 559:1.0 560:1.0 561:1.0 562:1.0 563:1.0 564:1.0 565:1.0 566:1.0 567:1.0 568:1.0 569:1.0 570:1.0 571:1.0 572:1.0 573:1.0 574:1.0 575:1.0 576:1.0 
-0.007097370615498787 -0.007150384999361659 -0.0042490897885791076 0.0 0.002693203472552373 0.0060753285983535495 0.0 0.009069098429120643 0.0029039681263360365 0.0027215761403559355 0.0 0.001899375529779277 0.001007136798658681 0.001821875467308203 0.0 0.0 0.0 0.0 0.0 0.0024188913223978565 0.0025512766177396124 0.0025553507424341134 0.0037373701831115097 0.0 0.0 0.0 0.0 0.005558166328719144 1:0.0 2:0.0 3:0.0 4:0.0 5:0.0 6:0.0 7:0.0 8:0.0 9:0.0 10:0.0 11:0.0 12:0.0 13:0.0 14:0.0 15:0.0 16:0.0 17:1.0 18:1.0 19:0.0 20:0.0 21:0.0 22:0.0 23:0.0 24:0.0 25:0.0 26:0.0 27:0.0 28:0.0 29:0.0 30:0.0 31:0.0 32:0.0 33:0.0 34:0.0 35:0.0 36:0.0 37:0.0 38:0.0 39:0.0 40:0.0 41:1.0 42:1.0 43:0.0 44:0.0 45:0.0 46:0.0 47:0.0 48:0.0 49:0.0 50:0.0 51:0.0 52:0.0 53:0.0 54:0.0 55:0.0 56:0.0 57:0.0 58:0.0 59:0.0 60:0.0 61:0.0 62:0.0 63:0.0 64:0.0 65:1.0 66:1.0 67:0.0 68:0.0 69:0.0 70:0.0 71:0.0 72:0.0 73:0.0 74:0.0 75:0.0 76:0.0 77:0.0 78:0.0 79:0.0 80:0.0 81:0.0 82:0.0 83:0.0 84:0.0 85:0.0 86:0.0 87:0.0 88:0.0 89:1.0 90:1.0 91:0.0 92:0.0 93:0.0 94:0.0 95:0.0 96:0.0 97:0.0 98:0.0 99:0.0 100:0.0 101:0.0 102:0.0 103:0.0 104:0.0 105:0.0 106:0.0 107:1.0 108:1.0 109:1.0 110:1.0 111:1.0 112:1.0 113:1.0 114:1.0 115:0.0 116:0.0 117:0.0 118:0.0 119:0.0 120:0.0 121:0.0 122:0.0 123:0.0 124:0.0 125:0.0 126:0.0 127:0.0 128:0.0 129:0.0 130:0.0 131:1.0 132:1.0 133:1.0 134:1.0 135:1.0 136:1.0 137:1.0 138:1.0 139:0.0 140:0.0 141:0.0 142:0.0 143:0.0 144:0.0 145:0.0 146:0.0 147:0.0 148:0.0 149:0.0 150:0.0 151:0.0 152:0.0 153:0.0 154:0.0 155:1.0 156:1.0 157:1.0 158:1.0 159:1.0 160:1.0 161:1.0 162:1.0 163:0.0 164:0.0 165:0.0 166:0.0 167:0.0 168:0.0 169:0.0 170:0.0 171:0.0 172:0.0 173:0.0 174:0.0 175:0.0 176:0.0 177:0.0 178:0.0 179:1.0 180:1.0 181:1.0 182:1.0 183:1.0 184:1.0 185:1.0 186:1.0 187:0.0 188:0.0 189:0.0 190:0.0 191:0.0 192:0.0 193:0.0 194:0.0 195:0.0 196:0.0 197:0.0 198:0.0 199:0.0 200:0.0 201:0.0 202:0.0 203:1.0 204:1.0 205:1.0 206:1.0 207:1.0 208:1.0 209:1.0 210:1.0 211:0.0 212:0.0 213:0.0 214:0.0 215:0.0 216:0.0 217:0.0 218:0.0 219:0.0 220:0.0 221:0.0 222:1.0 223:1.0 224:1.0 225:1.0 226:1.0 227:0.0 228:0.0 229:0.0 230:0.0 231:0.0 232:0.0 233:1.0 234:1.0 235:0.0 236:0.0 237:0.0 238:0.0 239:0.0 240:0.0 241:0.0 242:0.0 243:0.0 244:0.0 245:0.0 246:1.0 247:1.0 248:1.0 249:1.0 250:1.0 251:0.0 252:0.0 253:0.0 254:0.0 255:0.0 256:0.0 257:1.0 258:1.0 259:0.0 260:0.0 261:0.0 262:0.0 263:0.0 264:0.0 265:0.0 266:0.0 267:0.0 268:0.0 269:0.0 270:1.0 271:1.0 272:1.0 273:1.0 274:1.0 275:0.0 276:0.0 277:0.0 278:0.0 279:0.0 280:0.0 281:1.0 282:1.0 283:0.0 284:0.0 285:0.0 286:0.0 287:0.0 288:0.0 289:0.0 290:0.0 291:0.0 292:0.0 293:0.0 294:1.0 295:1.0 296:1.0 297:1.0 298:1.0 299:0.0 300:0.0 301:0.0 302:0.0 303:0.0 304:0.0 305:1.0 306:1.0 307:0.0 308:0.0 309:0.0 310:0.0 311:0.0 312:0.0 313:0.0 314:0.0 315:0.0 316:0.0 317:0.0 318:1.0 319:1.0 320:1.0 321:1.0 322:1.0 323:0.0 324:0.0 325:0.0 326:0.0 327:0.0 328:0.0 329:1.0 330:1.0 331:0.0 332:0.0 333:0.0 334:0.0 335:0.0 336:0.0 337:1.0 338:1.0 339:1.0 340:1.0 341:1.0 342:1.0 343:1.0 344:1.0 345:1.0 346:1.0 347:1.0 348:1.0 349:1.0 350:1.0 351:1.0 352:1.0 353:1.0 354:1.0 355:1.0 356:1.0 357:1.0 358:1.0 359:1.0 360:1.0 361:1.0 362:1.0 363:1.0 364:1.0 365:1.0 366:1.0 367:1.0 368:1.0 369:1.0 370:1.0 371:1.0 372:1.0 373:1.0 374:1.0 375:1.0 376:1.0 377:1.0 378:1.0 379:1.0 380:1.0 381:1.0 382:1.0 383:1.0 384:1.0 385:1.0 386:1.0 387:1.0 388:1.0 389:1.0 390:1.0 391:1.0 392:1.0 393:1.0 394:1.0 395:1.0 396:1.0 397:1.0 398:1.0 399:1.0 400:1.0 401:1.0 402:1.0 403:1.0 404:1.0 405:1.0 406:1.0 407:1.0 408:1.0 409:1.0 410:1.0 411:1.0 412:1.0 413:1.0 414:1.0 415:1.0 416:1.0 417:1.0 418:1.0 419:1.0 420:1.0 421:1.0 422:1.0 423:1.0 424:1.0 425:1.0 426:1.0 427:1.0 428:1.0 429:1.0 430:1.0 431:1.0 432:1.0 433:1.0 434:1.0 435:1.0 436:1.0 437:1.0 438:1.0 439:1.0 440:1.0 441:1.0 442:1.0 443:1.0 444:1.0 445:1.0 446:1.0 447:1.0 448:1.0 449:1.0 450:1.0 451:1.0 452:1.0 453:1.0 454:1.0 455:1.0 456:1.0 457:1.0 458:1.0 459:1.0 460:1.0 461:1.0 462:1.0 463:1.0 464:1.0 465:1.0 466:1.0 467:1.0 468:1.0 469:1.0 470:1.0 471:1.0 472:1.0 473:1.0 474:1.0 475:1.0 476:1.0 477:1.0 478:1.0 479:1.0 480:1.0 481:1.0 482:1.0 483:1.0 484:1.0 485:1.0 486:1.0 487:1.0 488:1.0 489:1.0 490:1.0 491:1.0 492:1.0 493:1.0 494:1.0 495:1.0 496:1.0 497:1.0 498:1.0 499:1.0 500:1.0 501:1.0 502:1.0 503:1.0 504:1.0 505:1.0 506:1.0 507:1.0 508:1.0 509:1.0 510:1.0 511:1.0 512:1.0 513:1.0 514:1.0 515:1.0 516:1.0 517:1.0 518:1.0 519:1.0 520:1.0 521:1.0 522:1.0 523:1.0 524:1.0 525:1.0 526:1.0 527:1.0 528:1.0 529:1.0 530:1.0 531:1.0 532:1.0 533:1.0 534:1.0 535:1.0 536:1.0 537:1.0 538:1.0 539:1.0 540:1.0 541:1.0 542:1.0 543:1.0 544:1.0 545:1.0 546:1.0 547:1.0 548:1.0 549:1.0 550:1.0 551:1.0 552:1.0 553:1.0 554:1.0 555:1.0 556:1.0 557:1.0 558:1.0 559:1.0 560:1.0 561:1.0 562:1.0 563:1.0 564:1.0 565:1.0 566:1.0 567:1.0 568:1.0 569:1.0 570:1.0 571:1.0 572:1.0 573:1.0 574:1.0 575:1.0 576:1.0 
-0.00983947072277348 -0.002447005678064926 -0.004465152393366294 0.005025507757377158 0.006693026573626145 0.002457884719367838 0.00495227001157361 0.007818409900254605 0.004035192478710068 0.004523447337975403 0.0032419379712826956 0.004007834645860101 0.004597502627563963 0.005812427606966458 0.004749301542439849 0.004081892512556127 0.002198882413773711 0.006501666275757491 0.0037109361931089036 0.005084324159096493 0.006355533916426161 0.005675780359118254 0.0033019800283545066 0.0024822365460821874 0.003162943773772747 0.004791401197066511 0.002564522097176811 0.0017835019097542184 1:0.0 2:0.0 3:0.0 4:0.0 5:0.0 6:0.0 7:0.0 8:0.0 9:0.0 10:0.0 11:0.0 12:0.0 13:0.0 14:1.0 15:1.0 16:1.0 17:1.0 18:1.0 19:0.0 20:0.0 21:0.0 22:0.0 23:0.0 24:0.0 25:0.0 26:0.0 27:0.0 28:0.0 29:0.0 30:0.0 31:0.0 32:0.0 33:0.0 34:0.0 35:0.0 36:0.0 37:0.0 38:1.0 39:1.0 40:1.0 41:1.0 42:1.0 43:0.0 44:0.0 45:0.0 46:0.0 47:0.0 48:0.0 49:0.0 50:0.0 51:0.0 52:0.0 53:0.0 54:0.0 55:0.0 56:0.0 57:0.0 58:0.0 59:0.0 60:0.0 61:0.0 62:1.0 63:1.0 64:1.0 65:1.0 66:1.0 67:0.0 68:0.0 69:0.0 70:0.0 71:0.0 72:0.0 73:0.0 74:0.0 75:0.0 76:0.0 77:0.0 78:0.0 79:0.0 80:0.0 81:0.0 82:0.0 83:0.0 84:0.0 85:0.0 86:1.0 87:1.0 88:1.0 89:1.0 90:1.0 91:0.0 92:0.0 93:0.0 94:0.0 95:0.0 96:0.0 97:0.0 98:0.0 99:0.0 100:0.0 101:0.0 102:0.0 103:0.0 104:0.0 105:1.0 106:1.0 107:1.0 108:1.0 109:1.0 110:0.0 111:0.0 112:0.0 113:1.0 114:1.0 115:0.0 116:0.0 117:0.0 118:0.0 119:0.0 120:0.0 121:0.0 122:0.0 123:0.0 124:0.0 125:0.0 126:0.0 127:0.0 128:0.0 129:1.0 130:1.0 131:1.0 132:1.0 133:1.0 134:0.0 135:0.0 136:0.0 137:1.0 138:1.0 139:0.0 140:0.0 141:0.0 142:0.0 143:0.0 144:0.0 145:0.0 146:0.0 147:0.0 148:0.0 149:0.0 150:0.0 151:0.0 152:0.0 153:1.0 154:1.0 155:1.0 156:1.0 157:1.0 158:0.0 159:0.0 160:0.0 161:1.0 162:1.0 163:0.0 164:0.0 165:0.0 166:0.0 167:0.0 168:0.0 169:0.0 170:0.0 171:0.0 172:0.0 173:0.0 174:0.0 175:0.0 176:0.0 177:1.0 178:1.0 179:1.0 180:1.0 181:1.0 182:0.0 183:0.0 184:0.0 185:1.0 186:1.0 187:0.0 188:0.0 189:0.0 190:0.0 191:0.0 192:0.0 193:0.0 194:0.0 195:0.0 196:0.0 197:0.0 198:0.0 199:0.0 200:0.0 201:1.0 202:1.0 203:1.0 204:1.0 205:1.0 206:0.0 207:0.0 208:0.0 209:1.0 210:1.0 211:0.0 212:0.0 213:0.0 214:0.0 215:0.0 216:0.0 217:0.0 218:0.0 219:1.0 220:1.0 221:1.0 222:1.0 223:1.0 224:1.0 225:0.0 226:0.0 227:0.0 228:0.0 229:0.0 230:0.0 231:0.0 232:0.0 233:1.0 234:1.0 235:0.0 236:0.0 237:0.0 238:0.0 239:0.0 240:0.0 241:0.0 242:0.0 243:1.0 244:1.0 245:1.0 246:1.0 247:1.0 248:1.0 249:0.0 250:0.0 251:0.0 252:0.0 253:0.0 254:0.0 255:0.0 256:0.0 257:1.0 258:1.0 259:0.0 260:0.0 261:0.0 262:0.0 263:0.0 264:0.0 265:0.0 266:0.0 267:1.0 268:1.0 269:1.0 270:1.0 271:1.0 272:1.0 273:0.0 274:0.0 275:0.0 276:0.0 277:0.0 278:0.0 279:0.0 280:0.0 281:1.0 282:1.0 283:0.0 284:0.0 285:0.0 286:0.0 287:0.0 288:0.0 289:0.0 290:0.0 291:1.0 292:1.0 293:1.0 294:1.0 295:1.0 296:1.0 297:0.0 298:0.0 299:0.0 300:0.0 301:0.0 302:0.0 303:0.0 304:0.0 305:1.0 306:1.0 307:0.0 308:0.0 309:0.0 310:0.0 311:0.0 312:0.0 313:0.0 314:0.0 315:1.0 316:1.0 317:1.0 318:1.0 319:1.0 320:1.0 321:0.0 322:0.0 323:0.0 324:0.0 325:0.0 326:0.0 327:0.0 328:0.0 329:1.0 330:1.0 331:0.0 332:0.0 333:0.0 334:0.0 335:0.0 336:0.0 337:1.0 338:1.0 339:1.0 340:1.0 341:1.0 342:1.0 343:1.0 344:1.0 345:1.0 346:1.0 347:1.0 348:1.0 349:1.0 350:1.0 351:1.0 352:1.0 353:1.0 354:1.0 355:1.0 356:1.0 357:1.0 358:1.0 359:1.0 360:1.0 361:1.0 362:1.0 363:1.0 364:1.0 365:1.0 366:1.0 367:1.0 368:1.0 369:1.0 370:1.0 371:1.0 372:1.0 373:1.0 374:1.0 375:1.0 376:1.0 377:1.0 378:1.0 379:1.0 380:1.0 381:1.0 382:1.0 383:1.0 384:1.0 385:1.0 386:1.0 387:1.0 388:1.0 389:1.0 390:1.0 391:1.0 392:1.0 393:1.0 394:1.0 395:1.0 396:1.0 397:1.0 398:1.0 399:1.0 400:1.0 401:1.0 402:1.0 403:1.0 404:1.0 405:1.0 406:1.0 407:1.0 408:1.0 409:1.0 410:1.0 411:1.0 412:1.0 413:1.0 414:1.0 415:1.0 416:1.0 417:1.0 418:1.0 419:1.0 420:1.0 421:1.0 422:1.0 423:1.0 424:1.0 425:1.0 426:1.0 427:1.0 428:1.0 429:1.0 430:1.0 431:1.0 432:1.0 433:1.0 434:1.0 435:1.0 436:1.0 437:1.0 438:1.0 439:1.0 440:1.0 441:1.0 442:1.0 443:1.0 444:1.0 445:1.0 446:1.0 447:1.0 448:1.0 449:1.0 450:1.0 451:1.0 452:1.0 453:1.0 454:1.0 455:1.0 456:1.0 457:1.0 458:1.0 459:1.0 460:1.0 461:1.0 462:1.0 463:1.0 464:1.0 465:1.0 466:1.0 467:1.0 468:1.0 469:1.0 470:1.0 471:1.0 472:1.0 473:1.0 474:1.0 475:1.0 476:1.0 477:1.0 478:1.0 479:1.0 480:1.0 481:1.0 482:1.0 483:1.0 484:1.0 485:1.0 486:1.0 487:1.0 488:1.0 489:1.0 490:1.0 491:1.0 492:1.0 493:1.0 494:1.0 495:1.0 496:1.0 497:1.0 498:1.0 499:1.0 500:1.0 501:1.0 502:1.0 503:1.0 504:1.0 505:1.0 506:1.0 507:1.0 508:1.0 509:1.0 510:1.0 511:1.0 512:1.0 513:1.0 514:1.0 515:1.0 516:1.0 517:1.0 518:1.0 519:1.0 520:1.0 521:1.0 522:1.0 523:1.0 524:1.0 525:1.0 526:1.0 527:1.0 528:1.0 529:1.0 530:1.0 531:1.0 532:1.0 533:1.0 534:1.0 535:1.0 536:1.0 537:1.0 538:1.0 539:1.0 540:1.0 541:1.0 542:1.0 543:1.0 544:1.0 545:1.0 546:1.0 547:1.0 548:1.0 549:1.0 550:1.0 551:1.0 552:1.0 553:1.0 554:1.0 555:1.0 556:1.0 557:1.0 558:1.0 559:1.0 560:1.0 561:1.0 562:1.0 563:1.0 564:1.0 565:1.0 566:1.0 567:1.0 568:1.0 569:1.0 570:1.0 571:1.0 572:1.0 573:1.0 574:1.0 575:1.0 576:1.0 
