svm_type c_svc
kernel_type linear
nr_class 31
total_sv 478
rho 0.4571113396927189 0.41553967432426653 0.9186009725631097 -0.10534556306131677 0.9748676747040657 0.34162769261101567 0.38521980372512443 0.4412630791106384 -0.10711096730104785 0.039353432585427006 1.0412334604381297 -0.05904576964768013 0.30158387429790345 0.8115790206204548 -0.2315572396833385 0.06190428152963819 0.4735486298109007 0.18657662190322094 0.39676562350871586 -0.14832381163189695 0.1440281304592509 -0.03436055340043207 0.1550404780771992 0.357264055507407 0.8966363613036756 0.29732419871764554 -0.3286614825520088 0.31287672651361725 0.6043511444242109 0.36735314713559214 -0.3930169464778193 0.19465713781146868 -0.88934065184837 0.3025272398750297 -0.3803814681384109 -0.21302458058519566 -0.4982303468699833 -0.5734367249531569 -0.7144346846430466 0.060757238459156176 -0.5666302715618116 -0.380002335234944 0.560526189182315 -0.8745112620943524 -0.5193829766985713 0.04442749606641269 -0.39525332395099533 -0.010023181827740217 -0.744596767578897 -0.33071837043512387 -0.4987974003189399 -0.5427266436089493 0.5611335506361785 -0.2804286965513107 -0.21081182698839043 -0.9678738238202215 -0.3433964298644894 0.5882787078340458 -0.32294184684428534 0.23601708191471374 -0.41692515306683786 0.3473315085722257 -0.13380015777432105 0.28778347980579116 -0.2790446524452344 -0.2891684057684711 -0.5997264126042924 0.16868399789524488 -0.38690336787602336 -0.1152208032586602 0.5502060943401933 -0.5310309861356657 -0.29433630202990496 0.040286579413030474 -0.14312112055945422 -0.00842216384645999 -0.5598262842548205 -0.08678162703022482 -0.3399493820964534 -0.44825277957602944 0.2732440527304286 -0.1401213722382509 0.05063998277766118 -0.6093698051312391 0.1298562234595896 0.6137978224216877 0.1593519351917317 -0.8520225608321453 0.5670193987799559 -0.5677009546632575 -0.058409795357795224 -1.1151876447739688 -0.7718237993309983 -1.388876642408633 0.04153150851621445 -0.9073684221772202 -0.4343814479126611 0.3409472642491779 -1.514000799406275 -0.7707798857579168 -0.5023560945509076 -0.4007907792988371 -0.16167577410976347 -1.0252218725858055 -0.47884750535062526 -0.8761747989534243 -0.7016178458494534 -0.00790037778210693 -0.5031524944266521 -0.25098326860564973 -0.9323095062346274 -0.2972429590126573 0.29598863925890917 -0.21485871871459278 0.790695365008695 0.3194860515243148 0.4054942706329215 0.19732121974725347 0.6007539095872964 0.05384746534415103 0.5442483659569619 0.07038235144411131 0.18939956732480076 0.8915440233842978 -0.1306873578584446 0.07695433233902932 0.7253166821166428 0.18034171988661313 0.30294010933249854 -0.1469101049405641 0.41160838777054864 0.17767875932078547 0.0802120704322177 0.5280523100423888 0.03375777363232157 0.38654804844508184 -0.38612231036077604 0.5633264368117873 0.7357212299114502 0.7477644108786091 -0.9380554588954542 -0.1833986863568664 -1.0771274549762018 -0.8086207884917861 -1.5560220479280493 -0.07481013839712755 -0.8614956782859894 -0.6380053018605848 0.20501437668929826 -1.2500581407656772 -1.0663608563924951 -0.49995190567964715 -0.6734757598475679 -0.36661479210324277 -0.9804244331462779 -0.615182718432976 -0.9450333601623496 -0.7884425127816472 -0.08261145799434969 -0.5822748127983283 -0.4569076762908173 -1.164444694441059 -0.3782476433368031 0.1170652184959548 -0.3359572554167569 0.25555121098578654 -0.04746784842314879 -0.05745647565035756 -0.5556721304010446 1.0082433430963207 -0.34130414639506956 0.13655916470806495 1.1807657910223721 -0.5139469955282309 -0.25983726068087215 0.20244578103293817 0.08564446269950342 0.27635162346367703 -0.3898484308344251 0.14348090743557596 -0.18240056840379962 0.05724837166932141 0.3337620920369352 0.2608658340566253 0.14725011173378627 -0.675206497926907 0.12822434220430148 0.5952087071839391 0.27002338758142996 -0.3466687159625196 -0.11881236163981357 -0.4868721512159313 0.02607005815338606 -0.3450070607465487 -0.18616735066192974 0.4392531625456961 -0.6255924983415535 -0.3635817583147446 -0.10459510305679992 -0.18393641894990168 -0.10936878335764984 -0.5490553473772334 -0.1999825183816942 -0.36002580363470654 -0.33210383350628186 0.23812360476741268 -0.2472354354450619 0.0034860537394255046 -0.5875432519026551 -0.10760761364007325 0.49298296260174784 -0.4752712829086143 -0.09520971636062717 -0.280397783172785 0.5301067247421063 -0.17364401604918706 0.07769694607521689 0.8981427161517013 -1.1705693270728403 -0.27446126143248173 0.37162179197273526 0.15485173507827893 0.22594199255052466 -0.4511203144814058 0.07619537186294405 -0.10501215005480001 -0.27436124970537507 0.34779085241765445 -0.00884767889372671 0.35941275165072706 -0.6548147585885971 0.24147624737864112 0.6944896037182907 0.22108106178532624 -0.09622597786070729 0.6709309553960853 -0.11466904381501483 0.4117560092915858 0.7619066348134916 -0.3603197893672562 0.19280057103766482 0.4207517944301075 0.20048376518868832 0.34375530011347744 -0.3972824739286719 0.5339668736629067 0.09441599933583825 0.380332668658762 0.2712547927238636 0.1599209291714443 0.12942582714516668 -0.4862442941627445 0.21968123342016763 0.4683785057115548 0.3970826712516175 0.8466354892172822 0.01671048326312206 1.0861517753291774 1.2334370261623153 -0.33138953897026047 0.7235982804723906 0.5760120772563958 0.5187746165011557 0.7562627009898129 -0.2113021178934699 0.2927065558724629 0.059900181550333005 0.7468095003695764 0.42109880603965305 0.1418000493453256 0.3415581203772983 -0.7281756433906696 0.4382013509789276 0.7678545400429234 0.5206298131545883 -0.6739222628883 -0.8183248977561759 0.33921503752184906 -0.9018298888364522 -0.7509627252872005 -0.1859425327687407 -0.5576517652784536 -0.3875314525226084 -0.6904632871240446 -0.5900568682697523 -0.8632202865955386 -0.8401629976244664 0.05909161927340294 -0.5764331486707571 -0.3037021482444524 -0.9018592366281747 -0.20169342982917812 0.17615740918928638 -0.0952409873109571 0.42077138714358714 0.8949821389747914 -0.11623996941399044 0.2456972415249795 0.6459193036930398 0.3158422072791448 0.35081505943734603 -0.1500847424602046 0.39268577888393286 0.12107712921880652 0.18468907362175319 0.3993588139490424 -0.09841356387093286 0.38885749594564184 -0.4111148651533572 0.3814747228177117 0.6916147326378391 0.5802359817209229 1.465941119664985 -0.497301085122303 -0.8923569367517153 0.19600111415751892 -0.2585760509831665 -0.13817694270809847 -0.6611623549259394 -0.4416916781246962 -0.346688497728131 -0.6362803622105913 0.29946938625602737 -0.1722153163033754 0.05233234477493541 -1.0895232793320224 0.023376820172010756 0.5783409970492188 0.3908777406845403 -1.1647579941083066 -1.0452041902013165 -0.45144096875304224 -0.936791389263627 -0.6564162535391553 -1.1247320268077687 -0.7247056852772231 -0.8346929888193089 -1.8392283730344565 -0.29562215831266375 -0.5506961289792901 -0.7128122829414348 -1.5453556769399803 -0.5483468419206569 0.11181852951448265 -0.7117837882546946 0.28844206106822035 0.8182060786290651 0.37494201526771087 0.4487734894190513 0.05106898392221209 0.6484690198484755 1.4242979407516467 0.3825774114854532 0.4993444025165087 0.17774397120932972 0.5646921913229869 -0.22941292444625247 0.5591832711839055 0.9263550073383396 0.4698211970652093 0.3964703647866129 0.5681515494234056 0.7541674712262217 -0.3475273781504509 0.43113289937431515 0.02994953104241415 0.2645156057223006 0.4324096980148205 0.26314870125810985 0.26784157106335565 -0.8940911600667077 0.42056867229906564 0.7004234907394667 0.43946497569248244 -0.19436838491694464 -0.01661393956172966 -0.6043683349969834 -0.09687810528543858 -0.5755012902029907 -0.4778157141020958 0.12515975732764525 -0.3731167741221432 -0.04930704686259678 -0.6949475772543098 -0.02499901058882095 0.44483293956189746 -0.1813713833612198 0.43543063227644035 -0.2954464264727832 0.08985273249337908 -0.22307089146854675 -0.4379483751351156 0.27820677085326245 0.02546902479876057 0.19346600671058567 -1.3917010014382438 0.5223873604300459 0.6275828969980742 0.20022097873195982 -0.4960232920694284 -0.34610766552945593 -0.3095306033841923 -0.3566273816470692 0.16339352770963425 -0.1048289109719136 -0.0671748024163336 -0.8435797743058133 -0.06830372982900242 0.31149993571904516 0.011744539879208395 1.461366529155964 0.12277417796374127 0.4396618574437687 0.527486312937689 0.0297901069501196 0.45655368830106396 -0.39943195374486007 0.7740045986081289 1.012256268270476 0.5770130688918708 -0.2511898379225077 0.08140483587661096 0.2796176394892717 -0.2878390817943967 0.04024344224564187 -1.3950727835876058 0.23568788754737072 0.5574004188424826 0.28342604553874995 0.059635149479366975 0.3240643456003685 -0.0508430256829013 0.24774332415945274 -0.3732582670865993 0.38243429347716756 0.638561359510927 0.3920455842400596 0.3740971822481843 0.024587948656218772 0.24113227626620423 -0.7873959847359363 0.3086816372396146 0.6425509382098614 0.3289094131177318 -0.21861830162681664 -0.2495657578964082 -0.7336686237153576 -0.2472805462363014 0.33426195960967403 -0.3160481681672926 0.2285597197772066 -0.7127411062674585 0.19705796491349467 0.47520529331984357 0.26286619322112253 -1.0027936962027346 -0.009609379863958793 0.6040830893929847 -0.11173216059549516 0.8652965892262297 1.1963777145920276 0.9321916873014332 0.7818933832701339 0.014193188976732137 -0.7939682123315466
label 0 1 2 3 4 5 6 7 9 10 11 12 13 14 15 16 17 19 20 21 22 23 26 27 29 30 31 32 33 34 35
nr_sv 12 10 12 11 10 17 11 10 11 18 25 24 6 19 29 12 14 17 22 6 10 21 24 21 8 21 14 10 14 23 16
SV
0.0 0.0 7.641016884625332E-4 4.7574938666663385E-4 0.0 0.0 4.8360791169482694E-4 0.0 0.0 0.0 0.004635527509244464 0.004778179390293981 0.0 0.0 0.0 0.003830947345137823 0.0017406328915277746 0.0 0.0 0.006470611887753068 0.005815478618140671 0.0 0.0 0.0 0.011226619876936003 0.0 5.000588484688853E-4 0.0 0.0011975324811892118 0.0 1:0.0 2:0.0 3:0.0 4:0.0 5:0.0 6:0.0 7:0.0 8:0.0 9:0.0 10:1.0 11:1.0 12:1.0 13:1.0 14:1.0 15:1.0 16:1.0 17:0.0 18:0.0 19:0.0 20:0.0 21:0.0 22:0.0 23:0.0 24:0.0 25:0.0 26:0.0 27:0.0 28:0.0 29:0.0 30:0.0 31:0.0 32:0.0 33:0.0 34:1.0 35:1.0 36:1.0 37:1.0 38:1.0 39:1.0 40:1.0 41:0.0 42:0.0 43:0.0 44:0.0 45:0.0 46:0.0 47:0.0 48:0.0 49:0.0 50:0.0 51:0.0 52:0.0 53:0.0 54:0.0 55:0.0 56:0.0 57:0.0 58:1.0 59:1.0 60:1.0 61:1.0 62:1.0 63:1.0 64:1.0 65:0.0 66:0.0 67:0.0 68:0.0 69:0.0 70:0.0 71:0.0 72:0.0 73:0.0 74:0.0 75:1.0 76:1.0 77:1.0 78:1.0 79:1.0 80:1.0 81:1.0 82:1.0 83:1.0 84:1.0 85:1.0 86:1.0 87:1.0 88:1.0 89:1.0 90:1.0 91:1.0 92:1.0 93:1.0 94:0.0 95:0.0 96:0.0 97:0.0 98:0.0 99:1.0 100:1.0 101:1.0 102:1.0 103:1.0 104:1.0 105:1.0 106:1.0 107:1.0 108:1.0 109:1.0 110:1.0 111:1.0 112:1.0 113:1.0 114:1.0 115:1.0 116:1.0 117:1.0 118:0.0 119:0.0 120:0.0 121:0.0 122:0.0 123:1.0 124:1.0 125:1.0 126:1.0 127:1.0 128:1.0 129:1.0 130:1.0 131:1.0 132:1.0 133:1.0 134:1.0 135:1.0 136:1.0 137:1.0 138:1.0 139:1.0 140:1.0 141:1.0 142:0.0 143:0.0 144:0.0 145:0.0 146:0.0 147:1.0 148:1.0 149:1.0 150:1.0 151:1.0 152:1.0 153:1.0 154:0.0 155:0.0 156:0.0 157:0.0 158:0.0 159:0.0 160:0.0 161:0.0 162:0.0 163:0.0 164:1.0 165:1.0 166:1.0 167:1.0 168:1.0 169:0.0 170:0.0 171:1.0 172:1.0 173:1.0 174:1.0 175:1.0 176:1.0 177:1.0 178:0.0 179:0.0 180:0.0 181:0.0 182:0.0 183:0.0 184:0.0 185:0.0 186:0.0 187:0.0 188:1.0 189:1.0 190:1.0 191:1.0 192:1.0 193:0.0 194:0.0 195:1.0 196:1.0 197:1.0 198:1.0 199:1.0 200:1.0 201:1.0 202:0.0 203:0.0 204:0.0 205:0.0 206:0.0 207:0.0 208:0.0 209:0.0 210:0.0 211:0.0 212:1.0 213:1.0 214:1.0 215:1.0 216:1.0 217:0.0 218:0.0 219:1.0 220:1.0 221:1.0 222:1.0 223:1.0 224:1.0 225:1.0 226:0.0 227:0.0 228:0.0 229:0.0 230:0.0 231:0.0 232:0.0 233:0.0 234:0.0 235:0.0 236:1.0 237:1.0 238:1.0 239:1.0 240:1.0 241:1.0 242:1.0 243:0.0 244:0.0 245:0.0 246:0.0 247:0.0 248:0.0 249:0.0 250:0.0 251:0.0 252:0.0 253:0.0 254:0.0 255:0.0 256:0.0 257:0.0 258:0.0 259:0.0 260:0.0 261:0.0 262:1.0 263:1.0 264:1.0 265:1.0 266:1.0 267:0.0 268:0.0 269:0.0 270:0.0 271:0.0 272:0.0 273:0.0 274:0.0 275:0.0 276:0.0 277:0.0 278:0.0 279:0.0 280:0.0 281:0.0 282:0.0 283:0.0 284:0.0 285:0.0 286:1.0 287:1.0 288:1.0 289:1.0 290:1.0 291:0.0 292:0.0 293:0.0 294:0.0 295:0.0 296:0.0 297:0.0 298:0.0 299:0.0 300:0.0 301:0.0 302:0.0 303:0.0 304:0.0 305:0.0 306:0.0 307:0.0 308:0.0 309:0.0 310:1.0 311:1.0 312:1.0 313:1.0 314:1.0 315:0.0 316:0.0 317:0.0 318:0.0 319:0.0 320:0.0 321:0.0 322:0.0 323:0.0 324:0.0 325:0.0 326:0.0 327:0.0 328:0.0 329:0.0 330:0.0 331:0.0 332:0.0 333:0.0 334:1.0 335:1.0 336:1.0 337:1.0 338:1.0 339:0.0 340:0.0 341:0.0 342:0.0 343:0.0 344:0.0 345:0.0 346:0.0 347:0.0 348:0.0 349:0.0 350:0.0 351:0.0 352:0.0 353:0.0 354:0.0 355:0.0 356:0.0 357:0.0 358:1.0 359:1.0 360:1.0 361:1.0 362:1.0 363:0.0 364:0.0 365:0.0 366:0.0 367:0.0 368:0.0 369:0.0 370:0.0 371:0.0 372:0.0 373:0.0 374:0.0 375:0.0 376:0.0 377:0.0 378:0.0 379:0.0 380:0.0 381:0.0 382:1.0 383:1.0 384:1.0 385:1.0 386:1.0 387:0.0 388:0.0 389:0.0 390:0.0 391:0.0 392:0.0 393:0.0 394:0.0 395:0.0 396:0.0 397:0.0 398:0.0 399:0.0 400:0.0 401:0.0 402:0.0 403:0.0 404:0.0 405:0.0 406:1.0 407:1.0 408:1.0 409:0.0 410:0.0 411:1.0 412:1.0 413:1.0 414:1.0 415:1.0 416:1.0 417:1.0 418:1.0 419:1.0 420:1.0 421:1.0 422:1.0 423:1.0 424:1.0 425:1.0 426:1.0 427:1.0 428:1.0 429:1.0 430:1.0 431:1.0 432:1.0 433:0.0 434:0.0 435:1.0 436:1.0 437:1.0 438:1.0 439:1.0 440:1.0 441:1.0 442:1.0 443:1.0 444:1.0 445:1.0 446:1.0 447:1.0 448:1.0 449:1.0 450:1.0 451:1.0 452:1.0 453:1.0 454:1.0 455:1.0 456:1.0 457:0.0 458:0.0 459:1.0 460:1.0 461:1.0 462:1.0 463:1.0 464:1.0 465:1.0 466:1.0 467:1.0 468:1.0 469:1.0 470:1.0 471:1.0 472:1.0 473:1.0 474:1.0 475:1.0 476:1.0 477:1.0 478:1.0 479:1.0 480:1.0 481:0.0 482:0.0 483:1.0 484:1.0 485:1.0 486:1.0 487:1.0 488:1.0 489:1.0 490:1.0 491:1.0 492:1.0 493:1.0 494:1.0 495:1.0 496:1.0 497:1.0 498:1.0 499:1.0 500:1.0 501:1.0 502:0.0 503:0.0 504:0.0 505:0.0 506:0.0 507:1.0 508:1.0 509:1.0 510:1.0 511:1.0 512:1.0 513:1.0 514:1.0 515:1.0 516:1.0 517:1.0 518:1.0 519:1.0 520:1.0 521:1.0 522:1.0 523:1.0 524:1.0 525:1.0 526:0.0 527:0.0 528:0.0 529:0.0 530:0.0 531:1.0 532:1.0 533:1.0 534:1.0 535:1.0 536:1.0 537:1.0 538:1.0 539:1.0 540:1.0 541:1.0 542:1.0 543:1.0 544:1.0 545:1.0 546:1.0 547:1.0 548:1.0 549:1.0 550:0.0 551:0.0 552:0.0 553:0.0 554:0.0 555:1.0 556:1.0 557:1.0 558:1.0 559:1.0 560:1.0 561:1.0 562:1.0 563:1.0 564:1.0 565:1.0 566:1.0 567:1.0 568:1.0 569:1.0 570:1.0 571:1.0 572:1.0 573:1.0 574:0.0 575:0.0 576:0.0 
0.0 0.0 0.0010103020333964588 0.0023381108016351866 0.0 0.009415335958899351 6.382459277375728E-4 0.0 0.00480726856754616 0.0 0.004774651071963633 0.0016731560517333122 0.00577829763454717 0.001194346048807964 8.420964227890976E-4 3.0428862454627895E-4 5.921778148085066E-4 7.694766269560236E-4 7.765797543625837E-4 6.710616110474212E-4 0.004116262801626398 0.0 0.0 4.5581885564554577E-4 0.0029964922702844 0.0 0.0 0.0 0.0 9.966870993259188E-4 1:0.0 2:0.0 3:0.0 4:0.0 5:0.0 6:0.0 7:1.0 8:1.0 9:1.0 10:1.0 11:1.0 12:1.0 13:1.0 14:1.0 15:1.0 16:1.0 17:1.0 18:1.0 19:1.0 20:0.0 21:0.0 22:0.0 23:0.0 24:0.0 25:0.0 26:0.0 27:0.0 28:0.0 29:0.0 30:0.0 31:1.0 32:1.0 33:1.0 34:1.0 35:1.0 36:1.0 37:1.0 38:1.0 39:1.0 40:1.0 41:1.0 42:1.0 43:1.0 44:0.0 45:0.0 46:0.0 47:0.0 48:0.0 49:0.0 50:0.0 51:0.0 52:0.0 53:0.0 54:0.0 55:1.0 56:1.0 57:1.0 58:1.0 59:1.0 60:1.0 61:1.0 62:1.0 63:1.0 64:1.0 65:1.0 66:1.0 67:1.0 68:0.0 69:0.0 70:0.0 71:0.0 72:0.0 73:0.0 74:0.0 75:0.0 76:0.0 77:1.0 78:1.0 79:1.0 80:1.0 81:1.0 82:1.0 83:1.0 84:1.0 85:1.0 86:1.0 87:1.0 88:1.0 89:1.0 90:1.0 91:1.0 92:1.0 93:1.0 94:0.0 95:0.0 96:0.0 97:0.0 98:0.0 99:0.0 100:0.0 101:1.0 102:1.0 103:1.0 104:1.0 105:1.0 106:1.0 107:1.0 108:1.0 109:1.0 110:1.0 111:1.0 112:1.0 113:1.0 114:1.0 115:1.0 116:1.0 117:1.0 118:0.0 119:0.0 120:0.0 121:0.0 122:0.0 123:0.0 124:0.0 125:1.0 126:1.0 127:1.0 128:1.0 129:1.0 130:1.0 131:1.0 132:1.0 133:1.0 134:1.0 135:1.0 136:1.0 137:1.0 138:1.0 139:1.0 140:1.0 141:1.0 142:0.0 143:0.0 144:0.0 145:0.0 146:0.0 147:1.0 148:1.0 149:1.0 150:1.0 151:0.0 152:0.0 153:0.0 154:0.0 155:0.0 156:0.0 157:0.0 158:0.0 159:0.0 160:0.0 161:0.0 162:0.0 163:0.0 164:1.0 165:1.0 166:1.0 167:1.0 168:1.0 169:0.0 170:0.0 171:1.0 172:1.0 173:1.0 174:1.0 175:0.0 176:0.0 177:0.0 178:0.0 179:0.0 180:0.0 181:0.0 182:0.0 183:0.0 184:0.0 185:0.0 186:0.0 187:0.0 188:1.0 189:1.0 190:1.0 191:1.0 192:1.0 193:0.0 194:0.0 195:1.0 196:1.0 197:1.0 198:1.0 199:0.0 200:0.0 201:0.0 202:0.0 203:0.0 204:0.0 205:0.0 206:0.0 207:0.0 208:0.0 209:0.0 210:0.0 211:0.0 212:1.0 213:1.0 214:1.0 215:1.0 216:1.0 217:0.0 218:0.0 219:1.0 220:1.0 221:1.0 222:1.0 223:0.0 224:0.0 225:0.0 226:0.0 227:0.0 228:0.0 229:0.0 230:0.0 231:0.0 232:0.0 233:0.0 234:0.0 235:0.0 236:1.0 237:1.0 238:1.0 239:1.0 240:1.0 241:0.0 242:0.0 243:1.0 244:1.0 245:0.0 246:0.0 247:0.0 248:0.0 249:0.0 250:0.0 251:0.0 252:0.0 253:0.0 254:0.0 255:0.0 256:0.0 257:0.0 258:0.0 259:0.0 260:0.0 261:0.0 262:1.0 263:1.0 264:1.0 265:0.0 266:0.0 267:1.0 268:1.0 269:0.0 270:0.0 271:0.0 272:0.0 273:0.0 274:0.0 275:0.0 276:0.0 277:0.0 278:0.0 279:0.0 280:0.0 281:0.0 282:0.0 283:0.0 284:0.0 285:0.0 286:1.0 287:1.0 288:1.0 289:0.0 290:0.0 291:1.0 292:1.0 293:0.0 294:0.0 295:0.0 296:0.0 297:0.0 298:0.0 299:0.0 300:0.0 301:0.0 302:0.0 303:0.0 304:0.0 305:0.0 306:0.0 307:0.0 308:0.0 309:0.0 310:1.0 311:1.0 312:1.0 313:1.0 314:1.0 315:1.0 316:1.0 317:1.0 318:1.0 319:0.0 320:0.0 321:0.0 322:0.0 323:0.0 324:0.0 325:0.0 326:0.0 327:0.0 328:0.0 329:0.0 330:0.0 331:0.0 332:1.0 333:1.0 334:1.0 335:1.0 336:1.0 337:1.0 338:1.0 339:1.0 340:1.0 341:1.0 342:1.0 343:0.0 344:0.0 345:0.0 346:0.0 347:0.0 348:0.0 349:0.0 350:0.0 351:0.0 352:0.0 353:0.0 354:0.0 355:0.0 356:1.0 357:1.0 358:1.0 359:1.0 360:1.0 361:1.0 362:1.0 363:1.0 364:1.0 365:1.0 366:1.0 367:0.0 368:0.0 369:0.0 370:0.0 371:0.0 372:0.0 373:0.0 374:0.0 375:0.0 376:0.0 377:0.0 378:0.0 379:0.0 380:1.0 381:1.0 382:1.0 383:1.0 384:1.0 385:1.0 386:1.0 387:1.0 388:1.0 389:1.0 390:1.0 391:0.0 392:0.0 393:0.0 394:0.0 395:0.0 396:0.0 397:0.0 398:0.0 399:0.0 400:0.0 401:0.0 402:0.0 403:0.0 404:1.0 405:1.0 406:1.0 407:1.0 408:1.0 409:0.0 410:0.0 411:0.0 412:0.0 413:1.0 414:1.0 415:1.0 416:1.0 417:1.0 418:1.0 419:1.0 420:1.0 421:1.0 422:1.0 423:1.0 424:1.0 425:1.0 426:1.0 427:1.0 428:1.0 429:1.0 430:0.0 431:0.0 432:0.0 433:0.0 434:0.0 435:0.0 436:0.0 437:1.0 438:1.0 439:1.0 440:1.0 441:1.0 442:1.0 443:1.0 444:1.0 445:1.0 446:1.0 447:1.0 448:1.0 449:1.0 450:1.0 451:1.0 452:1.0 453:1.0 454:0.0 455:0.0 456:0.0 457:0.0 458:0.0 459:0.0 460:0.0 461:1.0 462:1.0 463:1.0 464:1.0 465:1.0 466:1.0 467:1.0 468:1.0 469:1.0 470:1.0 471:1.0 472:1.0 473:1.0 474:1.0 475:1.0 476:1.0 477:1.0 478:0.0 479:0.0 480:0.0 481:0.0 482:0.0 483:0.0 484:0.0 485:0.0 486:0.0 487:1.0 488:1.0 489:1.0 490:1.0 491:1.0 492:1.0 493:1.0 494:1.0 495:1.0 496:1.0 497:1.0 498:1.0 499:1.0 500:0.0 501:0.0 502:0.0 503:0.0 504:0.0 505:0.0 506:0.0 507:0.0 508:0.0 509:0.0 510:0.0 511:1.0 512:1.0 513:1.0 514:1.0 515:1.0 516:1.0 517:1.0 518:1.0 519:1.0 520:1.0 521:1.0 522:1.0 523:1.0 524:0.0 525:0.0 526:0.0 527:0.0 528:0.0 529:0.0 530:0.0 531:0.0 532:0.0 533:0.0 534:0.0 535:1.0 536:1.0 537:1.0 538:1.0 539:1.0 540:1.0 541:1.0 542:1.0 543:1.0 544:1.0 545:1.0 546:1.0 547:1.0 548:0.0 549:0.0 550:0.0 551:0.0 552:0.0 553:0.0 554:0.0 555:0.0 556:0.0 557:0.0 558:0.0 559:1.0 560:1.0 561:1.0 562:1.0 563:1.0 564:1.0 565:1.0 566:1.0 567:1.0 568:1.0 569:1.0 570:1.0 571:1.0 572:0.0 573:0.0 574:0.0 575:0.0 576:0.0 
0.003957615303152223 0.0015381926309248372 0.0 0.004084700058886905 0.0 0.005265176258644303 0.003070023495520532 0.00881687183330152 0.006906577044392107 0.0074148215841341215 0.005415702903815628 0.005143087213030384 0.002973051205352866 0.005061060882961816 0.0074036852791418365 0.003988580368598164 0.0 0.0040402651944571695 0.004418650820179618 0.002587048939290918 0.004431306518127234 0.0063721335037524515 0.006835876484148937 0.002914427595751017 0.008879812458748224 0.005761119542128304 0.0020838156389174217 0.003063883608598721 0.00311204945863952 0.003218507320577736 1:0.0 2:0.0 3:0.0 4:0.0 5:0.0 6:0.0 7:0.0 8:0.0 9:0.0 10:0.0 11:0.0 12:0.0 13:1.0 14:1.0 15:1.0 16:1.0 17:0.0 18:0.0 19:0.0 20:0.0 21:0.0 22:0.0 23:0.0 24:0.0 25:0.0 26:0.0 27:0.0 28:0.0 29:0.0 30:0.0 31:0.0 32:0.0 33:0.0 34:0.0 35:0.0 36:0.0 37:1.0 38:1.0 39:1.0 40:1.0 41:0.0 42:0.0 43:0.0 44:0.0 45:0.0 46:0.0 47:0.0 48:0.0 49:0.0 50:0.0 51:0.0 52:0.0 53:0.0 54:0.0 55:0.0 56:0.0 57:0.0 58:0.0 59:0.0 60:0.0 61:1.0 62:1.0 63:1.0 64:1.0 65:0.0 66:0.0 67:0.0 68:0.0 69:0.0 70:0.0 71:0.0 72:0.0 73:0.0 74:0.0 75:0.0 76:0.0 77:1.0 78:1.0 79:1.0 80:1.0 81:1.0 82:1.0 83:1.0 84:1.0 85:1.0 86:1.0 87:1.0 88:1.0 89:1.0 90:1.0 91:1.0 92:1.0 93:1.0 94:0.0 95:0.0 96:0.0 97:0.0 98:0.0 99:0.0 100:0.0 101:1.0 102:1.0 103:1.0 104:1.0 105:1.0 106:1.0 107:1.0 108:1.0 109:1.0 110:1.0 111:1.0 112:1.0 113:1.0 114:1.0 115:1.0 116:1.0 117:1.0 118:0.0 119:0.0 120:0.0 121:0.0 122:0.0 123:0.0 124:0.0 125:1.0 126:1.0 127:1.0 128:1.0 129:1.0 130:1.0 131:1.0 132:1.0 133:1.0 134:1.0 135:1.0 136:1.0 137:1.0 138:1.0 139:1.0 140:1.0 141:1.0 142:0.0 143:0.0 144:0.0 145:0.0 146:0.0 147:1.0 148:1.0 149:1.0 150:1.0 151:1.0 152:1.0 153:1.0 154:1.0 155:1.0 156:1.0 157:0.0 158:0.0 159:1.0 160:1.0 161:0.0 162:0.0 163:0.0 164:1.0 165:1.0 166:1.0 167:1.0 168:1.0 169:0.0 170:0.0 171:1.0 172:1.0 173:1.0 174:1.0 175:1.0 176:1.0 177:1.0 178:1.0 179:1.0 180:1.0 181:0.0 182:0.0 183:1.0 184:1.0 185:0.0 186:0.0 187:0.0 188:1.0 189:1.0 190:1.0 191:1.0 192:1.0 193:0.0 194:0.0 195:1.0 196:1.0 197:1.0 198:1.0 199:1.0 200:1.0 201:1.0 202:1.0 203:1.0 204:1.0 205:0.0 206:0.0 207:1.0 208:1.0 209:0.0 210:0.0 211:0.0 212:1.0 213:1.0 214:1.0 215:1.0 216:1.0 217:1.0 218:1.0 219:1.0 220:1.0 221:0.0 222:0.0 223:0.0 224:0.0 225:0.0 226:0.0 227:0.0 228:0.0 229:0.0 230:0.0 231:0.0 232:0.0 233:0.0 234:0.0 235:0.0 236:0.0 237:0.0 238:1.0 239:1.0 240:1.0 241:1.0 242:1.0 243:1.0 244:1.0 245:0.0 246:0.0 247:0.0 248:0.0 249:0.0 250:0.0 251:0.0 252:0.0 253:0.0 254:0.0 255:0.0 256:0.0 257:0.0 258:0.0 259:0.0 260:0.0 261:0.0 262:1.0 263:1.0 264:1.0 265:1.0 266:1.0 267:1.0 268:1.0 269:0.0 270:0.0 271:0.0 272:0.0 273:0.0 274:0.0 275:0.0 276:0.0 277:0.0 278:0.0 279:0.0 280:0.0 281:0.0 282:0.0 283:0.0 284:0.0 285:0.0 286:1.0 287:1.0 288:1.0 289:1.0 290:1.0 291:0.0 292:0.0 293:0.0 294:0.0 295:0.0 296:0.0 297:0.0 298:0.0 299:0.0 300:0.0 301:0.0 302:0.0 303:0.0 304:0.0 305:0.0 306:0.0 307:0.0 308:0.0 309:0.0 310:1.0 311:1.0 312:1.0 313:1.0 314:1.0 315:0.0 316:0.0 317:0.0 318:0.0 319:0.0 320:0.0 321:0.0 322:0.0 323:0.0 324:0.0 325:0.0 326:0.0 327:0.0 328:0.0 329:0.0 330:0.0 331:0.0 332:0.0 333:0.0 334:1.0 335:1.0 336:1.0 337:1.0 338:1.0 339:0.0 340:0.0 341:0.0 342:0.0 343:0.0 344:0.0 345:0.0 346:0.0 347:0.0 348:0.0 349:0.0 350:0.0 351:0.0 352:0.0 353:0.0 354:0.0 355:0.0 356:0.0 357:0.0 358:1.0 359:1.0 360:1.0 361:0.0 362:0.0 363:1.0 364:1.0 365:1.0 366:1.0 367:1.0 368:0.0 369:0.0 370:0.0 371:0.0 372:0.0 373:1.0 374:1.0 375:1.0 376:1.0 377:1.0 378:1.0 379:1.0 380:1.0 381:1.0 382:1.0 383:1.0 384:1.0 385:0.0 386:0.0 387:1.0 388:1.0 389:1.0 390:1.0 391:1.0 392:0.0 393:0.0 394:0.0 395:0.0 396:0.0 397:1.0 398:1.0 399:1.0 400:1.0 401:1.0 402:1.0 403:1.0 404:1.0 405:1.0 406:1.0 407:1.0 408:1.0 409:0.0 410:0.0 411:1.0 412:1.0 413:1.0 414:1.0 415:1.0 416:0.0 417:0.0 418:0.0 419:0.0 420:0.0 421:1.0 422:1.0 423:1.0 424:1.0 425:1.0 426:1.0 427:1.0 428:1.0 429:1.0 430:1.0 431:1.0 432:1.0 433:0.0 434:0.0 435:1.0 436:1.0 437:1.0 438:1.0 439:1.0 440:1.0 441:1.0 442:1.0 443:1.0 444:1.0 445:1.0 446:1.0 447:1.0 448:1.0 449:1.0 450:1.0 451:1.0 452:1.0 453:1.0 454:0.0 455:0.0 456:0.0 457:0.0 458:0.0 459:1.0 460:1.0 461:1.0 462:1.0 463:1.0 464:1.0 465:1.0 466:1.0 467:1.0 468:1.0 469:1.0 470:1.0 471:1.0 472:1.0 473:1.0 474:1.0 475:1.0 476:1.0 477:1.0 478:0.0 479:0.0 480:0.0 481:0.0 482:0.0 483:1.0 484:1.0 485:1.0 486:1.0 487:1.0 488:1.0 489:1.0 490:1.0 491:1.0 492:1.0 493:1.0 494:1.0 495:1.0 496:1.0 497:1.0 498:1.0 499:1.0 500:1.0 501:1.0 502:0.0 503:0.0 504:0.0 505:0.0 506:0.0 507:0.0 508:0.0 509:0.0 510:0.0 511:0.0 512:0.0 513:0.0 514:1.0 515:1.0 516:1.0 517:0.0 518:0.0 519:0.0 520:0.0 521:0.0 522:0.0 523:0.0 524:0.0 525:0.0 526:0.0 527:0.0 528:0.0 529:0.0 530:0.0 531:0.0 532:0.0 533:0.0 534:0.0 535:0.0 536:0.0 537:0.0 538:1.0 539:1.0 540:1.0 541:0.0 542:0.0 543:0.0 544:0.0 545:0.0 546:0.0 547:0.0 548:0.0 549:0.0 550:0.0 551:0.0 552:0.0 553:0.0 554:0.0 555:0.0 556:0.0 557:0.0 558:0.0 559:0.0 560:0.0 561:0.0 562:1.0 563:1.0 564:1.0 565:0.0 566:0.0 567:0.0 568:0.0 569:0.0 570:0.0 571:0.0 572:0.0 573:0.0 574:0.0 575:0.0 576:0.0 
0.0 0.0 9.072928610651208E-5 0.0 0.0 0.005516614228025888 0.0 0.0 0.0 0.005453119586927649 0.0 0.0 0.0038845438197715816 0.0010539989247371222 0.0 0.006536406805810172 0.0 0.0024395620224278293 0.0017973802151030102 0.0 0.0 0.0 0.00502520158290076 0.0 0.003754325797034847 0.0 0.0 0.0 0.0 0.0 1:0.0 2:0.0 3:0.0 4:0.0 5:0.0 6:0.0 7:0.0 8:1.0 9:1.0 10:1.0 11:1.0 12:1.0 13:1.0 14:1.0 15:1.0 16:1.0 17:1.0 18:1.0 19:1.0 20:0.0 21:0.0 22:0.0 23:0.0 24:0.0 25:0.0 26:0.0 27:0.0 28:0.0 29:0.0 30:0.0 31:0.0 32:1.0 33:1.0 34:1.0 35:1.0 36:1.0 37:1.0 38:1.0 39:1.0 40:1.0 41:1.0 42:1.0 43:1.0 44:0.0 45:0.0 46:0.0 47:0.0 48:0.0 49:0.0 50:0.0 51:0.0 52:0.0 53:0.0 54:0.0 55:0.0 56:1.0 57:1.0 58:1.0 59:1.0 60:1.0 61:1.0 62:1.0 63:1.0 64:1.0 65:1.0 66:1.0 67:1.0 68:0.0 69:0.0 70:0.0 71:0.0 72:0.0 73:0.0 74:0.0 75:1.0 76:1.0 77:1.0 78:1.0 79:1.0 80:1.0 81:1.0 82:1.0 83:1.0 84:1.0 85:1.0 86:1.0 87:1.0 88:1.0 89:1.0 90:1.0 91:1.0 92:1.0 93:1.0 94:0.0 95:0.0 96:0.0 97:0.0 98:0.0 99:1.0 100:1.0 101:1.0 102:1.0 103:1.0 104:1.0 105:1.0 106:1.0 107:1.0 108:1.0 109:1.0 110:1.0 111:1.0 112:1.0 113:1.0 114:1.0 115:1.0 116:1.0 117:1.0 118:0.0 119:0.0 120:0.0 121:0.0 122:0.0 123:1.0 124:1.0 125:1.0 126:1.0 127:1.0 128:1.0 129:1.0 130:1.0 131:1.0 132:1.0 133:1.0 134:1.0 135:1.0 136:1.0 137:1.0 138:1.0 139:1.0 140:1.0 141:1.0 142:0.0 143:0.0 144:0.0 145:1.0 146:1.0 147:1.0 148:1.0 149:1.0 150:1.0 151:1.0 152:0.0 153:0.0 154:0.0 155:0.0 156:0.0 157:0.0 158:0.0 159:0.0 160:0.0 161:0.0 162:0.0 163:0.0 164:1.0 165:1.0 166:1.0 167:1.0 168:1.0 169:1.0 170:1.0 171:1.0 172:1.0 173:1.0 174:1.0 175:1.0 176:0.0 177:0.0 178:0.0 179:0.0 180:0.0 181:0.0 182:0.0 183:0.0 184:0.0 185:0.0 186:0.0 187:0.0 188:1.0 189:1.0 190:1.0 191:1.0 192:1.0 193:1.0 194:1.0 195:1.0 196:1.0 197:1.0 198:1.0 199:1.0 200:0.0 201:0.0 202:0.0 203:0.0 204:0.0 205:0.0 206:0.0 207:0.0 208:0.0 209:0.0 210:0.0 211:0.0 212:1.0 213:1.0 214:1.0 215:1.0 216:1.0 217:1.0 218:1.0 219:1.0 220:1.0 221:1.0 222:1.0 223:1.0 224:0.0 225:0.0 226:0.0 227:0.0 228:0.0 229:0.0 230:0.0 231:0.0 232:0.0 233:0.0 234:0.0 235:0.0 236:1.0 237:1.0 238:1.0 239:1.0 240:1.0 241:1.0 242:1.0 243:0.0 244:0.0 245:0.0 246:0.0 247:0.0 248:0.0 249:0.0 250:0.0 251:0.0 252:0.0 253:0.0 254:0.0 255:0.0 256:0.0 257:0.0 258:0.0 259:0.0 260:0.0 261:0.0 262:1.0 263:1.0 264:1.0 265:1.0 266:1.0 267:0.0 268:0.0 269:0.0 270:0.0 271:0.0 272:0.0 273:0.0 274:0.0 275:0.0 276:0.0 277:0.0 278:0.0 279:0.0 280:0.0 281:0.0 282:0.0 283:0.0 284:0.0 285:0.0 286:1.0 287:1.0 288:1.0 289:1.0 290:1.0 291:0.0 292:0.0 293:0.0 294:0.0 295:0.0 296:0.0 297:0.0 298:0.0 299:0.0 300:0.0 301:0.0 302:0.0 303:0.0 304:0.0 305:0.0 306:0.0 307:0.0 308:0.0 309:0.0 310:1.0 311:1.0 312:1.0 313:1.0 314:1.0 315:0.0 316:0.0 317:0.0 318:0.0 319:0.0 320:0.0 321:0.0 322:0.0 323:0.0 324:0.0 325:0.0 326:0.0 327:0.0 328:0.0 329:0.0 330:0.0 331:0.0 332:0.0 333:0.0 334:1.0 335:1.0 336:1.0 337:1.0 338:1.0 339:0.0 340:0.0 341:0.0 342:0.0 343:0.0 344:0.0 345:0.0 346:0.0 347:0.0 348:0.0 349:0.0 350:0.0 351:0.0 352:0.0 353:0.0 354:0.0 355:0.0 356:0.0 357:0.0 358:1.0 359:1.0 360:1.0 361:1.0 362:1.0 363:0.0 364:0.0 365:0.0 366:0.0 367:0.0 368:0.0 369:0.0 370:0.0 371:0.0 372:0.0 373:0.0 374:0.0 375:0.0 376:0.0 377:0.0 378:0.0 379:0.0 380:0.0 381:0.0 382:1.0 383:1.0 384:1.0 385:1.0 386:1.0 387:0.0 388:0.0 389:0.0 390:0.0 391:0.0 392:0.0 393:0.0 394:0.0 395:0.0 396:0.0 397:0.0 398:0.0 399:0.0 400:0.0 401:0.0 402:0.0 403:0.0 404:0.0 405:0.0 406:1.0 407:1.0 408:1.0 409:0.0 410:0.0 411:1.0 412:1.0 413:1.0 414:1.0 415:1.0 416:1.0 417:1.0 418:1.0 419:1.0 420:1.0 421:1.0 422:1.0 423:1.0 424:1.0 425:1.0 426:1.0 427:1.0 428:1.0 429:1.0 430:1.0 431:1.0 432:1.0 433:0.0 434:0.0 435:1.0 436:1.0 437:1.0 438:1.0 439:1.0 440:1.0 441:1.0 442:1.0 443:1.0 444:1.0 445:1.0 446:1.0 447:1.0 448:1.0 449:1.0 450:1.0 451:1.0 452:1.0 453:1.0 454:1.0 455:1.0 456:1.0 457:0.0 458:0.0 459:1.0 460:1.0 461:1.0 462:1.0 463:1.0 464:1.0 465:1.0 466:1.0 467:1.0 468:1.0 469:1.0 470:1.0 471:1.0 472:1.0 473:1.0 474:1.0 475:1.0 476:1.0 477:1.0 478:1.0 479:1.0 480:1.0 481:0.0 482:0.0 483:0.0 484:0.0 485:1.0 486:1.0 487:1.0 488:1.0 489:1.0 490:1.0 491:1.0 492:1.0 493:1.0 494:1.0 495:1.0 496:1.0 497:1.0 498:1.0 499:1.0 500:0.0 501:0.0 502:0.0 503:0.0 504:0.0 505:0.0 506:0.0 507:0.0 508:0.0 509:1.0 510:1.0 511:1.0 512:1.0 513:1.0 514:1.0 515:1.0 516:1.0 517:1.0 518:1.0 519:1.0 520:1.0 521:1.0 522:1.0 523:1.0 524:0.0 525:0.0 526:0.0 527:0.0 528:0.0 529:0.0 530:0.0 531:0.0 532:0.0 533:1.0 534:1.0 535:1.0 536:1.0 537:1.0 538:1.0 539:1.0 540:1.0 541:1.0 542:1.0 543:1.0 544:1.0 545:1.0 546:1.0 547:1.0 548:0.0 549:0.0 550:0.0 551:0.0 552:0.0 553:0.0 554:0.0 555:0.0 556:0.0 557:1.0 558:1.0 559:1.0 560:1.0 561:1.0 562:1.0 563:1.0 564:1.0 565:1.0 566:1.0 567:1.0 568:1.0 569:1.0 570:1.0 571:1.0 572:0.0 573:0.0 574:0.0 575:0.0 576:0.0 
0.0 0.0 0.005701112927878317 0.0 0.006833890824107031 6.251734696193612E-4 0.0 0.0 0.0 0.0 0.0 0.0 0.0 0.0 0.0 0.0 0.003258235237282266 0.0 0.0 0.0 0.0 0.0 0.0 0.0 0.0 0.0 0.0 0.0 0.0 0.0 1:0.0 2:0.0 3:0.0 4:0.0 5:0.0 6:0.0 7:0.0 8:0.0 9:0.0 10:0.0 11:0.0 12:0.0 13:1.0 14:1.0 15:1.0 16:1.0 17:0.0 18:0.0 19:0.0 20:0.0 21:0.0 22:0.0 23:0.0 24:0.0 25:0.0 26:0.0 27:0.0 28:0.0 29:0.0 30:0.0 31:0.0 32:0.0 33:0.0 34:0.0 35:0.0 36:0.0 37:1.0 38:1.0 39:1.0 40:1.0 41:0.0 42:0.0 43:0.0 44:0.0 45:0.0 46:0.0 47:0.0 48:0.0 49:0.0 50:0.0 51:0.0 52:0.0 53:0.0 54:0.0 55:0.0 56:0.0 57:0.0 58:0.0 59:0.0 60:0.0 61:1.0 62:1.0 63:1.0 64:1.0 65:0.0 66:0.0 67:0.0 68:0.0 69:0.0 70:0.0 71:0.0 72:0.0 73:0.0 74:0.0 75:0.0 76:0.0 77:1.0 78:1.0 79:1.0 80:1.0 81:1.0 82:1.0 83:1.0 84:1.0 85:1.0 86:1.0 87:1.0 88:1.0 89:1.0 90:1.0 91:1.0 92:1.0 93:1.0 94:0.0 95:0.0 96:0.0 97:0.0 98:0.0 99:0.0 100:0.0 101:1.0 102:1.0 103:1.0 104:1.0 105:1.0 106:1.0 107:1.0 108:1.0 109:1.0 110:1.0 111:1.0 112:1.0 113:1.0 114:1.0 115:1.0 116:1.0 117:1.0 118:0.0 119:0.0 120:0.0 121:0.0 122:0.0 123:0.0 124:0.0 125:1.0 126:1.0 127:1.0 128:1.0 129:1.0 130:1.0 131:1.0 132:1.0 133:1.0 134:1.0 135:1.0 136:1.0 137:1.0 138:1.0 139:1.0 140:1.0 141:1.0 142:0.0 143:0.0 144:0.0 145:0.0 146:0.0 147:1.0 148:1.0 149:1.0 150:1.0 151:1.0 152:1.0 153:1.0 154:1.0 155:1.0 156:1.0 157:0.0 158:0.0 159:0.0 160:0.0 161:0.0 162:0.0 163:0.0 164:1.0 165:1.0 166:1.0 167:1.0 168:1.0 169:0.0 170:0.0 171:1.0 172:1.0 173:1.0 174:1.0 175:1.0 176:1.0 177:1.0 178:1.0 179:1.0 180:1.0 181:0.0 182:0.0 183:0.0 184:0.0 185:0.0 186:0.0 187:0.0 188:1.0 189:1.0 190:1.0 191:1.0 192:1.0 193:0.0 194:0.0 195:1.0 196:1.0 197:1.0 198:1.0 199:1.0 200:1.0 201:1.0 202:1.0 203:1.0 204:1.0 205:0.0 206:0.0 207:0.0 208:0.0 209:0.0 210:0.0 211:0.0 212:1.0 213:1.0 214:1.0 215:1.0 216:1.0 217:1.0 218:1.0 219:1.0 220:1.0 221:0.0 222:0.0 223:0.0 224:0.0 225:0.0 226:0.0 227:0.0 228:0.0 229:0.0 230:0.0 231:0.0 232:0.0 233:0.0 234:0.0 235:0.0 236:0.0 237:0.0 238:1.0 239:1.0 240:1.0 241:1.0 242:1.0 243:1.0 244:1.0 245:0.0 246:0.0 247:0.0 248:0.0 249:0.0 250:0.0 251:0.0 252:0.0 253:0.0 254:0.0 255:0.0 256:0.0 257:0.0 258:0.0 259:0.0 260:0.0 261:0.0 262:1.0 263:1.0 264:1.0 265:1.0 266:1.0 267:1.0 268:1.0 269:0.0 270:0.0 271:0.0 272:0.0 273:0.0 274:0.0 275:0.0 276:0.0 277:0.0 278:0.0 279:0.0 280:0.0 281:0.0 282:0.0 283:0.0 284:0.0 285:0.0 286:1.0 287:1.0 288:1.0 289:1.0 290:1.0 291:0.0 292:0.0 293:0.0 294:0.0 295:0.0 296:0.0 297:0.0 298:0.0 299:0.0 300:0.0 301:0.0 302:0.0 303:0.0 304:0.0 305:0.0 306:0.0 307:0.0 308:0.0 309:0.0 310:1.0 311:1.0 312:1.0 313:1.0 314:1.0 315:0.0 316:0.0 317:0.0 318:0.0 319:0.0 320:0.0 321:0.0 322:0.0 323:0.0 324:0.0 325:0.0 326:0.0 327:0.0 328:0.0 329:0.0 330:0.0 331:0.0 332:0.0 333:0.0 334:1.0 335:1.0 336:1.0 337:1.0 338:1.0 339:0.0 340:0.0 341:0.0 342:0.0 343:0.0 344:0.0 345:0.0 346:0.0 347:0.0 348:0.0 349:0.0 350:0.0 351:0.0 352:0.0 353:0.0 354:0.0 355:0.0 356:0.0 357:0.0 358:1.0 359:1.0 360:1.0 361:0.0 362:0.0 363:1.0 364:1.0 365:1.0 366:1.0 367:1.0 368:0.0 369:0.0 370:0.0 371:0.0 372:0.0 373:1.0 374:1.0 375:1.0 376:1.0 377:1.0 378:1.0 379:1.0 380:1.0 381:1.0 382:1.0 383:1.0 384:1.0 385:0.0 386:0.0 387:1.0 388:1.0 389:1.0 390:1.0 391:1.0 392:0.0 393:0.0 394:0.0 395:0.0 396:0.0 397:1.0 398:1.0 399:1.0 400:1.0 401:1.0 402:1.0 403:1.0 404:1.0 405:1.0 406:1.0 407:1.0 408:1.0 409:0.0 410:0.0 411:1.0 412:1.0 413:1.0 414:1.0 415:1.0 416:0.0 417:0.0 418:0.0 419:0.0 420:0.0 421:1.0 422:1.0 423:1.0 424:1.0 425:1.0 426:1.0 427:1.0 428:1.0 429:1.0 430:1.0 431:1.0 432:1.0 433:0.0 434:0.0 435:1.0 436:1.0 437:1.0 438:1.0 439:1.0 440:1.0 441:1.0 442:1.0 443:1.0 444:1.0 445:1.0 446:1.0 447:1.0 448:1.0 449:1.0 450:1.0 451:1.0 452:1.0 453:1.0 454:0.0 455:0.0 456:0.0 457:0.0 458:0.0 459:1.0 460:1.0 461:1.0 462:1.0 463:1.0 464:1.0 465:1.0 466:1.0 467:1.0 468:1.0 469:1.0 470:1.0 471:1.0 472:1.0 473:1.0 474:1.0 475:1.0 476:1.0 477:1.0 478:0.0 479:0.0 480:0.0 481:0.0 482:0.0 483:1.0 484:1.0 485:1.0 486:1.0 487:1.0 488:1.0 489:1.0 490:1.0 491:1.0 492:1.0 493:1.0 494:1.0 495:1.0 496:1.0 497:1.0 498:1.0 499:1.0 500:1.0 501:1.0 502:0.0 503:0.0 504:0.0 505:0.0 506:0.0 507:0.0 508:0.0 509:0.0 510:0.0 511:0.0 512:0.0 513:0.0 514:1.0 515:1.0 516:1.0 517:0.0 518:0.0 519:0.0 520:0.0 521:0.0 522:0.0 523:0.0 524:0.0 525:0.0 526:0.0 527:0.0 528:0.0 529:0.0 530:0.0 531:0.0 532:0.0 533:0.0 534:0.0 535:0.0 536:0.0 537:0.0 538:1.0 539:1.0 540:1.0 541:0.0 542:0.0 543:0.0 544:0.0 545:0.0 546:0.0 547:0.0 548:0.0 549:0.0 550:0.0 551:0.0 552:0.0 553:0.0 554:0.0 555:0.0 556:0.0 557:0.0 558:0.0 559:0.0 560:0.0 561:0.0 562:1.0 563:1.0 564:1.0 565:0.0 566:0.0 567:0.0 568:0.0 569:0.0 570:0.0 571:0.0 572:0.0 573:0.0 574:0.0 575:0.0 576:0.0 
0.0 0.0 0.0 0.0 0.0 0.0 0.0 0.0011416135123974121 0.0 0.0 0.0 0.0014959552664558767 0.0 0.0 0.0 0.0 2.8408735880619345E-4 2.823705837552189E-4 0.0 0.0 0.0 0.0 0.0 0.0 0.0 0.0 0.0013093439586619813 0.0 0.0 0.0 1:0.0 2:0.0 3:0.0 4:0.0 5:1.0 6:1.0 7:1.0 8:1.0 9:1.0 10:1.0 11:1.0 12:1.0 13:1.0 14:1.0 15:1.0 16:1.0 17:1.0 18:1.0 19:1.0 20:0.0 21:0.0 22:0.0 23:0.0 24:0.0 25:0.0 26:0.0 27:0.0 28:0.0 29:1.0 30:1.0 31:1.0 32:1.0 33:1.0 34:1.0 35:1.0 36:1.0 37:1.0 38:1.0 39:1.0 40:1.0 41:1.0 42:1.0 43:1.0 44:0.0 45:0.0 46:0.0 47:0.0 48:0.0 49:0.0 50:0.0 51:0.0 52:0.0 53:1.0 54:1.0 55:1.0 56:1.0 57:1.0 58:1.0 59:1.0 60:1.0 61:1.0 62:1.0 63:1.0 64:1.0 65:1.0 66:1.0 67:1.0 68:0.0 69:0.0 70:0.0 71:0.0 72:0.0 73:0.0 74:0.0 75:1.0 76:1.0 77:1.0 78:1.0 79:1.0 80:1.0 81:1.0 82:1.0 83:1.0 84:1.0 85:1.0 86:1.0 87:1.0 88:1.0 89:1.0 90:1.0 91:1.0 92:1.0 93:1.0 94:0.0 95:0.0 96:0.0 97:0.0 98:0.0 99:1.0 100:1.0 101:1.0 102:1.0 103:1.0 104:1.0 105:1.0 106:1.0 107:1.0 108:1.0 109:1.0 110:1.0 111:1.0 112:1.0 113:1.0 114:1.0 115:1.0 116:1.0 117:1.0 118:0.0 119:0.0 120:0.0 121:0.0 122:0.0 123:1.0 124:1.0 125:1.0 126:1.0 127:1.0 128:1.0 129:1.0 130:1.0 131:1.0 132:1.0 133:1.0 134:1.0 135:1.0 136:1.0 137:1.0 138:1.0 139:1.0 140:1.0 141:1.0 142:0.0 143:0.0 144:0.0 145:1.0 146:1.0 147:1.0 148:1.0 149:0.0 150:0.0 151:0.0 152:0.0 153:0.0 154:0.0 155:0.0 156:0.0 157:0.0 158:0.0 159:0.0 160:0.0 161:0.0 162:0.0 163:0.0 164:1.0 165:1.0 166:1.0 167:1.0 168:1.0 169:1.0 170:1.0 171:1.0 172:1.0 173:0.0 174:0.0 175:0.0 176:0.0 177:0.0 178:0.0 179:0.0 180:0.0 181:0.0 182:0.0 183:0.0 184:0.0 185:0.0 186:0.0 187:0.0 188:1.0 189:1.0 190:1.0 191:1.0 192:1.0 193:1.0 194:1.0 195:1.0 196:1.0 197:0.0 198:0.0 199:0.0 200:0.0 201:0.0 202:0.0 203:0.0 204:0.0 205:0.0 206:0.0 207:0.0 208:0.0 209:0.0 210:0.0 211:0.0 212:1.0 213:1.0 214:1.0 215:1.0 216:1.0 217:1.0 218:1.0 219:1.0 220:1.0 221:0.0 222:0.0 223:0.0 224:0.0 225:0.0 226:0.0 227:0.0 228:0.0 229:0.0 230:0.0 231:0.0 232:0.0 233:0.0 234:0.0 235:0.0 236:1.0 237:1.0 238:1.0 239:1.0 240:1.0 241:1.0 242:1.0 243:0.0 244:0.0 245:0.0 246:0.0 247:0.0 248:0.0 249:0.0 250:0.0 251:0.0 252:0.0 253:0.0 254:0.0 255:0.0 256:0.0 257:0.0 258:0.0 259:0.0 260:0.0 261:0.0 262:1.0 263:1.0 264:1.0 265:1.0 266:1.0 267:0.0 268:0.0 269:0.0 270:0.0 271:0.0 272:0.0 273:0.0 274:0.0 275:0.0 276:0.0 277:0.0 278:0.0 279:0.0 280:0.0 281:0.0 282:0.0 283:0.0 284:0.0 285:0.0 286:1.0 287:1.0 288:1.0 289:1.0 290:1.0 291:0.0 292:0.0 293:0.0 294:0.0 295:0.0 296:0.0 297:0.0 298:0.0 299:0.0 300:0.0 301:0.0 302:0.0 303:0.0 304:0.0 305:0.0 306:0.0 307:0.0 308:0.0 309:0.0 310:1.0 311:1.0 312:1.0 313:1.0 314:1.0 315:1.0 316:1.0 317:0.0 318:0.0 319:0.0 320:0.0 321:0.0 322:0.0 323:0.0 324:0.0 325:0.0 326:0.0 327:0.0 328:0.0 329:1.0 330:1.0 331:1.0 332:1.0 333:1.0 334:1.0 335:1.0 336:1.0 337:1.0 338:1.0 339:1.0 340:1.0 341:0.0 342:0.0 343:0.0 344:0.0 345:0.0 346:0.0 347:0.0 348:0.0 349:0.0 350:0.0 351:0.0 352:0.0 353:1.0 354:1.0 355:1.0 356:1.0 357:1.0 358:1.0 359:1.0 360:1.0 361:1.0 362:1.0 363:1.0 364:1.0 365:0.0 366:0.0 367:0.0 368:0.0 369:0.0 370:0.0 371:0.0 372:0.0 373:0.0 374:0.0 375:0.0 376:0.0 377:1.0 378:1.0 379:1.0 380:1.0 381:1.0 382:1.0 383:1.0 384:1.0 385:1.0 386:1.0 387:1.0 388:1.0 389:0.0 390:0.0 391:0.0 392:0.0 393:0.0 394:0.0 395:0.0 396:0.0 397:0.0 398:0.0 399:0.0 400:0.0 401:1.0 402:1.0 403:1.0 404:1.0 405:1.0 406:1.0 407:1.0 408:1.0 409:0.0 410:0.0 411:1.0 412:1.0 413:1.0 414:1.0 415:1.0 416:1.0 417:1.0 418:1.0 419:1.0 420:1.0 421:1.0 422:1.0 423:1.0 424:1.0 425:1.0 426:1.0 427:1.0 428:1.0 429:1.0 430:0.0 431:0.0 432:0.0 433:0.0 434:0.0 435:1.0 436:1.0 437:1.0 438:1.0 439:1.0 440:1.0 441:1.0 442:1.0 443:1.0 444:1.0 445:1.0 446:1.0 447:1.0 448:1.0 449:1.0 450:1.0 451:1.0 452:1.0 453:1.0 454:0.0 455:0.0 456:0.0 457:0.0 458:0.0 459:1.0 460:1.0 461:1.0 462:1.0 463:1.0 464:1.0 465:1.0 466:1.0 467:1.0 468:1.0 469:1.0 470:1.0 471:1.0 472:1.0 473:1.0 474:1.0 475:1.0 476:1.0 477:1.0 478:0.0 479:0.0 480:0.0 481:0.0 482:0.0 483:0.0 484:0.0 485:1.0 486:1.0 487:1.0 488:1.0 489:1.0 490:1.0 491:1.0 492:1.0 493:1.0 494:1.0 495:1.0 496:1.0 497:1.0 498:1.0 499:1.0 500:0.0 501:0.0 502:0.0 503:0.0 504:0.0 505:0.0 506:0.0 507:0.0 508:0.0 509:1.0 510:1.0 511:1.0 512:1.0 513:1.0 514:1.0 515:1.0 516:1.0 517:1.0 518:1.0 519:1.0 520:1.0 521:1.0 522:1.0 523:1.0 524:0.0 525:0.0 526:0.0 527:0.0 528:0.0 529:0.0 530:0.0 531:0.0 532:0.0 533:1.0 534:1.0 535:1.0 536:1.0 537:1.0 538:1.0 539:1.0 540:1.0 541:1.0 542:1.0 543:1.0 544:1.0 545:1.0 546:1.0 547:1.0 548:0.0 549:0.0 550:0.0 551:0.0 552:0.0 553:0.0 554:0.0 555:0.0 556:0.0 557:1.0 558:1.0 559:1.0 560:1.0 561:1.0 562:1.0 563:1.0 564:1.0 565:1.0 566:1.0 567:1.0 568:1.0 569:1.0 570:1.0 571:1.0 572:0.0 573:0.0 574:0.0 575:0.0 576:0.0 
0.0 0.0 0.0 0.0 0.002667508147345299 0.0 0.0 0.009217361773333996 0.0 0.004167048123100025 0.0 0.0 0.0 0.0 0.0 1.7438261305358486E-4 0.0 0.0 0.0 0.0 0.0 0.0 0.0 0.0 0.01107856039094882 0.0 0.001971662686858965 0.0 0.0 0.0 1:0.0 2:0.0 3:1.0 4:1.0 5:1.0 6:1.0 7:1.0 8:1.0 9:1.0 10:1.0 11:1.0 12:1.0 13:1.0 14:1.0 15:1.0 16:1.0 17:1.0 18:1.0 19:1.0 20:0.0 21:0.0 22:0.0 23:0.0 24:0.0 25:0.0 26:0.0 27:1.0 28:1.0 29:1.0 30:1.0 31:1.0 32:1.0 33:1.0 34:1.0 35:1.0 36:1.0 37:1.0 38:1.0 39:1.0 40:1.0 41:1.0 42:1.0 43:1.0 44:0.0 45:0.0 46:0.0 47:0.0 48:0.0 49:0.0 50:0.0 51:1.0 52:1.0 53:1.0 54:1.0 55:1.0 56:1.0 57:1.0 58:1.0 59:1.0 60:1.0 61:1.0 62:1.0 63:1.0 64:1.0 65:1.0 66:1.0 67:1.0 68:0.0 69:0.0 70:0.0 71:0.0 72:0.0 73:0.0 74:0.0 75:1.0 76:1.0 77:1.0 78:1.0 79:1.0 80:1.0 81:1.0 82:1.0 83:1.0 84:1.0 85:1.0 86:1.0 87:1.0 88:1.0 89:1.0 90:1.0 91:1.0 92:1.0 93:1.0 94:0.0 95:0.0 96:0.0 97:0.0 98:0.0 99:1.0 100:1.0 101:1.0 102:1.0 103:1.0 104:1.0 105:1.0 106:1.0 107:1.0 108:1.0 109:1.0 110:1.0 111:1.0 112:1.0 113:1.0 114:1.0 115:1.0 116:1.0 117:1.0 118:0.0 119:0.0 120:0.0 121:0.0 122:0.0 123:1.0 124:1.0 125:1.0 126:1.0 127:1.0 128:1.0 129:1.0 130:1.0 131:1.0 132:1.0 133:1.0 134:1.0 135:1.0 136:1.0 137:1.0 138:1.0 139:1.0 140:1.0 141:1.0 142:0.0 143:0.0 144:0.0 145:1.0 146:1.0 147:1.0 148:1.0 149:0.0 150:0.0 151:0.0 152:0.0 153:0.0 154:0.0 155:0.0 156:0.0 157:0.0 158:0.0 159:0.0 160:0.0 161:0.0 162:0.0 163:0.0 164:1.0 165:1.0 166:1.0 167:1.0 168:1.0 169:1.0 170:1.0 171:1.0 172:1.0 173:0.0 174:0.0 175:0.0 176:0.0 177:0.0 178:0.0 179:0.0 180:0.0 181:0.0 182:0.0 183:0.0 184:0.0 185:0.0 186:0.0 187:0.0 188:1.0 189:1.0 190:1.0 191:1.0 192:1.0 193:1.0 194:1.0 195:1.0 196:1.0 197:0.0 198:0.0 199:0.0 200:0.0 201:0.0 202:0.0 203:0.0 204:0.0 205:0.0 206:0.0 207:0.0 208:0.0 209:0.0 210:0.0 211:0.0 212:1.0 213:1.0 214:1.0 215:1.0 216:1.0 217:1.0 218:1.0 219:1.0 220:1.0 221:0.0 222:0.0 223:0.0 224:0.0 225:0.0 226:0.0 227:0.0 228:0.0 229:0.0 230:0.0 231:0.0 232:0.0 233:0.0 234:0.0 235:0.0 236:1.0 237:1.0 238:1.0 239:1.0 240:1.0 241:1.0 242:1.0 243:0.0 244:0.0 245:0.0 246:0.0 247:0.0 248:0.0 249:0.0 250:0.0 251:0.0 252:0.0 253:0.0 254:0.0 255:0.0 256:0.0 257:0.0 258:0.0 259:0.0 260:0.0 261:0.0 262:1.0 263:1.0 264:1.0 265:1.0 266:1.0 267:0.0 268:0.0 269:0.0 270:0.0 271:0.0 272:0.0 273:0.0 274:0.0 275:0.0 276:0.0 277:0.0 278:0.0 279:0.0 280:0.0 281:0.0 282:0.0 283:0.0 284:0.0 285:0.0 286:1.0 287:1.0 288:1.0 289:1.0 290:1.0 291:0.0 292:0.0 293:0.0 294:0.0 295:0.0 296:0.0 297:0.0 298:0.0 299:0.0 300:0.0 301:0.0 302:0.0 303:0.0 304:0.0 305:0.0 306:0.0 307:0.0 308:0.0 309:0.0 310:1.0 311:1.0 312:1.0 313:1.0 314:1.0 315:1.0 316:1.0 317:0.0 318:0.0 319:0.0 320:0.0 321:0.0 322:0.0 323:0.0 324:0.0 325:0.0 326:0.0 327:0.0 328:0.0 329:0.0 330:0.0 331:0.0 332:1.0 333:1.0 334:1.0 335:1.0 336:1.0 337:1.0 338:1.0 339:1.0 340:1.0 341:0.0 342:0.0 343:0.0 344:0.0 345:0.0 346:0.0 347:0.0 348:0.0 349:0.0 350:0.0 351:0.0 352:0.0 353:0.0 354:0.0 355:0.0 356:1.0 357:1.0 358:1.0 359:1.0 360:1.0 361:1.0 362:1.0 363:1.0 364:1.0 365:0.0 366:0.0 367:0.0 368:0.0 369:0.0 370:0.0 371:0.0 372:0.0 373:0.0 374:0.0 375:0.0 376:0.0 377:0.0 378:0.0 379:0.0 380:1.0 381:1.0 382:1.0 383:1.0 384:1.0 385:1.0 386:1.0 387:1.0 388:1.0 389:0.0 390:0.0 391:0.0 392:0.0 393:0.0 394:0.0 395:0.0 396:0.0 397:0.0 398:0.0 399:0.0 400:0.0 401:0.0 402:0.0 403:0.0 404:1.0 405:1.0 406:1.0 407:1.0 408:1.0 409:0.0 410:0.0 411:1.0 412:1.0 413:1.0 414:1.0 415:1.0 416:1.0 417:1.0 418:1.0 419:1.0 420:1.0 421:1.0 422:1.0 423:1.0 424:1.0 425:1.0 426:1.0 427:1.0 428:1.0 429:1.0 430:0.0 431:0.0 432:0.0 433:0.0 434:0.0 435:1.0 436:1.0 437:1.0 438:1.0 439:1.0 440:1.0 441:1.0 442:1.0 443:1.0 444:1.0 445:1.0 446:1.0 447:1.0 448:1.0 449:1.0 450:1.0 451:1.0 452:1.0 453:1.0 454:0.0 455:0.0 456:0.0 457:0.0 458:0.0 459:1.0 460:1.0 461:1.0 462:1.0 463:1.0 464:1.0 465:1.0 466:1.0 467:1.0 468:1.0 469:1.0 470:1.0 471:1.0 472:1.0 473:1.0 474:1.0 475:1.0 476:1.0 477:1.0 478:0.0 479:0.0 480:0.0 481:0.0 482:0.0 483:0.0 484:0.0 485:1.0 486:1.0 487:1.0 488:1.0 489:1.0 490:1.0 491:1.0 492:1.0 493:1.0 494:1.0 495:1.0 496:1.0 497:1.0 498:1.0 499:1.0 500:0.0 501:0.0 502:0.0 503:0.0 504:0.0 505:0.0 506:0.0 507:0.0 508:0.0 509:1.0 510:1.0 511:1.0 512:1.0 513:1.0 514:1.0 515:1.0 516:1.0 517:1.0 518:1.0 519:1.0 520:1.0 521:1.0 522:1.0 523:1.0 524:0.0 525:0.0 526:0.0 527:0.0 528:0.0 529:0.0 530:0.0 531:0.0 532:0.0 533:1.0 534:1.0 535:1.0 536:1.0 537:1.0 538:1.0 539:1.0 540:1.0 541:1.0 542:1.0 543:1.0 544:1.0 545:1.0 546:1.0 547:1.0 548:0.0 549:0.0 550:0.0 551:0.0 552:0.0 553:0.0 554:0.0 555:0.0 556:0.0 557:1.0 558:1.0 559:1.0 560:1.0 561:1.0 562:1.0 563:1.0 564:1.0 565:1.0 566:1.0 567:1.0 568:1.0 569:1.0 570:1.0 571:1.0 572:0.0 573:0.0 574:0.0 575:0.0 576:0.0 
0.0029777912427287802 0.003699049000704926 0.0017018466983747984 0.0 0.0 0.006552667154167235 5.261989781744625E-4 0.0 0.00481906235563504 0.0034207326928699625 0.0 0.0 0.0030932791335626583 0.0 0.012753141559593173 0.0030575958888090678 0.0031717920297786176 0.0 8.265299863558885E-4 9.881226350939003E-4 0.004240307784032206 0.00611801149471145 1.6019093376779792E-4 0.0 0.0032394589064258647 0.0 0.0 0.0012532730413696194 0.0 4.977533118446755E-4 1:0.0 2:0.0 3:0.0 4:0.0 5:0.0 6:0.0 7:0.0 8:0.0 9:0.0 10:1.0 11:1.0 12:1.0 13:1.0 14:1.0 15:1.0 16:1.0 17:0.0 18:0.0 19:0.0 20:0.0 21:0.0 22:0.0 23:0.0 24:0.0 25:0.0 26:0.0 27:0.0 28:0.0 29:0.0 30:0.0 31:0.0 32:0.0 33:0.0 34:1.0 35:1.0 36:1.0 37:1.0 38:1.0 39:1.0 40:1.0 41:0.0 42:0.0 43:0.0 44:0.0 45:0.0 46:0.0 47:0.0 48:0.0 49:0.0 50:0.0 51:0.0 52:0.0 53:0.0 54:0.0 55:0.0 56:0.0 57:0.0 58:1.0 59:1.0 60:1.0 61:1.0 62:1.0 63:1.0 64:1.0 65:0.0 66:0.0 67:0.0 68:0.0 69:0.0 70:0.0 71:0.0 72:0.0 73:0.0 74:0.0 75:1.0 76:1.0 77:1.0 78:1.0 79:1.0 80:1.0 81:1.0 82:1.0 83:1.0 84:1.0 85:1.0 86:1.0 87:1.0 88:1.0 89:1.0 90:1.0 91:1.0 92:1.0 93:1.0 94:0.0 95:0.0 96:0.0 97:0.0 98:0.0 99:1.0 100:1.0 101:1.0 102:1.0 103:1.0 104:1.0 105:1.0 106:1.0 107:1.0 108:1.0 109:1.0 110:1.0 111:1.0 112:1.0 113:1.0 114:1.0 115:1.0 116:1.0 117:1.0 118:0.0 119:0.0 120:0.0 121:0.0 122:0.0 123:1.0 124:1.0 125:1.0 126:1.0 127:1.0 128:1.0 129:1.0 130:1.0 131:1.0 132:1.0 133:1.0 134:1.0 135:1.0 136:1.0 137:1.0 138:1.0 139:1.0 140:1.0 141:1.0 142:0.0 143:0.0 144:0.0 145:1.0 146:1.0 147:1.0 148:1.0 149:1.0 150:1.0 151:1.0 152:1.0 153:1.0 154:0.0 155:0.0 156:0.0 157:0.0 158:0.0 159:0.0 160:0.0 161:0.0 162:0.0 163:0.0 164:1.0 165:1.0 166:1.0 167:1.0 168:1.0 169:1.0 170:1.0 171:1.0 172:1.0 173:1.0 174:1.0 175:1.0 176:1.0 177:1.0 178:0.0 179:0.0 180:0.0 181:0.0 182:0.0 183:0.0 184:0.0 185:0.0 186:0.0 187:0.0 188:1.0 189:1.0 190:1.0 191:1.0 192:1.0 193:1.0 194:1.0 195:1.0 196:1.0 197:1.0 198:1.0 199:1.0 200:1.0 201:1.0 202:0.0 203:0.0 204:0.0 205:0.0 206:0.0 207:0.0 208:0.0 209:0.0 210:0.0 211:0.0 212:1.0 213:1.0 214:1.0 215:1.0 216:1.0 217:1.0 218:1.0 219:1.0 220:1.0 221:1.0 222:1.0 223:1.0 224:1.0 225:1.0 226:0.0 227:0.0 228:0.0 229:0.0 230:0.0 231:0.0 232:0.0 233:0.0 234:0.0 235:0.0 236:1.0 237:1.0 238:1.0 239:1.0 240:1.0 241:1.0 242:1.0 243:0.0 244:0.0 245:0.0 246:0.0 247:0.0 248:0.0 249:0.0 250:0.0 251:0.0 252:0.0 253:0.0 254:0.0 255:0.0 256:0.0 257:0.0 258:0.0 259:0.0 260:0.0 261:0.0 262:1.0 263:1.0 264:1.0 265:1.0 266:1.0 267:0.0 268:0.0 269:0.0 270:0.0 271:0.0 272:0.0 273:0.0 274:0.0 275:0.0 276:0.0 277:0.0 278:0.0 279:0.0 280:0.0 281:0.0 282:0.0 283:0.0 284:0.0 285:0.0 286:1.0 287:1.0 288:1.0 289:1.0 290:1.0 291:0.0 292:0.0 293:0.0 294:0.0 295:0.0 296:0.0 297:0.0 298:0.0 299:0.0 300:0.0 301:0.0 302:0.0 303:0.0 304:0.0 305:0.0 306:0.0 307:0.0 308:0.0 309:0.0 310:1.0 311:1.0 312:1.0 313:1.0 314:1.0 315:0.0 316:0.0 317:0.0 318:0.0 319:0.0 320:0.0 321:0.0 322:0.0 323:0.0 324:0.0 325:0.0 326:0.0 327:0.0 328:0.0 329:0.0 330:0.0 331:0.0 332:0.0 333:0.0 334:1.0 335:1.0 336:1.0 337:1.0 338:1.0 339:0.0 340:0.0 341:0.0 342:0.0 343:0.0 344:0.0 345:0.0 346:0.0 347:0.0 348:0.0 349:0.0 350:0.0 351:0.0 352:0.0 353:0.0 354:0.0 355:0.0 356:0.0 357:0.0 358:1.0 359:1.0 360:1.0 361:1.0 362:1.0 363:0.0 364:0.0 365:0.0 366:0.0 367:0.0 368:0.0 369:0.0 370:0.0 371:0.0 372:0.0 373:0.0 374:0.0 375:0.0 376:0.0 377:0.0 378:0.0 379:0.0 380:0.0 381:0.0 382:1.0 383:1.0 384:1.0 385:1.0 386:1.0 387:0.0 388:0.0 389:0.0 390:0.0 391:0.0 392:0.0 393:0.0 394:0.0 395:0.0 396:0.0 397:0.0 398:0.0 399:0.0 400:0.0 401:0.0 402:0.0 403:0.0 404:0.0 405:0.0 406:1.0 407:1.0 408:1.0 409:0.0 410:0.0 411:1.0 412:1.0 413:1.0 414:1.0 415:1.0 416:1.0 417:1.0 418:1.0 419:1.0 420:1.0 421:1.0 422:1.0 423:1.0 424:1.0 425:1.0 426:1.0 427:1.0 428:1.0 429:1.0 430:1.0 431:1.0 432:1.0 433:0.0 434:0.0 435:1.0 436:1.0 437:1.0 438:1.0 439:1.0 440:1.0 441:1.0 442:1.0 443:1.0 444:1.0 445:1.0 446:1.0 447:1.0 448:1.0 449:1.0 450:1.0 451:1.0 452:1.0 453:1.0 454:1.0 455:1.0 456:1.0 457:0.0 458:0.0 459:1.0 460:1.0 461:1.0 462:1.0 463:1.0 464:1.0 465:1.0 466:1.0 467:1.0 468:1.0 469:1.0 470:1.0 471:1.0 472:1.0 473:1.0 474:1.0 475:1.0 476:1.0 477:1.0 478:1.0 479:1.0 480:1.0 481:0.0 482:0.0 483:1.0 484:1.0 485:1.0 486:1.0 487:1.0 488:1.0 489:1.0 490:1.0 491:1.0 492:1.0 493:1.0 494:1.0 495:1.0 496:1.0 497:1.0 498:1.0 499:1.0 500:1.0 501:1.0 502:0.0 503:0.0 504:0.0 505:0.0 506:0.0 507:1.0 508:1.0 509:1.0 510:1.0 511:1.0 512:1.0 513:1.0 514:1.0 515:1.0 516:1.0 517:1.0 518:1.0 519:1.0 520:1.0 521:1.0 522:1.0 523:1.0 524:1.0 525:1.0 526:0.0 527:0.0 528:0.0 529:0.0 530:0.0 531:1.0 532:1.0 533:1.0 534:1.0 535:1.0 536:1.0 537:1.0 538:1.0 539:1.0 540:1.0 541:1.0 542:1.0 543:1.0 544:1.0 545:1.0 546:1.0 547:1.0 548:1.0 549:1.0 550:0.0 551:0.0 552:0.0 553:0.0 554:0.0 555:1.0 556:1.0 557:1.0 558:1.0 559:1.0 560:1.0 561:1.0 562:1.0 563:1.0 564:1.0 565:1.0 566:1.0 567:1.0 568:1.0 569:1.0 570:1.0 571:1.0 572:1.0 573:1.0 574:0.0 575:0.0 576:0.0 
6.318566672588418E-4 0.0 0.0 0.0 0.0 0.0 0.0 0.0 0.0 0.0 0.0 2.625075519355968E-5 0.0 0.0 0.0 0.0 0.0 0.0 0.0 0.0 0.0 0.0 0.0 0.0 0.0 0.0 0.0 0.0 0.0 0.0 1:0.0 2:0.0 3:0.0 4:0.0 5:0.0 6:0.0 7:0.0 8:0.0 9:0.0 10:0.0 11:0.0 12:0.0 13:1.0 14:1.0 15:1.0 16:1.0 17:0.0 18:0.0 19:0.0 20:0.0 21:0.0 22:0.0 23:0.0 24:0.0 25:0.0 26:0.0 27:0.0 28:0.0 29:0.0 30:0.0 31:0.0 32:0.0 33:0.0 34:0.0 35:0.0 36:0.0 37:1.0 38:1.0 39:1.0 40:1.0 41:0.0 42:0.0 43:0.0 44:0.0 45:0.0 46:0.0 47:0.0 48:0.0 49:0.0 50:0.0 51:0.0 52:0.0 53:0.0 54:0.0 55:0.0 56:0.0 57:0.0 58:0.0 59:0.0 60:0.0 61:1.0 62:1.0 63:1.0 64:1.0 65:0.0 66:0.0 67:0.0 68:0.0 69:0.0 70:0.0 71:0.0 72:0.0 73:0.0 74:0.0 75:0.0 76:0.0 77:1.0 78:1.0 79:1.0 80:1.0 81:1.0 82:1.0 83:1.0 84:1.0 85:1.0 86:1.0 87:1.0 88:1.0 89:1.0 90:1.0 91:1.0 92:1.0 93:1.0 94:0.0 95:0.0 96:0.0 97:0.0 98:0.0 99:0.0 100:0.0 101:1.0 102:1.0 103:1.0 104:1.0 105:1.0 106:1.0 107:1.0 108:1.0 109:1.0 110:1.0 111:1.0 112:1.0 113:1.0 114:1.0 115:1.0 116:1.0 117:1.0 118:0.0 119:0.0 120:0.0 121:0.0 122:0.0 123:0.0 124:0.0 125:1.0 126:1.0 127:1.0 128:1.0 129:1.0 130:1.0 131:1.0 132:1.0 133:1.0 134:1.0 135:1.0 136:1.0 137:1.0 138:1.0 139:1.0 140:1.0 141:1.0 142:0.0 143:0.0 144:0.0 145:0.0 146:0.0 147:1.0 148:1.0 149:1.0 150:1.0 151:1.0 152:1.0 153:1.0 154:1.0 155:1.0 156:1.0 157:0.0 158:0.0 159:0.0 160:0.0 161:0.0 162:0.0 163:0.0 164:1.0 165:1.0 166:1.0 167:1.0 168:1.0 169:0.0 170:0.0 171:1.0 172:1.0 173:1.0 174:1.0 175:1.0 176:1.0 177:1.0 178:1.0 179:1.0 180:1.0 181:0.0 182:0.0 183:0.0 184:0.0 185:0.0 186:0.0 187:0.0 188:1.0 189:1.0 190:1.0 191:1.0 192:1.0 193:0.0 194:0.0 195:1.0 196:1.0 197:1.0 198:1.0 199:1.0 200:1.0 201:1.0 202:1.0 203:1.0 204:1.0 205:0.0 206:0.0 207:0.0 208:0.0 209:0.0 210:0.0 211:0.0 212:1.0 213:1.0 214:1.0 215:1.0 216:1.0 217:1.0 218:1.0 219:1.0 220:1.0 221:0.0 222:0.0 223:0.0 224:0.0 225:0.0 226:0.0 227:0.0 228:0.0 229:0.0 230:0.0 231:0.0 232:0.0 233:0.0 234:0.0 235:0.0 236:0.0 237:0.0 238:1.0 239:1.0 240:1.0 241:1.0 242:1.0 243:1.0 244:1.0 245:0.0 246:0.0 247:0.0 248:0.0 249:0.0 250:0.0 251:0.0 252:0.0 253:0.0 254:0.0 255:0.0 256:0.0 257:0.0 258:0.0 259:0.0 260:0.0 261:0.0 262:1.0 263:1.0 264:1.0 265:1.0 266:1.0 267:1.0 268:1.0 269:0.0 270:0.0 271:0.0 272:0.0 273:0.0 274:0.0 275:0.0 276:0.0 277:0.0 278:0.0 279:0.0 280:0.0 281:0.0 282:0.0 283:0.0 284:0.0 285:0.0 286:1.0 287:1.0 288:1.0 289:1.0 290:1.0 291:0.0 292:0.0 293:0.0 294:0.0 295:0.0 296:0.0 297:0.0 298:0.0 299:0.0 300:0.0 301:0.0 302:0.0 303:0.0 304:0.0 305:0.0 306:0.0 307:0.0 308:0.0 309:0.0 310:1.0 311:1.0 312:1.0 313:1.0 314:1.0 315:0.0 316:0.0 317:0.0 318:0.0 319:0.0 320:0.0 321:0.0 322:0.0 323:0.0 324:0.0 325:0.0 326:0.0 327:0.0 328:0.0 329:0.0 330:0.0 331:0.0 332:0.0 333:0.0 334:1.0 335:1.0 336:1.0 337:1.0 338:1.0 339:0.0 340:0.0 341:0.0 342:0.0 343:0.0 344:0.0 345:0.0 346:0.0 347:0.0 348:0.0 349:0.0 350:0.0 351:0.0 352:0.0 353:0.0 354:0.0 355:0.0 356:0.0 357:0.0 358:1.0 359:1.0 360:1.0 361:0.0 362:0.0 363:1.0 364:1.0 365:1.0 366:1.0 367:1.0 368:0.0 369:0.0 370:0.0 371:0.0 372:0.0 373:1.0 374:1.0 375:1.0 376:1.0 377:1.0 378:1.0 379:1.0 380:1.0 381:1.0 382:1.0 383:1.0 384:1.0 385:0.0 386:0.0 387:1.0 388:1.0 389:1.0 390:1.0 391:1.0 392:0.0 393:0.0 394:0.0 395:0.0 396:0.0 397:1.0 398:1.0 399:1.0 400:1.0 401:1.0 402:1.0 403:1.0 404:1.0 405:1.0 406:1.0 407:1.0 408:1.0 409:0.0 410:0.0 411:1.0 412:1.0 413:1.0 414:1.0 415:1.0 416:0.0 417:0.0 418:0.0 419:0.0 420:0.0 421:1.0 422:1.0 423:1.0 424:1.0 425:1.0 426:1.0 427:1.0 428:1.0 429:1.0 430:1.0 431:1.0 432:1.0 433:0.0 434:0.0 435:1.0 436:1.0 437:1.0 438:1.0 439:1.0 440:1.0 441:1.0 442:1.0 443:1.0 444:1.0 445:1.0 446:1.0 447:1.0 448:1.0 449:1.0 450:1.0 451:1.0 452:1.0 453:1.0 454:0.0 455:0.0 456:0.0 457:0.0 458:0.0 459:1.0 460:1.0 461:1.0 462:1.0 463:1.0 464:1.0 465:1.0 466:1.0 467:1.0 468:1.0 469:1.0 470:1.0 471:1.0 472:1.0 473:1.0 474:1.0 475:1.0 476:1.0 477:1.0 478:0.0 479:0.0 480:0.0 481:0.0 482:0.0 483:1.0 484:1.0 485:1.0 486:1.0 487:1.0 488:1.0 489:1.0 490:1.0 491:1.0 492:1.0 493:1.0 494:1.0 495:1.0 496:1.0 497:1.0 498:1.0 499:1.0 500:1.0 501:1.0 502:0.0 503:0.0 504:0.0 505:0.0 506:0.0 507:0.0 508:0.0 509:0.0 510:0.0 511:0.0 512:1.0 513:1.0 514:1.0 515:1.0 516:1.0 517:0.0 518:0.0 519:0.0 520:0.0 521:0.0 522:0.0 523:0.0 524:0.0 525:0.0 526:0.0 527:0.0 528:0.0 529:0.0 530:0.0 531:0.0 532:0.0 533:0.0 534:0.0 535:0.0 536:1.0 537:1.0 538:1.0 539:1.0 540:1.0 541:0.0 542:0.0 543:0.0 544:0.0 545:0.0 546:0.0 547:0.0 548:0.0 549:0.0 550:0.0 551:0.0 552:0.0 553:0.0 554:0.0 555:0.0 556:0.0 557:0.0 558:0.0 559:0.0 560:1.0 561:1.0 562:1.0 563:1.0 564:1.0 565:0.0 566:0.0 567:0.0 568:0.0 569:0.0 570:0.0 571:0.0 572:0.0 573:0.0 574:0.0 575:0.0 576:0.0 
0.0 0.0013197015134409538 0.0037016711224972768 0.0 9.9452289029158E-4 0.0 0.0 0.001551203735327059 8.371831077349326E-5 0.0 0.0 6.97767425347362E-4 0.0 0.0 0.006076090369003142 0.0 0.0018607850220845857 0.0 0.0 0.0 0.0 0.0 0.0 0.0 0.0 0.0 0.0014473149016721845 0.0 0.0 0.0 1:0.0 2:0.0 3:0.0 4:0.0 5:1.0 6:1.0 7:1.0 8:1.0 9:1.0 10:1.0 11:1.0 12:1.0 13:1.0 14:1.0 15:1.0 16:1.0 17:1.0 18:1.0 19:1.0 20:0.0 21:0.0 22:0.0 23:0.0 24:0.0 25:0.0 26:0.0 27:0.0 28:0.0 29:1.0 30:1.0 31:1.0 32:1.0 33:1.0 34:1.0 35:1.0 36:1.0 37:1.0 38:1.0 39:1.0 40:1.0 41:1.0 42:1.0 43:1.0 44:0.0 45:0.0 46:0.0 47:0.0 48:0.0 49:0.0 50:0.0 51:0.0 52:0.0 53:1.0 54:1.0 55:1.0 56:1.0 57:1.0 58:1.0 59:1.0 60:1.0 61:1.0 62:1.0 63:1.0 64:1.0 65:1.0 66:1.0 67:1.0 68:0.0 69:0.0 70:0.0 71:0.0 72:0.0 73:0.0 74:0.0 75:1.0 76:1.0 77:1.0 78:1.0 79:1.0 80:1.0 81:1.0 82:1.0 83:1.0 84:1.0 85:1.0 86:1.0 87:1.0 88:1.0 89:1.0 90:1.0 91:1.0 92:1.0 93:1.0 94:0.0 95:0.0 96:0.0 97:0.0 98:0.0 99:1.0 100:1.0 101:1.0 102:1.0 103:1.0 104:1.0 105:1.0 106:1.0 107:1.0 108:1.0 109:1.0 110:1.0 111:1.0 112:1.0 113:1.0 114:1.0 115:1.0 116:1.0 117:1.0 118:0.0 119:0.0 120:0.0 121:0.0 122:0.0 123:1.0 124:1.0 125:1.0 126:1.0 127:1.0 128:1.0 129:1.0 130:1.0 131:1.0 132:1.0 133:1.0 134:1.0 135:1.0 136:1.0 137:1.0 138:1.0 139:1.0 140:1.0 141:1.0 142:0.0 143:0.0 144:0.0 145:1.0 146:1.0 147:1.0 148:1.0 149:0.0 150:0.0 151:0.0 152:0.0 153:0.0 154:0.0 155:0.0 156:0.0 157:0.0 158:0.0 159:0.0 160:0.0 161:0.0 162:0.0 163:0.0 164:1.0 165:1.0 166:1.0 167:1.0 168:1.0 169:1.0 170:1.0 171:1.0 172:1.0 173:0.0 174:0.0 175:0.0 176:0.0 177:0.0 178:0.0 179:0.0 180:0.0 181:0.0 182:0.0 183:0.0 184:0.0 185:0.0 186:0.0 187:0.0 188:1.0 189:1.0 190:1.0 191:1.0 192:1.0 193:1.0 194:1.0 195:1.0 196:1.0 197:0.0 198:0.0 199:0.0 200:0.0 201:0.0 202:0.0 203:0.0 204:0.0 205:0.0 206:0.0 207:0.0 208:0.0 209:0.0 210:0.0 211:0.0 212:1.0 213:1.0 214:1.0 215:1.0 216:1.0 217:1.0 218:1.0 219:1.0 220:1.0 221:0.0 222:0.0 223:0.0 224:0.0 225:0.0 226:0.0 227:0.0 228:0.0 229:0.0 230:0.0 231:0.0 232:0.0 233:0.0 234:0.0 235:0.0 236:1.0 237:1.0 238:1.0 239:1.0 240:1.0 241:1.0 242:1.0 243:0.0 244:0.0 245:0.0 246:0.0 247:0.0 248:0.0 249:0.0 250:0.0 251:0.0 252:0.0 253:0.0 254:0.0 255:0.0 256:0.0 257:0.0 258:0.0 259:0.0 260:0.0 261:0.0 262:1.0 263:1.0 264:1.0 265:1.0 266:1.0 267:0.0 268:0.0 269:0.0 270:0.0 271:0.0 272:0.0 273:0.0 274:0.0 275:0.0 276:0.0 277:0.0 278:0.0 279:0.0 280:0.0 281:0.0 282:0.0 283:0.0 284:0.0 285:0.0 286:1.0 287:1.0 288:1.0 289:1.0 290:1.0 291:0.0 292:0.0 293:0.0 294:0.0 295:0.0 296:0.0 297:0.0 298:0.0 299:0.0 300:0.0 301:0.0 302:0.0 303:0.0 304:0.0 305:0.0 306:0.0 307:0.0 308:0.0 309:0.0 310:1.0 311:1.0 312:1.0 313:1.0 314:1.0 315:1.0 316:1.0 317:0.0 318:0.0 319:0.0 320:0.0 321:0.0 322:0.0 323:0.0 324:0.0 325:0.0 326:0.0 327:1.0 328:1.0 329:0.0 330:0.0 331:0.0 332:1.0 333:1.0 334:1.0 335:1.0 336:1.0 337:1.0 338:1.0 339:1.0 340:1.0 341:0.0 342:0.0 343:0.0 344:0.0 345:0.0 346:0.0 347:0.0 348:0.0 349:0.0 350:0.0 351:1.0 352:1.0 353:0.0 354:0.0 355:0.0 356:1.0 357:1.0 358:1.0 359:1.0 360:1.0 361:1.0 362:1.0 363:1.0 364:1.0 365:0.0 366:0.0 367:0.0 368:0.0 369:0.0 370:0.0 371:0.0 372:0.0 373:0.0 374:0.0 375:1.0 376:1.0 377:0.0 378:0.0 379:0.0 380:1.0 381:1.0 382:1.0 383:1.0 384:1.0 385:1.0 386:1.0 387:1.0 388:1.0 389:0.0 390:0.0 391:0.0 392:0.0 393:0.0 394:0.0 395:0.0 396:0.0 397:0.0 398:0.0 399:1.0 400:1.0 401:0.0 402:0.0 403:0.0 404:1.0 405:1.0 406:1.0 407:1.0 408:1.0 409:0.0 410:0.0 411:1.0 412:1.0 413:1.0 414:1.0 415:1.0 416:1.0 417:1.0 418:1.0 419:1.0 420:1.0 421:1.0 422:1.0 423:1.0 424:1.0 425:1.0 426:1.0 427:1.0 428:1.0 429:1.0 430:0.0 431:0.0 432:0.0 433:0.0 434:0.0 435:1.0 436:1.0 437:1.0 438:1.0 439:1.0 440:1.0 441:1.0 442:1.0 443:1.0 444:1.0 445:1.0 446:1.0 447:1.0 448:1.0 449:1.0 450:1.0 451:1.0 452:1.0 453:1.0 454:0.0 455:0.0 456:0.0 457:0.0 458:0.0 459:1.0 460:1.0 461:1.0 462:1.0 463:1.0 464:1.0 465:1.0 466:1.0 467:1.0 468:1.0 469:1.0 470:1.0 471:1.0 472:1.0 473:1.0 474:1.0 475:1.0 476:1.0 477:1.0 478:0.0 479:0.0 480:0.0 481:0.0 482:0.0 483:0.0 484:0.0 485:1.0 486:1.0 487:1.0 488:1.0 489:1.0 490:1.0 491:1.0 492:1.0 493:1.0 494:1.0 495:1.0 496:1.0 497:1.0 498:1.0 499:1.0 500:0.0 501:0.0 502:0.0 503:0.0 504:0.0 505:0.0 506:0.0 507:0.0 508:0.0 509:1.0 510:1.0 511:1.0 512:1.0 513:1.0 514:1.0 515:1.0 516:1.0 517:1.0 518:1.0 519:1.0 520:1.0 521:1.0 522:1.0 523:1.0 524:0.0 525:0.0 526:0.0 527:0.0 528:0.0 529:0.0 530:0.0 531:0.0 532:0.0 533:1.0 534:1.0 535:1.0 536:1.0 537:1.0 538:1.0 539:1.0 540:1.0 541:1.0 542:1.0 543:1.0 544:1.0 545:1.0 546:1.0 547:1.0 548:0.0 549:0.0 550:0.0 551:0.0 552:0.0 553:0.0 554:0.0 555:0.0 556:0.0 557:1.0 558:1.0 559:1.0 560:1.0 561:1.0 562:1.0 563:1.0 564:1.0 565:1.0 566:1.0 567:1.0 568:1.0 569:1.0 570:1.0 571:1.0 572:0.0 573:0.0 574:0.0 575:0.0 576:0.0 
0.0038861787766533993 0.0039409398650549175 0.002559524922933332 0.0027959578248414143 0.003331226087326174 7.15658730641129E-4 0.006002292245595745 0.014181403305788633 0.004899272191114693 0.0032634603580511835 0.005279086699724264 0.0017065588388927592 0.005827163261367947 0.00600539860224595 0.0054110890120292405 0.0034927592186790772 0.00363980166055236 0.003668003995233175 0.0035574828110565403 0.0035604234940411783 0.00788758089201784 0.01557329818710397 0.007598194950595217 0.0038572256667819176 0.006834841527263096 0.007112327607740178 0.0045448089678322414 0.002261468217768129 0.003724586488405535 0.004100527551208908 1:0.0 2:0.0 3:0.0 4:0.0 5:1.0 6:1.0 7:1.0 8:1.0 9:1.0 10:1.0 11:1.0 12:1.0 13:1.0 14:1.0 15:1.0 16:1.0 17:0.0 18:0.0 19:0.0 20:0.0 21:0.0 22:0.0 23:0.0 24:0.0 25:0.0 26:0.0 27:0.0 28:0.0 29:1.0 30:1.0 31:1.0 32:1.0 33:1.0 34:1.0 35:1.0 36:1.0 37:1.0 38:1.0 39:1.0 40:1.0 41:0.0 42:0.0 43:0.0 44:0.0 45:0.0 46:0.0 47:0.0 48:0.0 49:0.0 50:0.0 51:0.0 52:0.0 53:1.0 54:1.0 55:1.0 56:1.0 57:1.0 58:1.0 59:1.0 60:1.0 61:1.0 62:1.0 63:1.0 64:1.0 65:0.0 66:0.0 67:0.0 68:0.0 69:0.0 70:0.0 71:0.0 72:0.0 73:0.0 74:0.0 75:1.0 76:1.0 77:1.0 78:1.0 79:1.0 80:1.0 81:1.0 82:1.0 83:1.0 84:1.0 85:1.0 86:1.0 87:1.0 88:1.0 89:1.0 90:1.0 91:0.0 92:0.0 93:0.0 94:0.0 95:1.0 96:1.0 97:0.0 98:0.0 99:1.0 100:1.0 101:1.0 102:1.0 103:1.0 104:1.0 105:1.0 106:1.0 107:1.0 108:1.0 109:1.0 110:1.0 111:1.0 112:1.0 113:1.0 114:1.0 115:0.0 116:0.0 117:0.0 118:0.0 119:1.0 120:1.0 121:0.0 122:0.0 123:1.0 124:1.0 125:1.0 126:1.0 127:1.0 128:1.0 129:1.0 130:1.0 131:1.0 132:1.0 133:1.0 134:1.0 135:1.0 136:1.0 137:1.0 138:1.0 139:0.0 140:0.0 141:0.0 142:0.0 143:1.0 144:1.0 145:1.0 146:1.0 147:1.0 148:1.0 149:0.0 150:0.0 151:0.0 152:0.0 153:0.0 154:0.0 155:0.0 156:0.0 157:0.0 158:0.0 159:0.0 160:0.0 161:1.0 162:1.0 163:1.0 164:1.0 165:1.0 166:1.0 167:0.0 168:0.0 169:1.0 170:1.0 171:1.0 172:1.0 173:0.0 174:0.0 175:0.0 176:0.0 177:0.0 178:0.0 179:0.0 180:0.0 181:0.0 182:0.0 183:0.0 184:0.0 185:1.0 186:1.0 187:1.0 188:1.0 189:1.0 190:1.0 191:0.0 192:0.0 193:1.0 194:1.0 195:1.0 196:1.0 197:0.0 198:0.0 199:0.0 200:0.0 201:0.0 202:0.0 203:0.0 204:0.0 205:0.0 206:0.0 207:0.0 208:0.0 209:1.0 210:1.0 211:1.0 212:1.0 213:1.0 214:1.0 215:0.0 216:0.0 217:1.0 218:1.0 219:1.0 220:1.0 221:0.0 222:0.0 223:0.0 224:0.0 225:0.0 226:0.0 227:0.0 228:0.0 229:0.0 230:0.0 231:0.0 232:0.0 233:1.0 234:1.0 235:1.0 236:1.0 237:1.0 238:1.0 239:0.0 240:0.0 241:1.0 242:1.0 243:0.0 244:0.0 245:0.0 246:0.0 247:0.0 248:0.0 249:0.0 250:0.0 251:0.0 252:0.0 253:0.0 254:0.0 255:0.0 256:0.0 257:0.0 258:0.0 259:1.0 260:1.0 261:0.0 262:0.0 263:0.0 264:0.0 265:1.0 266:1.0 267:0.0 268:0.0 269:0.0 270:0.0 271:0.0 272:0.0 273:0.0 274:0.0 275:0.0 276:0.0 277:0.0 278:0.0 279:0.0 280:0.0 281:0.0 282:0.0 283:1.0 284:1.0 285:0.0 286:0.0 287:0.0 288:0.0 289:1.0 290:1.0 291:0.0 292:0.0 293:0.0 294:0.0 295:0.0 296:0.0 297:0.0 298:0.0 299:0.0 300:0.0 301:0.0 302:0.0 303:0.0 304:0.0 305:0.0 306:0.0 307:1.0 308:1.0 309:0.0 310:0.0 311:0.0 312:0.0 313:1.0 314:1.0 315:1.0 316:1.0 317:0.0 318:0.0 319:0.0 320:0.0 321:0.0 322:0.0 323:0.0 324:0.0 325:0.0 326:0.0 327:0.0 328:0.0 329:1.0 330:1.0 331:1.0 332:1.0 333:0.0 334:0.0 335:0.0 336:0.0 337:1.0 338:1.0 339:1.0 340:1.0 341:0.0 342:0.0 343:0.0 344:0.0 345:0.0 346:0.0 347:0.0 348:0.0 349:0.0 350:0.0 351:0.0 352:0.0 353:1.0 354:1.0 355:1.0 356:1.0 357:0.0 358:0.0 359:0.0 360:0.0 361:1.0 362:1.0 363:1.0 364:1.0 365:0.0 366:0.0 367:0.0 368:0.0 369:0.0 370:0.0 371:0.0 372:0.0 373:0.0 374:0.0 375:0.0 376:0.0 377:1.0 378:1.0 379:1.0 380:1.0 381:0.0 382:0.0 383:0.0 384:0.0 385:1.0 386:1.0 387:1.0 388:1.0 389:0.0 390:0.0 391:0.0 392:0.0 393:0.0 394:0.0 395:0.0 396:0.0 397:0.0 398:0.0 399:0.0 400:0.0 401:1.0 402:1.0 403:1.0 404:1.0 405:0.0 406:0.0 407:0.0 408:0.0 409:0.0 410:0.0 411:1.0 412:1.0 413:1.0 414:1.0 415:1.0 416:1.0 417:1.0 418:1.0 419:1.0 420:1.0 421:1.0 422:1.0 423:1.0 424:1.0 425:1.0 426:1.0 427:0.0 428:0.0 429:0.0 430:0.0 431:0.0 432:0.0 433:0.0 434:0.0 435:1.0 436:1.0 437:1.0 438:1.0 439:1.0 440:1.0 441:1.0 442:1.0 443:1.0 444:1.0 445:1.0 446:1.0 447:1.0 448:1.0 449:1.0 450:1.0 451:0.0 452:0.0 453:0.0 454:0.0 455:0.0 456:0.0 457:0.0 458:0.0 459:1.0 460:1.0 461:1.0 462:1.0 463:1.0 464:1.0 465:1.0 466:1.0 467:1.0 468:1.0 469:1.0 470:1.0 471:1.0 472:1.0 473:1.0 474:1.0 475:0.0 476:0.0 477:0.0 478:0.0 479:0.0 480:0.0 481:0.0 482:0.0 483:0.0 484:0.0 485:1.0 486:1.0 487:1.0 488:1.0 489:1.0 490:1.0 491:1.0 492:1.0 493:1.0 494:1.0 495:1.0 496:1.0 497:0.0 498:0.0 499:0.0 500:0.0 501:0.0 502:0.0 503:0.0 504:0.0 505:0.0 506:0.0 507:0.0 508:0.0 509:1.0 510:1.0 511:1.0 512:1.0 513:1.0 514:1.0 515:1.0 516:1.0 517:1.0 518:1.0 519:1.0 520:1.0 521:0.0 522:0.0 523:0.0 524:0.0 525:0.0 526:0.0 527:0.0 528:0.0 529:0.0 530:0.0 531:0.0 532:0.0 533:1.0 534:1.0 535:1.0 536:1.0 537:1.0 538:1.0 539:1.0 540:1.0 541:1.0 542:1.0 543:1.0 544:1.0 545:0.0 546:0.0 547:0.0 548:0.0 549:0.0 550:0.0 551:0.0 552:0.0 553:0.0 554:0.0 555:0.0 556:0.0 557:1.0 558:1.0 559:1.0 560:1.0 561:1.0 562:1.0 563:1.0 564:1.0 565:1.0 566:1.0 567:1.0 568:1.0 569:0.0 570:0.0 571:0.0 572:0.0 573:0.0 574:0.0 575:0.0 576:0.0 
0.0037828148867114744 0.0037407642056373623 0.004723162012446921 0.005188572797127227 0.006228353519614709 0.0064765346302721755 0.0022599323331946664 0.005074129633086984 0.006183379073802256 0.0064710282118822715 0.00577423329974089 0.002917696944184351 0.009466639077894414 0.004121706363143609 0.004126029510639616 0.0048839120856204515 0.003328534622948387 0.004538584961078697 0.0027953322690167297 0.0027656275864713876 0.003656319896305906 0.04319984440960141 0.007225472771196038 0.0018460199333244123 0.002058289246473424 0.003711711858342686 0.003892996411368805 0.004517840269343262 0.003575324791853437 0.003925687292883135 1:0.0 2:0.0 3:0.0 4:0.0 5:0.0 6:0.0 7:0.0 8:0.0 9:0.0 10:0.0 11:1.0 12:1.0 13:1.0 14:1.0 15:1.0 16:0.0 17:0.0 18:0.0 19:0.0 20:0.0 21:0.0 22:0.0 23:0.0 24:0.0 25:0.0 26:0.0 27:0.0 28:0.0 29:0.0 30:0.0 31:0.0 32:0.0 33:0.0 34:0.0 35:1.0 36:1.0 37:1.0 38:1.0 39:1.0 40:0.0 41:0.0 42:0.0 43:0.0 44:0.0 45:0.0 46:0.0 47:0.0 48:0.0 49:0.0 50:0.0 51:0.0 52:0.0 53:0.0 54:0.0 55:0.0 56:0.0 57:0.0 58:0.0 59:1.0 60:1.0 61:1.0 62:1.0 63:1.0 64:0.0 65:0.0 66:0.0 67:0.0 68:0.0 69:0.0 70:0.0 71:0.0 72:0.0 73:0.0 74:0.0 75:0.0 76:0.0 77:1.0 78:1.0 79:1.0 80:1.0 81:1.0 82:1.0 83:1.0 84:1.0 85:1.0 86:1.0 87:1.0 88:1.0 89:1.0 90:1.0 91:1.0 92:0.0 93:0.0 94:0.0 95:0.0 96:0.0 97:0.0 98:0.0 99:0.0 100:0.0 101:1.0 102:1.0 103:1.0 104:1.0 105:1.0 106:1.0 107:1.0 108:1.0 109:1.0 110:1.0 111:1.0 112:1.0 113:1.0 114:1.0 115:1.0 116:0.0 117:0.0 118:0.0 119:0.0 120:0.0 121:0.0 122:0.0 123:0.0 124:0.0 125:1.0 126:1.0 127:1.0 128:1.0 129:1.0 130:1.0 131:1.0 132:1.0 133:1.0 134:1.0 135:1.0 136:1.0 137:1.0 138:1.0 139:1.0 140:0.0 141:0.0 142:0.0 143:0.0 144:0.0 145:0.0 146:0.0 147:1.0 148:1.0 149:1.0 150:1.0 151:1.0 152:1.0 153:1.0 154:1.0 155:0.0 156:0.0 157:0.0 158:0.0 159:0.0 160:0.0 161:0.0 162:1.0 163:1.0 164:1.0 165:1.0 166:0.0 167:0.0 168:0.0 169:0.0 170:0.0 171:1.0 172:1.0 173:1.0 174:1.0 175:1.0 176:1.0 177:1.0 178:1.0 179:0.0 180:0.0 181:0.0 182:0.0 183:0.0 184:0.0 185:0.0 186:1.0 187:1.0 188:1.0 189:1.0 190:0.0 191:0.0 192:0.0 193:0.0 194:0.0 195:1.0 196:1.0 197:1.0 198:1.0 199:1.0 200:1.0 201:1.0 202:1.0 203:0.0 204:0.0 205:0.0 206:0.0 207:0.0 208:0.0 209:0.0 210:1.0 211:1.0 212:1.0 213:1.0 214:0.0 215:0.0 216:0.0 217:1.0 218:1.0 219:1.0 220:1.0 221:0.0 222:0.0 223:0.0 224:0.0 225:0.0 226:0.0 227:0.0 228:0.0 229:0.0 230:0.0 231:0.0 232:0.0 233:0.0 234:0.0 235:0.0 236:1.0 237:1.0 238:0.0 239:0.0 240:0.0 241:1.0 242:1.0 243:1.0 244:1.0 245:0.0 246:0.0 247:0.0 248:0.0 249:0.0 250:0.0 251:0.0 252:0.0 253:0.0 254:0.0 255:0.0 256:0.0 257:0.0 258:0.0 259:0.0 260:1.0 261:1.0 262:0.0 263:0.0 264:0.0 265:1.0 266:1.0 267:1.0 268:1.0 269:0.0 270:0.0 271:0.0 272:0.0 273:0.0 274:0.0 275:0.0 276:0.0 277:0.0 278:0.0 279:0.0 280:0.0 281:0.0 282:0.0 283:0.0 284:1.0 285:1.0 286:0.0 287:0.0 288:0.0 289:1.0 290:1.0 291:0.0 292:0.0 293:0.0 294:0.0 295:0.0 296:0.0 297:0.0 298:0.0 299:0.0 300:0.0 301:0.0 302:1.0 303:1.0 304:0.0 305:0.0 306:0.0 307:0.0 308:1.0 309:1.0 310:1.0 311:1.0 312:1.0 313:1.0 314:1.0 315:0.0 316:0.0 317:0.0 318:0.0 319:0.0 320:0.0 321:0.0 322:0.0 323:0.0 324:0.0 325:0.0 326:1.0 327:1.0 328:0.0 329:0.0 330:0.0 331:0.0 332:1.0 333:1.0 334:1.0 335:1.0 336:1.0 337:1.0 338:1.0 339:0.0 340:0.0 341:0.0 342:0.0 343:0.0 344:0.0 345:0.0 346:0.0 347:0.0 348:0.0 349:0.0 350:1.0 351:1.0 352:0.0 353:0.0 354:0.0 355:0.0 356:1.0 357:1.0 358:1.0 359:1.0 360:1.0 361:0.0 362:0.0 363:1.0 364:1.0 365:1.0 366:1.0 367:0.0 368:0.0 369:0.0 370:0.0 371:1.0 372:1.0 373:1.0 374:1.0 375:1.0 376:1.0 377:1.0 378:1.0 379:1.0 380:1.0 381:1.0 382:1.0 383:1.0 384:1.0 385:0.0 386:0.0 387:1.0 388:1.0 389:1.0 390:1.0 391:0.0 392:0.0 393:0.0 394:0.0 395:1.0 396:1.0 397:1.0 398:1.0 399:1.0 400:1.0 401:1.0 402:1.0 403:1.0 404:1.0 405:1.0 406:1.0 407:1.0 408:1.0 409:0.0 410:0.0 411:1.0 412:1.0 413:1.0 414:1.0 415:0.0 416:0.0 417:0.0 418:0.0 419:1.0 420:1.0 421:1.0 422:1.0 423:1.0 424:1.0 425:1.0 426:1.0 427:1.0 428:1.0 429:1.0 430:1.0 431:1.0 432:1.0 433:0.0 434:0.0 435:1.0 436:1.0 437:1.0 438:1.0 439:1.0 440:1.0 441:1.0 442:1.0 443:1.0 444:1.0 445:1.0 446:1.0 447:1.0 448:1.0 449:1.0 450:1.0 451:1.0 452:0.0 453:0.0 454:0.0 455:0.0 456:0.0 457:0.0 458:0.0 459:1.0 460:1.0 461:1.0 462:1.0 463:1.0 464:1.0 465:1.0 466:1.0 467:1.0 468:1.0 469:1.0 470:1.0 471:1.0 472:1.0 473:1.0 474:1.0 475:1.0 476:0.0 477:0.0 478:0.0 479:0.0 480:0.0 481:0.0 482:0.0 483:1.0 484:1.0 485:1.0 486:1.0 487:1.0 488:1.0 489:1.0 490:1.0 491:1.0 492:1.0 493:1.0 494:1.0 495:1.0 496:1.0 497:1.0 498:1.0 499:1.0 500:0.0 501:0.0 502:0.0 503:0.0 504:0.0 505:0.0 506:0.0 507:0.0 508:0.0 509:0.0 510:0.0 511:0.0 512:0.0 513:1.0 514:1.0 515:0.0 516:0.0 517:0.0 518:0.0 519:0.0 520:0.0 521:0.0 522:0.0 523:0.0 524:0.0 525:0.0 526:0.0 527:0.0 528:0.0 529:0.0 530:0.0 531:0.0 532:0.0 533:0.0 534:0.0 535:0.0 536:0.0 537:1.0 538:1.0 539:0.0 540:0.0 541:0.0 542:0.0 543:0.0 544:0.0 545:0.0 546:0.0 547:0.0 548:0.0 549:0.0 550:0.0 551:0.0 552:0.0 553:0.0 554:0.0 555:0.0 556:0.0 557:0.0 558:0.0 559:0.0 560:0.0 561:1.0 562:1.0 563:0.0 564:0.0 565:0.0 566:0.0 567:0.0 568:0.0 569:0.0 570:0.0 571:0.0 572:0.0 573:0.0 574:0.0 575:0.0 576:0.0 
-0.009387418319972527 0.015663769689695635 0.022675070216710787 0.015377397127752825 0.012234395527372587 0.005886197460279528 0.009912499481695708 0.013950207588635901 0.010166329865831391 0.007466826577957534 0.005963978436823278 0.011668324200176546 0.0074273534104957704 0.00624046627856729 0.014409212681617455 0.005758160022672959 1.0 0.0046958032243404274 0.002403696274552951 0.0073705664113476186 0.008227028907207981 0.010460974534600863 0.009068385600403876 0.002719215754670963 0.006854886146416874 0.00707240962082443 0.006267185453725285 0.00966287619642686 0.006551411500329749 0.01135885579821307 1:0.0 2:0.0 3:0.0 4:0.0 5:0.0 6:0.0 7:0.0 8:0.0 9:0.0 10:0.0 11:0.0 12:0.0 13:0.0 14:0.0 15:0.0 16:0.0 17:0.0 18:0.0 19:0.0 20:0.0 21:0.0 22:1.0 23:1.0 24:1.0 25:0.0 26:0.0 27:0.0 28:0.0 29:0.0 30:0.0 31:0.0 32:0.0 33:0.0 34:0.0 35:0.0 36:0.0 37:0.0 38:0.0 39:0.0 40:0.0 41:0.0 42:0.0 43:0.0 44:0.0 45:0.0 46:1.0 47:1.0 48:1.0 49:0.0 50:0.0 51:0.0 52:0.0 53:0.0 54:0.0 55:0.0 56:0.0 57:0.0 58:0.0 59:0.0 60:0.0 61:0.0 62:0.0 63:0.0 64:0.0 65:0.0 66:0.0 67:0.0 68:0.0 69:0.0 70:1.0 71:1.0 72:1.0 73:0.0 74:0.0 75:0.0 76:0.0 77:0.0 78:0.0 79:0.0 80:0.0 81:0.0 82:0.0 83:0.0 84:0.0 85:0.0 86:0.0 87:0.0 88:0.0 89:0.0 90:0.0 91:0.0 92:0.0 93:0.0 94:1.0 95:1.0 96:1.0 97:0.0 98:0.0 99:0.0 100:0.0 101:0.0 102:0.0 103:0.0 104:0.0 105:0.0 106:0.0 107:0.0 108:0.0 109:0.0 110:0.0 111:0.0 112:0.0 113:0.0 114:0.0 115:0.0 116:0.0 117:0.0 118:1.0 119:1.0 120:1.0 121:0.0 122:0.0 123:0.0 124:0.0 125:0.0 126:0.0 127:0.0 128:0.0 129:0.0 130:0.0 131:0.0 132:0.0 133:0.0 134:0.0 135:0.0 136:0.0 137:0.0 138:0.0 139:0.0 140:0.0 141:0.0 142:1.0 143:1.0 144:1.0 145:0.0 146:0.0 147:0.0 148:0.0 149:0.0 150:0.0 151:0.0 152:0.0 153:0.0 154:0.0 155:0.0 156:0.0 157:0.0 158:0.0 159:0.0 160:0.0 161:0.0 162:0.0 163:0.0 164:0.0 165:0.0 166:1.0 167:1.0 168:1.0 169:0.0 170:0.0 171:0.0 172:0.0 173:0.0 174:0.0 175:0.0 176:0.0 177:0.0 178:0.0 179:0.0 180:0.0 181:0.0 182:0.0 183:0.0 184:0.0 185:0.0 186:0.0 187:0.0 188:0.0 189:0.0 190:1.0 191:1.0 192:1.0 193:1.0 194:1.0 195:0.0 196:0.0 197:0.0 198:0.0 199:0.0 200:0.0 201:0.0 202:0.0 203:0.0 204:0.0 205:0.0 206:0.0 207:0.0 208:0.0 209:0.0 210:0.0 211:0.0 212:0.0 213:0.0 214:1.0 215:1.0 216:1.0 217:1.0 218:1.0 219:0.0 220:0.0 221:0.0 222:0.0 223:0.0 224:0.0 225:0.0 226:0.0 227:0.0 228:0.0 229:0.0 230:0.0 231:0.0 232:0.0 233:0.0 234:0.0 235:0.0 236:0.0 237:0.0 238:1.0 239:1.0 240:1.0 241:1.0 242:1.0 243:0.0 244:0.0 245:0.0 246:0.0 247:0.0 248:0.0 249:0.0 250:0.0 251:0.0 252:0.0 253:0.0 254:0.0 255:0.0 256:0.0 257:0.0 258:0.0 259:0.0 260:0.0 261:0.0 262:1.0 263:1.0 264:1.0 265:1.0 266:1.0 267:0.0 268:0.0 269:0.0 270:0.0 271:0.0 272:0.0 273:0.0 274:0.0 275:0.0 276:0.0 277:0.0 278:0.0 279:0.0 280:0.0 281:0.0 282:0.0 283:0.0 284:0.0 285:0.0 286:1.0 287:1.0 288:1.0 289:1.0 290:1.0 291:0.0 292:0.0 293:0.0 294:0.0 295:0.0 296:0.0 297:0.0 298:0.0 299:0.0 300:0.0 301:1.0 302:1.0 303:1.0 304:1.0 305:1.0 306:1.0 307:1.0 308:1.0 309:1.0 310:1.0 311:1.0 312:1.0 313:1.0 314:1.0 315:0.0 316:0.0 317:0.0 318:0.0 319:0.0 320:0.0 321:0.0 322:0.0 323:0.0 324:0.0 325:1.0 326:1.0 327:1.0 328:1.0 329:1.0 330:1.0 331:1.0 332:1.0 333:1.0 334:1.0 335:1.0 336:1.0 337:1.0 338:1.0 339:0.0 340:0.0 341:0.0 342:0.0 343:0.0 344:0.0 345:0.0 346:0.0 347:0.0 348:0.0 349:1.0 350:1.0 351:1.0 352:1.0 353:1.0 354:1.0 355:1.0 356:1.0 357:1.0 358:1.0 359:1.0 360:1.0 361:1.0 362:1.0 363:0.0 364:0.0 365:0.0 366:0.0 367:0.0 368:0.0 369:0.0 370:0.0 371:0.0 372:0.0 373:1.0 374:1.0 375:1.0 376:1.0 377:1.0 378:1.0 379:1.0 380:1.0 381:1.0 382:1.0 383:1.0 384:1.0 385:1.0 386:1.0 387:1.0 388:1.0 389:1.0 390:1.0 391:1.0 392:1.0 393:1.0 394:1.0 395:1.0 396:1.0 397:1.0 398:1.0 399:1.0 400:1.0 401:1.0 402:1.0 403:1.0 404:1.0 405:1.0 406:1.0 407:1.0 408:1.0 409:1.0 410:1.0 411:1.0 412:1.0 413:1.0 414:1.0 415:1.0 416:1.0 417:1.0 418:1.0 419:1.0 420:1.0 421:1.0 422:1.0 423:1.0 424:1.0 425:1.0 426:1.0 427:1.0 428:1.0 429:1.0 430:1.0 431:1.0 432:1.0 433:1.0 434:1.0 435:1.0 436:1.0 437:1.0 438:1.0 439:1.0 440:1.0 441:1.0 442:1.0 443:1.0 444:1.0 445:1.0 446:1.0 447:1.0 448:1.0 449:1.0 450:1.0 451:1.0 452:1.0 453:1.0 454:1.0 455:1.0 456:1.0 457:1.0 458:1.0 459:1.0 460:1.0 461:1.0 462:1.0 463:1.0 464:1.0 465:1.0 466:1.0 467:1.0 468:1.0 469:1.0 470:1.0 471:1.0 472:1.0 473:1.0 474:1.0 475:1.0 476:1.0 477:1.0 478:1.0 479:1.0 480:1.0 481:0.0 482:0.0 483:1.0 484:1.0 485:1.0 486:1.0 487:1.0 488:1.0 489:1.0 490:1.0 491:1.0 492:1.0 493:0.0 494:0.0 495:0.0 496:0.0 497:0.0 498:0.0 499:0.0 500:0.0 501:0.0 502:0.0 503:0.0 504:0.0 505:0.0 506:0.0 507:1.0 508:1.0 509:1.0 510:1.0 511:1.0 512:1.0 513:1.0 514:1.0 515:1.0 516:1.0 517:0.0 518:0.0 519:0.0 520:0.0 521:0.0 522:0.0 523:0.0 524:0.0 525:0.0 526:0.0 527:0.0 528:0.0 529:0.0 530:0.0 531:1.0 532:1.0 533:1.0 534:1.0 535:1.0 536:1.0 537:1.0 538:1.0 539:1.0 540:1.0 541:0.0 542:0.0 543:0.0 544:0.0 545:0.0 546:0.0 547:0.0 548:0.0 549:0.0 550:0.0 551:0.0 552:0.0 553:0.0 554:0.0 555:1.0 556:1.0 557:1.0 558:1.0 559:1.0 560:1.0 561:1.0 562:1.0 563:1.0 564:1.0 565:0.0 566:0.0 567:0.0 568:0.0 569:0.0 570:0.0 571:0.0 572:0.0 573:0.0 574:0.0 575:0.0 576:0.0 
-0.0029957941478997575 0.006853085713148725 0.005829685348154725 0.0 0.005631392424479811 0.005297151916578606 0.007210789339286491 0.00392907483255908 0.0023353257828832063 0.00644449377338244 0.008859413159557817 3.9459108111423774E-4 0.00731055699378666 0.01727074162116023 0.004430754461563079 0.004712631361477061 4.002598571640682E-4 0.004203521644637497 0.00925722449721785 0.0023982090962075047 0.00537055008877253 0.0011476137299068336 0.0046857783270332215 0.014063995582946088 0.004950115699093618 0.008990490258071407 0.002193864458095423 0.007853062671285287 0.013712672814580948 0.013181616220150544 1:0.0 2:0.0 3:1.0 4:1.0 5:0.0 6:0.0 7:0.0 8:0.0 9:0.0 10:0.0 11:0.0 12:0.0 13:0.0 14:0.0 15:0.0 16:0.0 17:0.0 18:0.0 19:0.0 20:0.0 21:0.0 22:1.0 23:1.0 24:1.0 25:0.0 26:0.0 27:1.0 28:1.0 29:0.0 30:0.0 31:0.0 32:0.0 33:0.0 34:0.0 35:0.0 36:0.0 37:0.0 38:0.0 39:0.0 40:0.0 41:0.0 42:0.0 43:0.0 44:0.0 45:0.0 46:1.0 47:1.0 48:1.0 49:0.0 50:0.0 51:1.0 52:1.0 53:0.0 54:0.0 55:0.0 56:0.0 57:0.0 58:0.0 59:0.0 60:0.0 61:0.0 62:0.0 63:0.0 64:0.0 65:0.0 66:0.0 67:0.0 68:0.0 69:0.0 70:1.0 71:1.0 72:1.0 73:0.0 74:0.0 75:1.0 76:1.0 77:0.0 78:0.0 79:0.0 80:0.0 81:0.0 82:0.0 83:0.0 84:0.0 85:0.0 86:0.0 87:0.0 88:0.0 89:0.0 90:0.0 91:0.0 92:0.0 93:0.0 94:1.0 95:1.0 96:1.0 97:0.0 98:0.0 99:1.0 100:1.0 101:0.0 102:0.0 103:0.0 104:0.0 105:0.0 106:0.0 107:0.0 108:0.0 109:0.0 110:0.0 111:0.0 112:0.0 113:0.0 114:0.0 115:0.0 116:0.0 117:0.0 118:1.0 119:1.0 120:1.0 121:0.0 122:0.0 123:1.0 124:1.0 125:0.0 126:0.0 127:0.0 128:0.0 129:0.0 130:0.0 131:0.0 132:0.0 133:0.0 134:0.0 135:0.0 136:0.0 137:0.0 138:0.0 139:0.0 140:0.0 141:0.0 142:1.0 143:1.0 144:1.0 145:1.0 146:1.0 147:1.0 148:1.0 149:1.0 150:1.0 151:1.0 152:1.0 153:1.0 154:1.0 155:1.0 156:1.0 157:1.0 158:1.0 159:1.0 160:1.0 161:1.0 162:1.0 163:1.0 164:1.0 165:1.0 166:1.0 167:1.0 168:1.0 169:1.0 170:1.0 171:1.0 172:1.0 173:1.0 174:1.0 175:1.0 176:1.0 177:1.0 178:1.0 179:1.0 180:1.0 181:1.0 182:1.0 183:1.0 184:1.0 185:1.0 186:1.0 187:1.0 188:1.0 189:1.0 190:1.0 191:1.0 192:1.0 193:1.0 194:1.0 195:1.0 196:1.0 197:1.0 198:1.0 199:1.0 200:1.0 201:1.0 202:1.0 203:1.0 204:1.0 205:1.0 206:1.0 207:1.0 208:1.0 209:1.0 210:1.0 211:1.0 212:1.0 213:1.0 214:1.0 215:1.0 216:1.0 217:1.0 218:1.0 219:1.0 220:1.0 221:1.0 222:1.0 223:1.0 224:1.0 225:1.0 226:1.0 227:1.0 228:1.0 229:1.0 230:1.0 231:1.0 232:1.0 233:1.0 234:1.0 235:1.0 236:1.0 237:1.0 238:1.0 239:1.0 240:1.0 241:1.0 242:1.0 243:1.0 244:1.0 245:1.0 246:1.0 247:1.0 248:1.0 249:1.0 250:1.0 251:1.0 252:1.0 253:1.0 254:1.0 255:1.0 256:1.0 257:1.0 258:1.0 259:1.0 260:1.0 261:1.0 262:1.0 263:1.0 264:1.0 265:1.0 266:1.0 267:1.0 268:1.0 269:1.0 270:1.0 271:1.0 272:1.0 273:1.0 274:1.0 275:1.0 276:1.0 277:1.0 278:1.0 279:1.0 280:1.0 281:1.0 282:1.0 283:1.0 284:1.0 285:1.0 286:1.0 287:1.0 288:1.0 289:1.0 290:1.0 291:1.0 292:1.0 293:1.0 294:1.0 295:1.0 296:1.0 297:1.0 298:1.0 299:1.0 300:1.0 301:1.0 302:1.0 303:1.0 304:1.0 305:1.0 306:1.0 307:1.0 308:1.0 309:1.0 310:1.0 311:1.0 312:1.0 313:0.0 314:0.0 315:0.0 316:0.0 317:0.0 318:0.0 319:0.0 320:0.0 321:0.0 322:0.0 323:0.0 324:0.0 325:0.0 326:0.0 327:0.0 328:0.0 329:0.0 330:0.0 331:0.0 332:0.0 333:0.0 334:1.0 335:1.0 336:1.0 337:0.0 338:0.0 339:0.0 340:0.0 341:0.0 342:0.0 343:0.0 344:0.0 345:0.0 346:0.0 347:0.0 348:0.0 349:0.0 350:0.0 351:0.0 352:0.0 353:0.0 354:0.0 355:0.0 356:0.0 357:0.0 358:1.0 359:1.0 360:1.0 361:0.0 362:0.0 363:0.0 364:0.0 365:0.0 366:0.0 367:0.0 368:0.0 369:0.0 370:0.0 371:0.0 372:0.0 373:0.0 374:0.0 375:0.0 376:0.0 377:0.0 378:0.0 379:0.0 380:0.0 381:0.0 382:1.0 383:1.0 384:1.0 385:0.0 386:0.0 387:0.0 388:0.0 389:0.0 390:0.0 391:0.0 392:0.0 393:0.0 394:0.0 395:0.0 396:0.0 397:0.0 398:0.0 399:0.0 400:0.0 401:0.0 402:0.0 403:0.0 404:0.0 405:0.0 406:1.0 407:1.0 408:1.0 409:0.0 410:0.0 411:0.0 412:0.0 413:0.0 414:0.0 415:0.0 416:0.0 417:0.0 418:0.0 419:0.0 420:0.0 421:0.0 422:0.0 423:0.0 424:0.0 425:0.0 426:0.0 427:0.0 428:0.0 429:0.0 430:1.0 431:1.0 432:1.0 433:0.0 434:0.0 435:0.0 436:0.0 437:0.0 438:0.0 439:0.0 440:0.0 441:0.0 442:0.0 443:0.0 444:0.0 445:0.0 446:0.0 447:0.0 448:0.0 449:0.0 450:0.0 451:0.0 452:0.0 453:0.0 454:1.0 455:1.0 456:1.0 457:0.0 458:0.0 459:0.0 460:0.0 461:0.0 462:0.0 463:0.0 464:0.0 465:0.0 466:0.0 467:0.0 468:0.0 469:0.0 470:0.0 471:0.0 472:0.0 473:0.0 474:0.0 475:0.0 476:0.0 477:0.0 478:1.0 479:1.0 480:1.0 481:0.0 482:0.0 483:0.0 484:0.0 485:0.0 486:0.0 487:0.0 488:0.0 489:0.0 490:0.0 491:0.0 492:0.0 493:0.0 494:0.0 495:0.0 496:0.0 497:0.0 498:0.0 499:0.0 500:1.0 501:1.0 502:0.0 503:0.0 504:0.0 505:0.0 506:0.0 507:0.0 508:0.0 509:0.0 510:0.0 511:0.0 512:0.0 513:0.0 514:0.0 515:0.0 516:0.0 517:0.0 518:0.0 519:0.0 520:0.0 521:0.0 522:0.0 523:0.0 524:1.0 525:1.0 526:0.0 527:0.0 528:0.0 529:0.0 530:0.0 531:0.0 532:0.0 533:0.0 534:0.0 535:0.0 536:0.0 537:0.0 538:0.0 539:0.0 540:0.0 541:0.0 542:0.0 543:0.0 544:0.0 545:0.0 546:0.0 547:0.0 548:1.0 549:1.0 550:0.0 551:0.0 552:0.0 553:0.0 554:0.0 555:0.0 556:0.0 557:0.0 558:0.0 559:0.0 560:0.0 561:0.0 562:0.0 563:0.0 564:0.0 565:0.0 566:0.0 567:0.0 568:0.0 569:0.0 570:0.0 571:0.0 572:1.0 573:1.0 574:0.0 575:0.0 576:0.0 
-0.0 0.0 0.0 0.0017505668288201415 0.0 0.0013738253066491414 0.0 0.0 0.0 0.0 4.7006621158608567E-4 6.455579685196313E-4 3.662980218855439E-4 0.0044825486638658835 4.218243328629073E-4 0.0 0.0 6.208872888856773E-4 0.0 0.0 0.0 0.0 0.0 0.0013604061158285056 0.0 4.896298629255858E-5 0.0015951836644830647 0.0031224490166244685 0.0021062378724995205 0.0 1:0.0 2:0.0 3:0.0 4:0.0 5:1.0 6:1.0 7:0.0 8:0.0 9:0.0 10:0.0 11:0.0 12:0.0 13:0.0 14:0.0 15:0.0 16:0.0 17:0.0 18:0.0 19:0.0 20:0.0 21:0.0 22:1.0 23:1.0 24:1.0 25:0.0 26:0.0 27:0.0 28:0.0 29:1.0 30:1.0 31:0.0 32:0.0 33:0.0 34:0.0 35:0.0 36:0.0 37:0.0 38:0.0 39:0.0 40:0.0 41:0.0 42:0.0 43:0.0 44:0.0 45:0.0 46:1.0 47:1.0 48:1.0 49:0.0 50:0.0 51:0.0 52:0.0 53:1.0 54:1.0 55:0.0 56:0.0 57:0.0 58:0.0 59:0.0 60:0.0 61:0.0 62:0.0 63:0.0 64:0.0 65:0.0 66:0.0 67:0.0 68:0.0 69:0.0 70:1.0 71:1.0 72:1.0 73:0.0 74:0.0 75:0.0 76:0.0 77:1.0 78:1.0 79:0.0 80:0.0 81:0.0 82:0.0 83:0.0 84:0.0 85:0.0 86:0.0 87:0.0 88:0.0 89:0.0 90:0.0 91:0.0 92:0.0 93:0.0 94:1.0 95:1.0 96:1.0 97:0.0 98:0.0 99:0.0 100:0.0 101:1.0 102:1.0 103:0.0 104:0.0 105:0.0 106:0.0 107:0.0 108:0.0 109:0.0 110:0.0 111:0.0 112:0.0 113:0.0 114:0.0 115:0.0 116:0.0 117:0.0 118:1.0 119:1.0 120:1.0 121:0.0 122:0.0 123:0.0 124:0.0 125:1.0 126:1.0 127:0.0 128:0.0 129:0.0 130:0.0 131:0.0 132:0.0 133:0.0 134:0.0 135:0.0 136:0.0 137:0.0 138:0.0 139:0.0 140:0.0 141:0.0 142:1.0 143:1.0 144:1.0 145:0.0 146:0.0 147:0.0 148:0.0 149:1.0 150:1.0 151:0.0 152:0.0 153:0.0 154:0.0 155:0.0 156:0.0 157:0.0 158:0.0 159:0.0 160:0.0 161:0.0 162:0.0 163:0.0 164:0.0 165:0.0 166:1.0 167:1.0 168:1.0 169:0.0 170:0.0 171:0.0 172:0.0 173:1.0 174:1.0 175:0.0 176:0.0 177:0.0 178:0.0 179:0.0 180:0.0 181:0.0 182:0.0 183:0.0 184:0.0 185:0.0 186:0.0 187:0.0 188:0.0 189:0.0 190:1.0 191:1.0 192:1.0 193:0.0 194:0.0 195:1.0 196:1.0 197:1.0 198:1.0 199:1.0 200:1.0 201:1.0 202:1.0 203:1.0 204:1.0 205:1.0 206:1.0 207:1.0 208:1.0 209:1.0 210:1.0 211:1.0 212:1.0 213:1.0 214:1.0 215:1.0 216:1.0 217:0.0 218:0.0 219:1.0 220:1.0 221:1.0 222:1.0 223:1.0 224:1.0 225:1.0 226:1.0 227:1.0 228:1.0 229:1.0 230:1.0 231:1.0 232:1.0 233:1.0 234:1.0 235:1.0 236:1.0 237:1.0 238:1.0 239:1.0 240:1.0 241:0.0 242:0.0 243:1.0 244:1.0 245:1.0 246:1.0 247:1.0 248:1.0 249:1.0 250:1.0 251:1.0 252:1.0 253:1.0 254:1.0 255:1.0 256:1.0 257:1.0 258:1.0 259:1.0 260:1.0 261:1.0 262:1.0 263:1.0 264:1.0 265:0.0 266:0.0 267:1.0 268:1.0 269:1.0 270:1.0 271:1.0 272:1.0 273:1.0 274:1.0 275:1.0 276:1.0 277:1.0 278:1.0 279:1.0 280:1.0 281:1.0 282:1.0 283:1.0 284:1.0 285:1.0 286:1.0 287:1.0 288:1.0 289:0.0 290:0.0 291:1.0 292:1.0 293:1.0 294:1.0 295:1.0 296:1.0 297:1.0 298:1.0 299:1.0 300:1.0 301:1.0 302:1.0 303:1.0 304:1.0 305:1.0 306:1.0 307:1.0 308:1.0 309:1.0 310:1.0 311:1.0 312:1.0 313:0.0 314:0.0 315:1.0 316:1.0 317:1.0 318:1.0 319:1.0 320:1.0 321:1.0 322:1.0 323:1.0 324:1.0 325:1.0 326:1.0 327:1.0 328:1.0 329:1.0 330:1.0 331:1.0 332:1.0 333:1.0 334:1.0 335:1.0 336:1.0 337:0.0 338:0.0 339:1.0 340:1.0 341:1.0 342:1.0 343:1.0 344:1.0 345:1.0 346:1.0 347:1.0 348:1.0 349:1.0 350:1.0 351:1.0 352:1.0 353:1.0 354:1.0 355:1.0 356:1.0 357:1.0 358:1.0 359:1.0 360:1.0 361:0.0 362:0.0 363:1.0 364:1.0 365:1.0 366:1.0 367:1.0 368:1.0 369:1.0 370:1.0 371:1.0 372:1.0 373:1.0 374:1.0 375:1.0 376:1.0 377:1.0 378:1.0 379:1.0 380:1.0 381:1.0 382:1.0 383:1.0 384:1.0 385:1.0 386:1.0 387:0.0 388:0.0 389:0.0 390:0.0 391:0.0 392:0.0 393:0.0 394:0.0 395:0.0 396:0.0 397:0.0 398:0.0 399:0.0 400:0.0 401:0.0 402:0.0 403:0.0 404:0.0 405:0.0 406:1.0 407:1.0 408:1.0 409:1.0 410:1.0 411:0.0 412:0.0 413:0.0 414:0.0 415:0.0 416:0.0 417:0.0 418:0.0 419:0.0 420:0.0 421:0.0 422:0.0 423:0.0 424:0.0 425:0.0 426:0.0 427:0.0 428:0.0 429:0.0 430:1.0 431:1.0 432:1.0 433:1.0 434:1.0 435:0.0 436:0.0 437:0.0 438:0.0 439:0.0 440:0.0 441:0.0 442:0.0 443:0.0 444:0.0 445:0.0 446:0.0 447:0.0 448:0.0 449:0.0 450:0.0 451:0.0 452:0.0 453:0.0 454:1.0 455:1.0 456:1.0 457:1.0 458:1.0 459:0.0 460:0.0 461:0.0 462:0.0 463:0.0 464:0.0 465:0.0 466:0.0 467:0.0 468:0.0 469:0.0 470:0.0 471:0.0 472:0.0 473:0.0 474:0.0 475:0.0 476:0.0 477:0.0 478:1.0 479:1.0 480:1.0 481:0.0 482:0.0 483:0.0 484:0.0 485:0.0 486:0.0 487:0.0 488:0.0 489:0.0 490:0.0 491:0.0 492:0.0 493:0.0 494:0.0 495:0.0 496:0.0 497:0.0 498:0.0 499:0.0 500:0.0 501:0.0 502:1.0 503:1.0 504:1.0 505:0.0 506:0.0 507:0.0 508:0.0 509:0.0 510:0.0 511:0.0 512:0.0 513:0.0 514:0.0 515:0.0 516:0.0 517:0.0 518:0.0 519:0.0 520:0.0 521:0.0 522:0.0 523:0.0 524:0.0 525:0.0 526:1.0 527:1.0 528:1.0 529:0.0 530:0.0 531:0.0 532:0.0 533:0.0 534:0.0 535:0.0 536:0.0 537:0.0 538:0.0 539:0.0 540:0.0 541:0.0 542:0.0 543:0.0 544:0.0 545:0.0 546:0.0 547:0.0 548:0.0 549:0.0 550:1.0 551:1.0 552:1.0 553:0.0 554:0.0 555:0.0 556:0.0 557:0.0 558:0.0 559:0.0 560:0.0 561:0.0 562:0.0 563:0.0 564:0.0 565:0.0 566:0.0 567:0.0 568:0.0 569:0.0 570:0.0 571:0.0 572:0.0 573:0.0 574:1.0 575:1.0 576:1.0 
-0.0 0.0028363884260916507 0.0 0.005420285048615256 0.0 0.0 0.0026956125696570243 0.0 0.0017250637553659842 0.0011257663328238007 0.0 0.005023464565319558 0.003213032196323789 0.005413578765881628 3.062034497301136E-4 0.0017820875836855768 0.002560808211590248 0.0026513691592906924 0.0029739514608945537 0.005850946183407107 0.003743965279539963 5.43544124752804E-5 0.0027317594976134347 0.0 6.488150550250525E-4 0.0 0.0014440198025814904 0.008638835261544981 0.005621586802099676 0.004365362269499414 1:0.0 2:0.0 3:0.0 4:0.0 5:0.0 6:0.0 7:0.0 8:0.0 9:0.0 10:0.0 11:0.0 12:0.0 13:0.0 14:0.0 15:0.0 16:0.0 17:0.0 18:0.0 19:0.0 20:1.0 21:1.0 22:1.0 23:1.0 24:1.0 25:0.0 26:0.0 27:0.0 28:0.0 29:0.0 30:0.0 31:0.0 32:0.0 33:0.0 34:0.0 35:0.0 36:0.0 37:0.0 38:0.0 39:0.0 40:0.0 41:0.0 42:0.0 43:0.0 44:1.0 45:1.0 46:1.0 47:1.0 48:1.0 49:0.0 50:0.0 51:0.0 52:0.0 53:0.0 54:0.0 55:0.0 56:0.0 57:0.0 58:0.0 59:0.0 60:0.0 61:0.0 62:0.0 63:0.0 64:0.0 65:0.0 66:0.0 67:0.0 68:1.0 69:1.0 70:1.0 71:1.0 72:1.0 73:0.0 74:0.0 75:0.0 76:0.0 77:0.0 78:0.0 79:0.0 80:0.0 81:0.0 82:0.0 83:0.0 84:0.0 85:0.0 86:0.0 87:0.0 88:0.0 89:0.0 90:0.0 91:0.0 92:1.0 93:1.0 94:1.0 95:1.0 96:1.0 97:0.0 98:0.0 99:1.0 100:1.0 101:0.0 102:0.0 103:0.0 104:0.0 105:0.0 106:0.0 107:0.0 108:0.0 109:0.0 110:0.0 111:0.0 112:0.0 113:0.0 114:0.0 115:0.0 116:1.0 117:1.0 118:0.0 119:0.0 120:0.0 121:0.0 122:0.0 123:1.0 124:1.0 125:0.0 126:0.0 127:0.0 128:0.0 129:0.0 130:0.0 131:0.0 132:0.0 133:0.0 134:0.0 135:0.0 136:0.0 137:0.0 138:0.0 139:0.0 140:1.0 141:1.0 142:0.0 143:0.0 144:0.0 145:0.0 146:0.0 147:1.0 148:1.0 149:0.0 150:0.0 151:0.0 152:0.0 153:0.0 154:0.0 155:0.0 156:0.0 157:0.0 158:0.0 159:0.0 160:0.0 161:0.0 162:0.0 163:0.0 164:1.0 165:1.0 166:0.0 167:0.0 168:0.0 169:0.0 170:0.0 171:1.0 172:1.0 173:0.0 174:0.0 175:0.0 176:0.0 177:0.0 178:0.0 179:0.0 180:0.0 181:0.0 182:0.0 183:0.0 184:0.0 185:0.0 186:0.0 187:0.0 188:1.0 189:1.0 190:0.0 191:0.0 192:0.0 193:0.0 194:0.0 195:1.0 196:1.0 197:0.0 198:0.0 199:1.0 200:1.0 201:1.0 202:1.0 203:1.0 204:1.0 205:1.0 206:1.0 207:1.0 208:1.0 209:1.0 210:1.0 211:1.0 212:1.0 213:1.0 214:0.0 215:0.0 216:0.0 217:0.0 218:0.0 219:1.0 220:1.0 221:0.0 222:0.0 223:1.0 224:1.0 225:1.0 226:1.0 227:1.0 228:1.0 229:1.0 230:1.0 231:1.0 232:1.0 233:1.0 234:1.0 235:1.0 236:1.0 237:1.0 238:0.0 239:0.0 240:0.0 241:0.0 242:0.0 243:1.0 244:1.0 245:0.0 246:0.0 247:1.0 248:1.0 249:1.0 250:1.0 251:1.0 252:1.0 253:1.0 254:1.0 255:1.0 256:1.0 257:1.0 258:1.0 259:1.0 260:1.0 261:1.0 262:0.0 263:0.0 264:0.0 265:0.0 266:0.0 267:1.0 268:1.0 269:0.0 270:0.0 271:1.0 272:1.0 273:1.0 274:1.0 275:1.0 276:1.0 277:1.0 278:1.0 279:1.0 280:1.0 281:1.0 282:1.0 283:1.0 284:1.0 285:1.0 286:0.0 287:0.0 288:0.0 289:0.0 290:0.0 291:1.0 292:1.0 293:1.0 294:1.0 295:1.0 296:1.0 297:1.0 298:1.0 299:1.0 300:1.0 301:1.0 302:1.0 303:1.0 304:1.0 305:1.0 306:1.0 307:1.0 308:1.0 309:1.0 310:0.0 311:0.0 312:0.0 313:0.0 314:0.0 315:1.0 316:1.0 317:1.0 318:1.0 319:1.0 320:1.0 321:1.0 322:1.0 323:1.0 324:1.0 325:1.0 326:1.0 327:1.0 328:1.0 329:1.0 330:1.0 331:1.0 332:1.0 333:1.0 334:0.0 335:0.0 336:0.0 337:0.0 338:0.0 339:1.0 340:1.0 341:1.0 342:1.0 343:1.0 344:1.0 345:1.0 346:1.0 347:1.0 348:1.0 349:1.0 350:1.0 351:1.0 352:1.0 353:1.0 354:1.0 355:1.0 356:1.0 357:1.0 358:0.0 359:0.0 360:0.0 361:0.0 362:0.0 363:1.0 364:1.0 365:1.0 366:1.0 367:1.0 368:1.0 369:1.0 370:1.0 371:1.0 372:1.0 373:1.0 374:1.0 375:1.0 376:1.0 377:1.0 378:1.0 379:1.0 380:1.0 381:1.0 382:0.0 383:0.0 384:0.0 385:1.0 386:1.0 387:1.0 388:1.0 389:1.0 390:1.0 391:0.0 392:0.0 393:0.0 394:0.0 395:0.0 396:0.0 397:0.0 398:0.0 399:0.0 400:0.0 401:0.0 402:0.0 403:0.0 404:1.0 405:1.0 406:0.0 407:0.0 408:0.0 409:1.0 410:1.0 411:1.0 412:1.0 413:1.0 414:1.0 415:0.0 416:0.0 417:0.0 418:0.0 419:0.0 420:0.0 421:0.0 422:0.0 423:0.0 424:0.0 425:0.0 426:0.0 427:0.0 428:1.0 429:1.0 430:0.0 431:0.0 432:0.0 433:1.0 434:1.0 435:1.0 436:1.0 437:1.0 438:1.0 439:0.0 440:0.0 441:0.0 442:0.0 443:0.0 444:0.0 445:0.0 446:0.0 447:0.0 448:0.0 449:0.0 450:0.0 451:0.0 452:1.0 453:1.0 454:0.0 455:0.0 456:0.0 457:1.0 458:1.0 459:1.0 460:1.0 461:1.0 462:1.0 463:0.0 464:0.0 465:0.0 466:0.0 467:0.0 468:0.0 469:0.0 470:0.0 471:0.0 472:0.0 473:0.0 474:0.0 475:0.0 476:1.0 477:1.0 478:0.0 479:0.0 480:0.0 481:0.0 482:0.0 483:0.0 484:0.0 485:0.0 486:0.0 487:0.0 488:0.0 489:0.0 490:0.0 491:0.0 492:0.0 493:0.0 494:0.0 495:0.0 496:0.0 497:0.0 498:0.0 499:0.0 500:1.0 501:1.0 502:0.0 503:0.0 504:0.0 505:0.0 506:0.0 507:0.0 508:0.0 509:0.0 510:0.0 511:0.0 512:0.0 513:0.0 514:0.0 515:0.0 516:0.0 517:0.0 518:0.0 519:0.0 520:0.0 521:0.0 522:0.0 523:0.0 524:1.0 525:1.0 526:0.0 527:0.0 528:0.0 529:0.0 530:0.0 531:0.0 532:0.0 533:0.0 534:0.0 535:0.0 536:0.0 537:0.0 538:0.0 539:0.0 540:0.0 541:0.0 542:0.0 543:0.0 544:0.0 545:0.0 546:0.0 547:0.0 548:1.0 549:1.0 550:0.0 551:0.0 552:0.0 553:0.0 554:0.0 555:0.0 556:0.0 557:0.0 558:0.0 559:0.0 560:0.0 561:0.0 562:0.0 563:0.0 564:0.0 565:0.0 566:0.0 567:0.0 568:0.0 569:0.0 570:0.0 571:0.0 572:1.0 573:1.0 574:0.0 575:0.0 576:0.0 
-0.0027290223879995164 0.0015532429113311779 0.0011106856246456856 0.0019731483172152004 0.005268735699157875 0.00253699577210022 0.0 8.988036224774737E-4 0.003811641311641471 7.238600112281228E-4 4.823942287387909E-4 3.8667113617424164E-4 0.003145380555283374 0.0 7.880668735249045E-4 0.0 0.0 0.0013847657374113083 0.0 0.0 0.0 0.003459316900273186 0.0 0.0 0.0 0.0 0.00345764764412236 0.0 0.0 0.0017979067730390069 1:0.0 2:0.0 3:1.0 4:1.0 5:0.0 6:0.0 7:0.0 8:0.0 9:0.0 10:0.0 11:0.0 12:0.0 13:0.0 14:0.0 15:0.0 16:0.0 17:0.0 18:0.0 19:0.0 20:1.0 21:1.0 22:0.0 23:0.0 24:0.0 25:0.0 26:0.0 27:1.0 28:1.0 29:0.0 30:0.0 31:0.0 32:0.0 33:0.0 34:0.0 35:0.0 36:0.0 37:0.0 38:0.0 39:0.0 40:0.0 41:0.0 42:0.0 43:0.0 44:1.0 45:1.0 46:0.0 47:0.0 48:0.0 49:0.0 50:0.0 51:1.0 52:1.0 53:0.0 54:0.0 55:0.0 56:0.0 57:0.0 58:0.0 59:0.0 60:0.0 61:0.0 62:0.0 63:0.0 64:0.0 65:0.0 66:0.0 67:0.0 68:1.0 69:1.0 70:0.0 71:0.0 72:0.0 73:0.0 74:0.0 75:1.0 76:1.0 77:0.0 78:0.0 79:0.0 80:0.0 81:0.0 82:0.0 83:0.0 84:0.0 85:0.0 86:0.0 87:0.0 88:0.0 89:0.0 90:0.0 91:0.0 92:1.0 93:1.0 94:0.0 95:0.0 96:0.0 97:0.0 98:0.0 99:1.0 100:1.0 101:0.0 102:0.0 103:0.0 104:0.0 105:0.0 106:0.0 107:0.0 108:0.0 109:0.0 110:0.0 111:0.0 112:0.0 113:0.0 114:0.0 115:0.0 116:1.0 117:1.0 118:0.0 119:0.0 120:0.0 121:0.0 122:0.0 123:1.0 124:1.0 125:0.0 126:0.0 127:0.0 128:0.0 129:0.0 130:0.0 131:0.0 132:0.0 133:0.0 134:0.0 135:0.0 136:0.0 137:0.0 138:0.0 139:0.0 140:1.0 141:1.0 142:0.0 143:0.0 144:0.0 145:0.0 146:0.0 147:1.0 148:1.0 149:0.0 150:0.0 151:0.0 152:0.0 153:0.0 154:0.0 155:0.0 156:0.0 157:0.0 158:0.0 159:0.0 160:0.0 161:0.0 162:0.0 163:0.0 164:1.0 165:1.0 166:0.0 167:0.0 168:0.0 169:0.0 170:0.0 171:1.0 172:1.0 173:0.0 174:0.0 175:0.0 176:0.0 177:0.0 178:0.0 179:0.0 180:0.0 181:0.0 182:0.0 183:0.0 184:0.0 185:0.0 186:0.0 187:0.0 188:1.0 189:1.0 190:0.0 191:0.0 192:0.0 193:1.0 194:1.0 195:1.0 196:1.0 197:1.0 198:1.0 199:1.0 200:1.0 201:1.0 202:1.0 203:1.0 204:1.0 205:1.0 206:1.0 207:1.0 208:1.0 209:1.0 210:1.0 211:1.0 212:1.0 213:1.0 214:0.0 215:0.0 216:0.0 217:1.0 218:1.0 219:1.0 220:1.0 221:1.0 222:1.0 223:1.0 224:1.0 225:1.0 226:1.0 227:1.0 228:1.0 229:1.0 230:1.0 231:1.0 232:1.0 233:1.0 234:1.0 235:1.0 236:1.0 237:1.0 238:0.0 239:0.0 240:0.0 241:1.0 242:1.0 243:1.0 244:1.0 245:1.0 246:1.0 247:1.0 248:1.0 249:1.0 250:1.0 251:1.0 252:1.0 253:1.0 254:1.0 255:1.0 256:1.0 257:1.0 258:1.0 259:1.0 260:1.0 261:1.0 262:0.0 263:0.0 264:0.0 265:1.0 266:1.0 267:1.0 268:1.0 269:1.0 270:1.0 271:1.0 272:1.0 273:1.0 274:1.0 275:1.0 276:1.0 277:1.0 278:1.0 279:1.0 280:1.0 281:1.0 282:1.0 283:1.0 284:1.0 285:1.0 286:0.0 287:0.0 288:0.0 289:1.0 290:1.0 291:1.0 292:1.0 293:1.0 294:1.0 295:1.0 296:1.0 297:1.0 298:1.0 299:1.0 300:1.0 301:1.0 302:1.0 303:1.0 304:1.0 305:1.0 306:1.0 307:1.0 308:1.0 309:1.0 310:1.0 311:1.0 312:1.0 313:1.0 314:1.0 315:1.0 316:1.0 317:1.0 318:1.0 319:1.0 320:1.0 321:1.0 322:1.0 323:1.0 324:1.0 325:1.0 326:1.0 327:1.0 328:1.0 329:1.0 330:1.0 331:1.0 332:1.0 333:1.0 334:1.0 335:1.0 336:1.0 337:1.0 338:1.0 339:1.0 340:1.0 341:1.0 342:1.0 343:1.0 344:1.0 345:1.0 346:1.0 347:1.0 348:1.0 349:1.0 350:1.0 351:1.0 352:1.0 353:1.0 354:1.0 355:1.0 356:1.0 357:1.0 358:1.0 359:1.0 360:1.0 361:1.0 362:1.0 363:1.0 364:1.0 365:1.0 366:1.0 367:1.0 368:1.0 369:1.0 370:1.0 371:1.0 372:1.0 373:1.0 374:1.0 375:1.0 376:1.0 377:1.0 378:1.0 379:1.0 380:1.0 381:1.0 382:1.0 383:1.0 384:1.0 385:0.0 386:0.0 387:0.0 388:0.0 389:0.0 390:0.0 391:0.0 392:0.0 393:0.0 394:0.0 395:0.0 396:0.0 397:0.0 398:0.0 399:0.0 400:0.0 401:0.0 402:0.0 403:0.0 404:1.0 405:1.0 406:0.0 407:0.0 408:0.0 409:0.0 410:0.0 411:0.0 412:0.0 413:0.0 414:0.0 415:0.0 416:0.0 417:0.0 418:0.0 419:0.0 420:0.0 421:0.0 422:0.0 423:0.0 424:0.0 425:0.0 426:0.0 427:0.0 428:1.0 429:1.0 430:0.0 431:0.0 432:0.0 433:0.0 434:0.0 435:0.0 436:0.0 437:0.0 438:0.0 439:0.0 440:0.0 441:0.0 442:0.0 443:0.0 444:0.0 445:0.0 446:0.0 447:0.0 448:0.0 449:0.0 450:0.0 451:0.0 452:1.0 453:1.0 454:0.0 455:0.0 456:0.0 457:0.0 458:0.0 459:0.0 460:0.0 461:0.0 462:0.0 463:0.0 464:0.0 465:0.0 466:0.0 467:0.0 468:0.0 469:0.0 470:0.0 471:0.0 472:0.0 473:0.0 474:0.0 475:0.0 476:1.0 477:1.0 478:0.0 479:0.0 480:0.0 481:0.0 482:0.0 483:0.0 484:0.0 485:0.0 486:0.0 487:0.0 488:0.0 489:0.0 490:0.0 491:0.0 492:0.0 493:0.0 494:0.0 495:0.0 496:0.0 497:0.0 498:0.0 499:0.0 500:1.0 501:1.0 502:0.0 503:0.0 504:0.0 505:0.0 506:0.0 507:0.0 508:0.0 509:0.0 510:0.0 511:0.0 512:0.0 513:0.0 514:0.0 515:0.0 516:0.0 517:0.0 518:0.0 519:0.0 520:0.0 521:0.0 522:0.0 523:0.0 524:1.0 525:1.0 526:0.0 527:0.0 528:0.0 529:0.0 530:0.0 531:0.0 532:0.0 533:0.0 534:0.0 535:0.0 536:0.0 537:0.0 538:0.0 539:0.0 540:0.0 541:0.0 542:0.0 543:0.0 544:0.0 545:0.0 546:0.0 547:0.0 548:1.0 549:1.0 550:0.0 551:0.0 552:0.0 553:0.0 554:0.0 555:0.0 556:0.0 557:0.0 558:0.0 559:0.0 560:0.0 561:0.0 562:0.0 563:0.0 564:0.0 565:0.0 566:0.0 567:0.0 568:0.0 569:0.0 570:0.0 571:0.0 572:1.0 573:1.0 574:0.0 575:0.0 576:0.0 
-0.0 0.0024938233130849833 0.006716618085504361 0.0 8.88054072472554E-4 9.070007178076439E-4 0.0042165583915440355 0.002463522495167387 0.0 7.444897698881366E-4 0.0016162583509433466 7.011215361397905E-4 0.0 0.005505352430596858 0.0021606506592001464 0.0 0.0 0.0 0.0 0.0 0.0 0.0 0.0 0.01349246383717317 0.0012438116566835002 0.005359001432407914 0.0 0.0 0.001787623342380967 0.0011243665476690593 1:0.0 2:0.0 3:1.0 4:1.0 5:0.0 6:0.0 7:0.0 8:0.0 9:0.0 10:0.0 11:0.0 12:0.0 13:0.0 14:0.0 15:0.0 16:0.0 17:0.0 18:0.0 19:0.0 20:1.0 21:1.0 22:0.0 23:0.0 24:0.0 25:0.0 26:0.0 27:1.0 28:1.0 29:0.0 30:0.0 31:0.0 32:0.0 33:0.0 34:0.0 35:0.0 36:0.0 37:0.0 38:0.0 39:0.0 40:0.0 41:0.0 42:0.0 43:0.0 44:1.0 45:1.0 46:0.0 47:0.0 48:0.0 49:0.0 50:0.0 51:1.0 52:1.0 53:0.0 54:0.0 55:0.0 56:0.0 57:0.0 58:0.0 59:0.0 60:0.0 61:0.0 62:0.0 63:0.0 64:0.0 65:0.0 66:0.0 67:0.0 68:1.0 69:1.0 70:0.0 71:0.0 72:0.0 73:0.0 74:0.0 75:1.0 76:1.0 77:0.0 78:0.0 79:0.0 80:0.0 81:0.0 82:0.0 83:0.0 84:0.0 85:0.0 86:0.0 87:0.0 88:0.0 89:0.0 90:0.0 91:0.0 92:1.0 93:1.0 94:0.0 95:0.0 96:0.0 97:0.0 98:0.0 99:1.0 100:1.0 101:0.0 102:0.0 103:0.0 104:0.0 105:0.0 106:0.0 107:0.0 108:0.0 109:0.0 110:0.0 111:0.0 112:0.0 113:0.0 114:0.0 115:0.0 116:1.0 117:1.0 118:0.0 119:0.0 120:0.0 121:0.0 122:0.0 123:1.0 124:1.0 125:0.0 126:0.0 127:0.0 128:0.0 129:0.0 130:0.0 131:0.0 132:0.0 133:0.0 134:0.0 135:0.0 136:0.0 137:0.0 138:0.0 139:0.0 140:1.0 141:1.0 142:0.0 143:0.0 144:0.0 145:0.0 146:0.0 147:1.0 148:1.0 149:0.0 150:0.0 151:0.0 152:0.0 153:0.0 154:0.0 155:0.0 156:0.0 157:0.0 158:0.0 159:0.0 160:0.0 161:0.0 162:0.0 163:0.0 164:1.0 165:1.0 166:0.0 167:0.0 168:0.0 169:0.0 170:0.0 171:1.0 172:1.0 173:0.0 174:0.0 175:0.0 176:0.0 177:0.0 178:0.0 179:0.0 180:0.0 181:0.0 182:0.0 183:0.0 184:0.0 185:0.0 186:0.0 187:0.0 188:1.0 189:1.0 190:0.0 191:0.0 192:0.0 193:1.0 194:1.0 195:1.0 196:1.0 197:1.0 198:1.0 199:1.0 200:1.0 201:1.0 202:1.0 203:1.0 204:1.0 205:1.0 206:1.0 207:1.0 208:1.0 209:1.0 210:1.0 211:1.0 212:1.0 213:1.0 214:1.0 215:1.0 216:1.0 217:1.0 218:1.0 219:1.0 220:1.0 221:1.0 222:1.0 223:1.0 224:1.0 225:1.0 226:1.0 227:1.0 228:1.0 229:1.0 230:1.0 231:1.0 232:1.0 233:1.0 234:1.0 235:1.0 236:1.0 237:1.0 238:1.0 239:1.0 240:1.0 241:1.0 242:1.0 243:1.0 244:1.0 245:1.0 246:1.0 247:1.0 248:1.0 249:1.0 250:1.0 251:1.0 252:1.0 253:1.0 254:1.0 255:1.0 256:1.0 257:1.0 258:1.0 259:1.0 260:1.0 261:1.0 262:1.0 263:1.0 264:1.0 265:1.0 266:1.0 267:1.0 268:1.0 269:1.0 270:1.0 271:1.0 272:1.0 273:1.0 274:1.0 275:1.0 276:1.0 277:1.0 278:1.0 279:1.0 280:1.0 281:1.0 282:1.0 283:1.0 284:1.0 285:1.0 286:1.0 287:1.0 288:1.0 289:1.0 290:1.0 291:1.0 292:1.0 293:1.0 294:1.0 295:1.0 296:1.0 297:1.0 298:1.0 299:1.0 300:1.0 301:1.0 302:1.0 303:1.0 304:1.0 305:1.0 306:1.0 307:1.0 308:1.0 309:1.0 310:0.0 311:0.0 312:0.0 313:1.0 314:1.0 315:1.0 316:1.0 317:1.0 318:1.0 319:1.0 320:1.0 321:1.0 322:1.0 323:1.0 324:1.0 325:1.0 326:1.0 327:1.0 328:1.0 329:1.0 330:1.0 331:1.0 332:1.0 333:1.0 334:0.0 335:0.0 336:0.0 337:1.0 338:1.0 339:1.0 340:1.0 341:1.0 342:1.0 343:1.0 344:1.0 345:1.0 346:1.0 347:1.0 348:1.0 349:1.0 350:1.0 351:1.0 352:1.0 353:1.0 354:1.0 355:1.0 356:1.0 357:1.0 358:0.0 359:0.0 360:0.0 361:1.0 362:1.0 363:1.0 364:1.0 365:1.0 366:1.0 367:1.0 368:1.0 369:1.0 370:1.0 371:1.0 372:1.0 373:1.0 374:1.0 375:1.0 376:1.0 377:1.0 378:1.0 379:1.0 380:1.0 381:1.0 382:0.0 383:0.0 384:0.0 385:0.0 386:0.0 387:0.0 388:0.0 389:0.0 390:0.0 391:0.0 392:0.0 393:0.0 394:0.0 395:0.0 396:0.0 397:0.0 398:0.0 399:0.0 400:0.0 401:0.0 402:0.0 403:0.0 404:1.0 405:1.0 406:0.0 407:0.0 408:0.0 409:0.0 410:0.0 411:0.0 412:0.0 413:0.0 414:0.0 415:0.0 416:0.0 417:0.0 418:0.0 419:0.0 420:0.0 421:0.0 422:0.0 423:0.0 424:0.0 425:0.0 426:0.0 427:0.0 428:1.0 429:1.0 430:0.0 431:0.0 432:0.0 433:0.0 434:0.0 435:0.0 436:0.0 437:0.0 438:0.0 439:0.0 440:0.0 441:0.0 442:0.0 443:0.0 444:0.0 445:0.0 446:0.0 447:0.0 448:0.0 449:0.0 450:0.0 451:0.0 452:1.0 453:1.0 454:0.0 455:0.0 456:0.0 457:0.0 458:0.0 459:0.0 460:0.0 461:0.0 462:0.0 463:0.0 464:0.0 465:0.0 466:0.0 467:0.0 468:0.0 469:0.0 470:0.0 471:0.0 472:0.0 473:0.0 474:0.0 475:0.0 476:1.0 477:1.0 478:0.0 479:0.0 480:0.0 481:0.0 482:0.0 483:0.0 484:0.0 485:0.0 486:0.0 487:0.0 488:0.0 489:0.0 490:0.0 491:0.0 492:0.0 493:0.0 494:0.0 495:0.0 496:0.0 497:0.0 498:0.0 499:0.0 500:1.0 501:1.0 502:0.0 503:0.0 504:0.0 505:0.0 506:0.0 507:0.0 508:0.0 509:0.0 510:0.0 511:0.0 512:0.0 513:0.0 514:0.0 515:0.0 516:0.0 517:0.0 518:0.0 519:0.0 520:0.0 521:0.0 522:0.0 523:0.0 524:1.0 525:1.0 526:0.0 527:0.0 528:0.0 529:0.0 530:0.0 531:0.0 532:0.0 533:0.0 534:0.0 535:0.0 536:0.0 537:0.0 538:0.0 539:0.0 540:0.0 541:0.0 542:0.0 543:0.0 544:0.0 545:0.0 546:0.0 547:0.0 548:1.0 549:1.0 550:0.0 551:0.0 552:0.0 553:0.0 554:0.0 555:0.0 556:0.0 557:0.0 558:0.0 559:0.0 560:0.0 561:0.0 562:0.0 563:0.0 564:0.0 565:0.0 566:0.0 567:0.0 568:0.0 569:0.0 570:0.0 571:0.0 572:1.0 573:1.0 574:0.0 575:0.0 576:0.0 
